{"INPUT_NODES":576,"H1_NODES":16,"H2_NODES":16,"OUTPUT_NODES":10,"BIAS":1,"LEARNING_RATE":0.01,"weightsIH1":{"rows":16,"cols":576,"data":[[-0.5525302896010564,0.6697916499522423,-0.4146924948683468,-0.5580030372716074,0.845058333496782,-0.6941621449688964,-0.9080370114058121,-0.3871432907031007,0.8898870179471539,-0.22951106385235429,-0.9396535028777047,-0.8684050151338538,-0.04165782838028928,0.951539402162835,0.39298521005548165,0.8273813440366345,0.4697022767228803,0.14656513404911856,0.23381130244655404,0.9738392658336643,-0.8620001240750006,-0.16513956205070077,-0.8926280919468863,0.40920419693265275,-0.6559513695757846,0.879634243790921,-0.03617484272861102,-0.5157228407053625,-0.18008802099569252,-0.02288887680905258,-0.6515900659809959,0.22309226045836164,-0.49278842789933935,-0.8267415385856878,0.10090079134396428,0.8731995588972441,0.8940574031200841,0.9705248223650179,0.21640892425260644,0.6144764240308728,0.7860896481993443,-0.5666507846788963,0.22870784975550265,0.5707753798093189,-0.8269082693400578,0.7286174509348022,-0.7103130940718714,-0.8156183061896112,0.206759605112848,-0.09883214180891738,0.5533211026689209,0.49922675301211145,0.4161671495794121,-0.9767666396906547,0.9651930987958748,-0.792626655164606,-0.8372309436985441,0.8197073673618478,0.7260017752637697,0.3011137397214436,-0.8217068412963113,-0.0987877550024659,0.22600759632023848,-0.5561022546664645,-0.008086648772137111,-0.10980512071061449,0.43222544110856254,0.5045691353059225,0.5465664688641688,0.7752064778494132,-0.48614014864284155,-0.19071203870006467,-0.9195854305133913,0.9842077588865701,0.9241461122182479,0.846426920874711,-0.20577428966654185,-0.8757821707452842,0.3776331188804892,0.46437907838691733,-0.7541734548382067,0.3170415836055953,-0.9167176948312338,0.9173557294638388,-0.43910472361225344,0.87697969431456,0.7863014083555071,-0.757460535556108,-0.26199034749676303,-0.3420674185579279,0.8444580772696003,0.8845387933324012,0.9434292609315803,-0.6403555170351439,0.4416431076073198,0.9464128941440242,0.9608897417669584,0.20841182615357814,0.33289497796563144,-0.9079000770987541,-0.5077819186370562,0.4275852723044686,-0.0927485437270753,0.38205016698268607,-0.9847850005723111,-0.15553661182923934,0.9860751103954755,0.5410136651771548,0.3504174624887119,-0.21982503213455093,-0.928779359559958,-0.5265109484988648,-0.1732825482173195,-0.655959443808728,0.05491245687938586,-0.8845295807592309,-0.4926935059072799,0.03257540687052952,0.029899185729289474,0.47104208289860683,0.9984313826124112,-0.0953871267910136,0.8273505868221916,-0.18493155939077402,-0.29790823992596405,-0.8608160905937622,-0.9123726942737647,-0.5403559320574008,0.10959086020819574,0.26726803970591323,0.9607004473893568,-0.14217844909056118,-0.9696578210055666,-0.08477356477822953,0.07988199247489171,0.982610471358976,0.16185874269704661,0.3066672129509799,0.383398880249608,0.32001469439300584,0.9462846999937758,-0.08919486116422756,-0.38055543372144623,0.5938331916097503,1.0039952866346717,-0.8143397698920183,0.25397665837724576,0.11765948403130033,-0.6665949259349445,0.2493733314001631,-0.5479141909264472,-0.7183786115664376,-0.1789027543245583,0.68107450588351,-0.46654982373523257,-0.3331248417481548,0.22977723039554046,0.6176326149649728,0.572905659051851,0.31948552390660395,-0.6240407566383559,0.6057283001714286,-0.4506057465182116,0.6086065429432976,0.004748078177250623,0.4689145937337708,-0.008814298366257212,0.08281690331203954,-0.873941912373339,-0.39655943157338897,0.09648963960030364,-0.8827185983095689,-0.8633741988465349,-0.7694098161676377,-0.4284595831150955,0.7271563271301731,-0.4606739498624044,-0.9677955608356145,0.8304202455659594,0.3891026128118644,-0.4069229331709326,-0.7818296640285677,-0.10051135332600893,0.2654555052750416,-0.24471281333349437,-0.6074419464272993,-0.41103942033668656,0.18012062566938877,-0.792768854034475,-0.461891403928714,0.6661791693817569,0.0012213880467536703,0.43511941265045095,-0.745066843833713,-0.7039259401931514,0.3460554370671912,0.3817561933541743,-0.7827954535843963,0.8599041341468281,-0.7636272668097511,-0.8004947987704866,-0.17723947684622657,0.22558924612629355,0.4473543341826428,0.5894269508896786,-0.29219658425760225,-0.2068498717198525,0.3159252500071682,0.01748313403019708,-0.8782691687375969,0.9992132000696438,0.9100060971428213,-0.2811598870140875,-0.5519185728959464,-0.3406316406230968,-0.27811833095625627,-0.5525745981271939,0.6742784825016224,-0.9592126787847024,-0.26217812601950763,0.4207909685887906,0.8617638754601658,-0.1234960324301504,0.15801974402735847,0.05873420570369262,0.25397674309467677,0.486977449947971,0.5025079124820684,0.9517447908167012,0.1472484115788671,0.714954592280621,0.6246107920186456,0.24397779949512544,-0.48256807017939474,0.8933367664783313,-0.5213252976428695,0.2627792962722343,-0.5031177709885577,-0.5325428167988718,0.4381030682941346,-0.7661057642941,-0.15324193421949164,0.9825651756635562,-0.15583981254547274,0.0326352952352306,-0.512454246759862,0.09454713497134716,-0.762285250006949,0.6631841377034078,-0.8603404546500749,-0.8115319964050818,0.6859713302853496,-0.5667028851195152,0.4450437493865778,-0.8192060674499264,-0.048074918360679654,-0.17569071874821562,-0.37125313508042873,0.31844241538843254,0.24559294304468365,0.729646721365755,-0.16442278761705803,-0.03549404962026319,0.697030382899867,0.7917020373082078,0.2638232592908718,-0.727956154266425,0.9655873518638514,-0.40009856392003124,0.9442720082628958,0.9569895757279535,0.9806106007334584,-0.7148991623622537,0.8948526508223439,-0.17393610291963926,-0.9578373558111667,-0.8302205700179434,0.6430827140227657,0.5757991173274009,0.9510164348570919,0.6146298238916063,-0.5419759964375607,0.5544845865425385,0.7206977704335225,-0.14590211905594105,0.3844004340113786,0.5886405052106272,-0.8386755564790509,0.011510872060840555,-0.9802465191985535,0.30923893216270015,-0.12557986987104133,-0.21961247348494561,-0.6611503634679537,-0.35270297703157394,0.8279560851731909,0.8296055297890206,-0.22820928591082712,0.5981449663215466,-0.6478486028397691,0.44536633788559543,-0.28692655430855146,0.2522746127740172,-0.9155957160504398,0.5237414768322584,-0.06046379551484994,0.2686571251078257,-0.07836121490543949,0.17476614601691942,-0.16757785913919676,-0.28609264274733426,0.5533069336451395,-0.2451508377086312,0.5676248893103715,-0.29615080698295415,0.7273741749681567,-0.1686066625782424,0.2101230018254891,0.91515235052294,-0.20534513248342007,-0.2733793962879264,-0.5736855654862095,-0.33978543164070546,0.5399709048574812,0.11652922119474407,-0.5640154000310073,0.23917987353043355,-0.5023928821403728,0.4149352762303893,0.32711466676067774,0.28954078163277996,0.7986460591206056,0.5050268053237481,-0.5918471864069527,-0.6294527338932121,-0.6323309938845237,0.523689476667396,0.6717949789150605,-0.4800153514549252,0.9730301943060263,-0.24254342850745325,0.7438739858212399,0.9558623413584829,0.4521953263264673,0.11000316682803472,0.928717059280715,0.38017993079673323,0.47737165781112695,-0.8475573426789177,-0.6468839988927186,0.007363903047704463,0.5851202376691219,0.6965232578838487,-0.760732074705031,0.8643008078440518,0.00261661928400116,-0.3464525256062383,-0.040968741622183745,0.8786712708637308,0.005399830493046399,0.08417393266601929,0.19486446936097876,-0.2150491121898079,-0.6492484815704849,0.37794499549291416,-0.06468858162478429,0.7871617357227537,0.6890094689220485,-0.535070204135034,-0.3958628305338976,-0.09012313888696633,0.6233319098993985,0.35545385229511167,0.3887782108507551,0.1811077999292911,-0.9808298125039995,0.9870287284779174,0.8035609618560565,-0.2366309977230062,-0.5140991214207838,-0.0018927348560449965,0.05287548335664603,-0.048219764917918725,-0.12790579929938714,0.8343468005639672,-0.9887706097501839,-0.8409455736070354,0.1809256460179075,0.6158556182156317,0.35229875072315897,0.4761666841793823,-0.5797040159798201,-0.31915652018892865,-0.6740193458216449,0.1286614193681922,-0.10512137556085875,-0.2595471990078543,0.5875405509155672,0.008465750539565761,0.7346994126441638,0.3107746169834457,-0.6069439157306845,0.816564451335709,-0.7384405319749315,0.35110067249676224,-0.828397808974395,-0.320692478760982,-0.19718414716551846,0.10717790152272848,0.09064307216649661,-0.8851573311855505,-0.4591788704194191,-0.19965230431679395,0.9161398988992254,-0.6084031824031434,-0.6692825761356074,0.3212795729711663,0.4884467374432574,-0.2000152126780228,0.08940615706340498,0.4090905849470425,-0.978211137767495,0.7112062483296782,0.27693653962443904,-0.07235506302825612,-0.007379479870372976,0.32185228806168353,-0.22762962009699916,0.6236620407171957,-0.30895523742084685,0.6537069873049774,0.3412473555686599,-0.5913104951526496,-0.7487781283234496,0.6066682227377197,-0.6698029511016323,-0.5392715391263416,-0.21007941303646177,-0.781590506467362,-0.8226074923772722,0.06864348541911719,0.04478637838969045,-0.15411434831624918,-0.25571288922176505,-0.23524466857013618,0.49220539809131925,0.5814491757518918,-0.10444170683286996,0.8273750064539053,-0.5572000461392902,-0.5970004114634175,0.6832622999078284,1.0054817840131667,-0.23165361993806982,-0.3957676075941689,-0.5138680871803096,0.9200633731260806,-0.23428872650898858,0.4160520441388525,-0.432020139104005,0.5433051344957398,-0.26209596232905114,-0.8375409446536709,-0.8589890756649194,0.7410585758794835,0.3073226015213019,0.553727178646368,-0.5077961057251882,0.6211184127822145,-0.07210549447526869,0.5292661761158118,-0.5302315743236361,0.5079311950772146,0.3528829497952647,-0.4226159561495181,-0.5879464027123669,-0.09705301236891437,-0.6244473658659615,0.9288658201293107,-0.6245761100056533,-0.7592061183618983,-0.25482592024452844,0.9683612614942533,-0.32596877996889967,-0.12928952046128653,-0.8992257431887868,-0.10124677697130047,-0.3002020260397569,0.8646235782933167,0.500284116522377,-0.924377718411402,-0.44735830203025645,0.08909892684636586,0.6021162032002115,0.9962416402062866,0.22898875424810766,-0.1664662776466384,0.193159986587226,-0.8218672791231706,0.2813236536427263,0.3306843693834459,0.7091438011304882,-0.7596889995925427,-0.056186040503107854,-0.4173114056898948,-0.1610826172428561,0.5267520683708602,0.328527553215551,0.4308285861738741,0.9432463359829129,-0.3578702887955584,0.13730892064893352,0.874126160811672,0.6864223775902717,-0.3948444416245082,0.8245237160879857,-0.39055761110220855,0.7700404692921373,0.059712153846587276,0.01355305970231615,-0.03832376950951685,-0.10140693238970096,0.5095752575416045,0.021617638496726484,-0.12765480454583006,-0.12947238229222188,-0.38269203545932573,0.6769304104330072,0.4527108884913216,0.3416492323161191,-0.43902461629628187,0.7297120459125921,0.7129178566042462,-0.7028045417149338,-0.4521206163451521,-0.29885383020594514,0.8111433848087377,0.6299139038009964,0.5886625895407427,0.013003942101216252,-0.030376874844355167,0.31050570649001097,-0.7636962605786697,-0.9365735760020866,0.6359974763892398,-0.5868285039921659,0.45260413171139025,-0.8391649763602559,-0.6258817950853621,0.9680766442611324,-0.11888535080036877,0.0923638553580494,0.6190750913892691,-0.3558661819564062,-0.5606556841896935,-0.547887960816658,0.7852301333738811,0.5598099419075351,0.11323562193989771,0.24920768674428898,-0.5340437588081501,-0.9490607750197948,0.45932018499532035,0.5369161275509469,0.3923820870601098,0.30495996596879316,-0.4265491185576553,0.7760040818549996,0.99410111753205,0.6130389646744576,0.09042207884207924,0.2457131893919227,0.6727411072367482,-0.6012877355602004,-0.5314290910026784,-0.8829837418688588],[-0.6797537465748765,0.8702752040444776,-0.30011146915581755,0.35976117536192387,-0.7749606231874037,0.058589809589802616,1.058741630507312,-0.008577909710901508,-0.16567025307357608,-0.32431935611973906,0.010131359694412067,0.09051379681437544,0.2825279408965148,0.9451011670041235,0.1310620574108502,0.8130630676515417,0.6496209693772584,0.1748519911939299,0.07409942367190336,-0.1268946942732765,0.6539053457597283,0.3881148607408731,-0.29024628046721634,0.5703999773446148,-0.062958584332452,0.6185727440693446,0.8199496295458951,-0.7602672902359223,0.39743734271920683,-0.08409703050027856,-0.25316757157873004,-0.40996881777533556,0.09611087759054524,0.7578253246995498,0.3510405173404805,0.0131038893125722,0.8507380246817225,0.5726219310335096,-0.4446729108358111,-0.24186775279465694,0.39854807014729304,-0.21912029341492617,-0.3744746991134389,0.013787711036440066,0.9053279383309143,-0.24605117967366336,0.22663009472206086,0.6743103549442945,0.23133798144842577,0.9064780207546138,-0.8603331404766017,-0.20233095509813337,0.5454370185659132,-0.7331209826158496,-0.8051799738932389,0.5215209526914747,-0.4342294717032191,0.18905117385911274,1.0528990889582879,1.0025318304994588,0.5329553534433775,0.044617763366761896,-0.43229917355873543,-0.9447215247207129,-1.0021442343294347,-0.6025510735552267,-0.6239558107460196,-0.1486285818099716,0.9235432645051641,-0.4142233566355761,-0.3333610574464887,0.6582335263969948,-0.8852887963123776,-0.01361193383173715,-0.3807108474444942,0.5238963117687296,-0.3114107601635679,-0.019299325194596973,-0.11000217050832953,0.5165374976119357,-0.3545578318443278,-0.2577341367658153,0.5635141001346069,-0.43354311480110896,0.7171878158157228,-0.767365636556854,0.8232997059965431,-0.5194788705271831,-0.021288033499384115,0.14651244722609014,0.564540489804232,0.43603763631541775,-0.19213422328940952,0.8348778506815587,-0.4498857906787094,-0.668105499395142,0.4515748952047982,-0.04241787011019228,0.12194939689661402,0.5410588627553936,1.0658288810639245,-0.31758206412909445,-0.6056203625058107,0.42973382310074265,-1.2019074958252178,-0.36379144757098214,0.08179523738999092,-0.7108625892403839,0.09231057058584621,-0.9874803445336053,0.551060427022505,-0.22221052280167142,-1.1190966453437103,0.4988608252016806,0.594569018579741,0.9373791904190868,0.4715434540634347,-0.4642518770337935,-0.28740995975348116,-0.9329112012201565,-0.15739321254487781,0.284739927540538,0.7297954792017645,-0.0452694559938232,-0.5263849085125684,0.06839245862065223,-0.732797814545427,0.20079479190475324,-1.110679816201446,-1.606186033300132,-0.4423755206260102,0.2078124260298174,-0.04558969926326462,-0.08853219411230548,-0.40711274724924096,-0.26899926706980554,0.030511712484891314,0.030421382617452686,0.9459704902705196,-0.021103454310868713,0.1273921159628548,0.01840270941601921,0.006395094243167212,0.5088799972403316,0.33113197050726306,-0.26072703918416007,1.063982290707244,0.29364027504729606,0.9847194834828326,-0.29904887418636766,-1.5809575836180894,-0.24861473917422477,-1.5525705425646936,-1.4593011017161777,-0.26510867078542205,-0.821116538684882,0.30597542011999906,0.16320596290552306,0.7368233443967236,-0.21720388309187857,0.3297398941835842,0.9276696439944837,0.02633213682932279,0.047605258400727234,0.3543416821176581,-0.5037016795119834,0.4682899966063982,-0.0707797413203049,-0.7912219676949178,-0.192495910669151,0.0804713994943032,-0.7882750251313143,1.0123078586038843,-0.5847143835094769,0.3753348021079351,-1.349870038566815,-0.10301480612302245,-0.33797113130806833,-0.5768334858656492,0.09343594443665217,-0.8881088110749514,0.761356309700249,0.796403617509271,-0.08570188573059695,0.7147437509271595,-0.09855489338617643,0.46448831319537964,-0.6292746700289183,0.4553379973773873,-0.8376388933847111,0.834459731602316,-0.09678691909329273,0.9180301192790904,0.18832313253136465,0.5631263292590413,0.49362036421253636,0.7214168296252033,0.7620971087226628,0.002634064993112203,0.44827610192094686,-1.1553404559513805,-2.205633734970251,-0.6399996771674463,-1.120864544115267,0.6395747471355794,-0.9899989865196377,0.9490808968477205,-0.38488866990574855,0.7520904502312219,1.313286695499789,0.4499318696814688,-0.5683404112327863,-0.02668721036491559,0.06709579209656878,0.050960618311244335,-0.1852585546302027,0.7512992572042364,0.8643448578203522,0.07558711323252784,-0.14463984290510404,1.1650739969751385,0.4980466100259759,0.19693318616664934,-0.878934393098753,-2.0009433296973405,-0.20109242861496404,-0.9667282907853957,-1.8399354658860345,0.18033882893134004,-1.1883714676776904,-0.33191347733227433,1.0162712083082217,0.7540162276080272,0.2250435496535403,0.24919167216620328,1.2770698605406539,0.6326438150578524,-1.408676662990715,0.20900978849263668,-0.6315124599202644,-0.7796432122894369,-0.14830632687297976,0.3402893407621464,0.2919826822674945,1.2204498006287767,0.14918939266915293,0.18363212818958796,-1.058082096598713,-0.743017053889225,-1.821864604703267,-0.3979049057820497,-0.5156704239515771,-1.9980370558856828,-0.14630261345775894,-1.4224023744331225,0.640309974651751,0.14664402133325258,1.060864391529858,1.5524061682902461,0.8042924592876024,-0.2188514877878767,0.6987424020411926,0.396268032471069,-0.7830467877657599,0.7957157554665649,-0.1715589006834873,-0.2826169324112443,-0.000638909895149596,-0.49463949591362744,1.033999134572744,-0.8690168431401005,-0.0625464773164958,-2.1300783334412903,-0.9304624415703745,-0.3466080568651556,-1.812855884047585,-0.4602687710518821,-1.308538350840047,-0.28859697766867537,0.017663809413830965,-0.3262656143417774,0.02947221782955297,0.01316129431587116,0.08635105509057026,0.014075785450833036,-0.019438560985172493,-0.3410506198855066,0.4545176042572409,-0.39450787489534944,0.09908578076420566,-0.7294794797351494,0.03020129765566197,-0.5529337564325193,1.3416059656603923,0.017662740533156567,-0.4484367305742388,-0.5390988385468086,-1.1667619532689202,-0.6208534105220346,-0.5485773569370181,-0.9238836156839927,-0.2862667667189389,-0.29436005129133436,-0.150056895832781,0.8464926736062967,0.2673748856028107,-0.5795003035821958,-0.04402889131439676,1.5546395971282132,-0.26034556007272663,-0.8878597453406754,-0.6490998006344766,-0.43928519181668396,-0.7296770568617044,-0.4423641131216124,-0.6289779701674946,0.060642003689181656,0.14302269419263344,0.8864567502970372,-0.317878223228586,0.15918299870606603,-0.7944889635429483,-1.507907995576442,0.2703740649255315,-0.3698213852000645,-0.3575549068278939,0.970476800485474,0.01577103997823859,1.2378308055181053,0.8099181682050013,1.1538581105529075,-0.1253161799669415,-0.9139512734363409,-0.1041536739664503,-0.3803581429754624,0.5132593442964474,0.5271470847526537,0.20397646244540424,0.49489179319661575,-0.4599172174744327,0.5741292641466106,0.7352936884953982,0.7185081002417809,-0.3475624007652323,-0.5205163428434418,0.10459899526081119,-0.5915238447139255,-1.123442542628547,-0.012210069986811541,-1.2077896049949595,-0.21502227816227648,-0.06000635079208378,-0.5263260275336455,-0.3115312983201158,-0.8902891741742229,0.2464212640257434,0.5193262920472663,-1.371826173826631,-0.05853146320822008,0.09652042451935176,-0.7082789886150614,-0.8903451843612411,0.437653469672876,-0.37667900133662174,0.2866541207801013,0.33126147029483854,-0.02665443665165534,1.323530007439655,0.290061956006638,0.7025442322467369,-0.04568322378440251,0.30555851611091206,-0.9421743993139369,0.04799130927337153,-0.3941668221693221,0.4055218424716013,-0.7668625667123276,0.09008190172986866,-0.05808111382339293,-0.4985451940269932,-0.8845659979898224,0.1473041707261443,-0.036048971343627376,0.8452539248003571,1.014691291832972,0.0768697000041236,-0.0720679857014499,0.5546829591981786,0.03344265771765867,0.1129606396914493,1.062580106998491,0.2910427650499023,-0.12462152228077418,0.4251625438699481,-0.5359179482137009,-0.4824558309611367,-0.022563014054914905,-0.20884643627071744,-0.3724927995416985,-1.6431162714192833,-0.04670376898543025,-0.5906232104450142,1.1976554055106121,-0.403594386040272,0.3101720262672467,-0.5980337613077872,0.6721613150095462,0.061705373139819185,-0.782526749158254,0.11997180273056815,0.02111420939432248,0.8973324677429023,1.2199016574772457,0.8565559318178418,-0.023490302662347074,0.17073222221625076,0.03170468905929292,-0.4450573628136589,0.24035739852773,0.5222759170264912,0.6418746977101433,-0.6976532216209111,0.07815730100714278,-0.5276050875117756,-0.7651324038171496,0.8262741522978225,0.9864531483319829,0.39103456163140626,0.4068226957509482,-0.16845864872525926,-0.09751047841941073,-0.6205845274680463,-0.543860385502331,-0.6864272721067896,-0.03316986414125628,-0.23120314865626176,1.5519672931541753,0.015379972424053472,1.2454218316423065,-0.9140884681757533,-0.6601574639398925,0.23290071358742453,0.6014119121893079,-0.12953273083889275,0.18464392362466364,0.8901146540385845,1.1210246510119126,0.24187960069973477,0.828405638554394,-0.3844010404966088,0.338422472390282,-0.2284227503099555,0.8371966870604817,0.5434531199213424,0.6633483075982355,0.5851276897931664,1.0571774572722643,0.3211533305375951,0.2693945250932254,0.25668928155342874,0.8176885024205505,0.6183413608476371,-0.35454257216872903,0.513576648011231,-0.30464778873269693,0.1134554291997992,1.4153211728738537,0.4285661744103911,-0.41076355236153955,0.21381729878341774,-0.40628567480124345,-0.3832592462312698,1.0458427681477613,0.126479332802263,-0.08687412579263361,-0.2757989058706499,-0.7064059934456544,0.7387177619341763,-0.7981032042052282,0.7536510710545071,0.741706797822648,0.8453728875021785,1.0363372280813155,1.0899126519928808,0.757008518042877,-0.20702787714834328,0.16127787629051468,0.9235702767032041,0.6109564730307953,0.43387772692168286,0.9411170602439383,-0.7111086266177898,0.09661035549757027,-0.22614462633670426,0.2598411383250598,0.32484867556323466,0.2892978669205382,-0.7172486085316325,-0.2800186133192026,0.7669113522045693,-0.736225973045991,-0.8348816521993286,-0.018500296070077603,0.871465986388534,0.5830976936790603,0.25007322419466665,-0.6605493957789315,0.10764210293258925,-0.48745124311100746,-0.3823769632847278,-0.7768114945306314,1.037001287967781,1.0689510248762015,1.077194639600052,-0.16852092469335903,-0.7300532697913725,0.47059367968055066,-0.511290262100453,0.734076220710497,0.8003627880300154,1.031156171586605,0.6371516197320649,-0.4021535166435236,-0.2312398929255543,-0.6467921078221364,-0.7338545387318672,0.1456091895089371,-0.7831983109016912,-0.8661169373398875,0.18118721104549673,0.8688650260006517,-0.23650601658655268,-0.5869588255518724,0.7773109334582079,-0.5039242678078312,-0.034699607442986405,-0.8061592565888224,-0.34178475043007195,-0.8044457498499745,-0.46591948184399923,0.11781581389054271,0.6237287821326455,0.36996569225196385,0.38490043804646046,-0.1080324492777352,0.2598381106101513,-0.8239513248823346,0.7917047798625574,0.9658107374797428,-0.48816328314023816,0.20718288913549476,0.9880182837347452,-0.7277621815069849,-0.08531351633762776,0.4724379622908561,0.6643576035732196,-0.24688844593879072,0.11798232711205431,-0.6815956426862667,0.09295864294815706,0.3731989204643744,-0.2901851724854585,0.40059137062207695,0.5970518371364565,-0.4496743697863951,0.7582313564785034,-0.6804481863690058,0.5841660273959074,0.8446809525633537,-0.6559387002459217,0.07560728318798454,0.08300395650444423,0.2605403130697189,-0.7255166354448158,0.9383254340245916,-0.6105333760973172],[-0.8937897382856383,-0.27848097372495595,0.8082379497058194,0.10049037222363352,0.7242094676195516,-0.1345512398743346,0.5163377262709004,-0.6598318862024732,-0.4874890785334097,0.5211519266201057,-0.7790854991988643,0.13235050591475084,0.9468318011103642,-0.5436806014925408,0.6108970639878585,0.7698583688406336,0.24926749403960163,0.6912001601420377,-0.9035241013462194,-0.7711942819632438,0.7634961346917533,-0.5703352115362961,-0.39669238206329605,0.3875953536208615,-0.5721369404155303,0.10249113838645271,0.19844367201596935,-0.7912590481063662,0.7928527242346539,-0.857835082700551,0.1981457189662078,-0.9022382539265483,-0.6896575335224324,-0.24835819129357073,0.7538672942387201,0.20775271810333484,-0.9117750178492421,-0.23596647154515765,0.527525569658433,0.15550879017801372,-0.05447456636925727,-0.05554973672665273,0.7092341918039868,-0.2988493696399773,0.08320068103468668,-0.198759169572778,-0.45279369943460546,0.2235972133667451,0.9683327870607155,-0.29418392400277116,-0.24496994265842853,0.08571351131792901,0.936374175795964,0.5387205032444322,0.27059925083501424,0.6633316635251143,0.37236495087048727,0.25272722422218086,0.7560195651123949,-0.5979534615532622,-0.17520077045822058,0.8157436070807368,-0.43753401173430523,-0.7342466788629951,-0.14839597960615059,0.33443790527816997,0.9681314842238412,0.8977615574094804,0.6516815743359061,0.25699243930419924,0.26854007966885274,0.3532721131720592,0.539922891248179,-0.4093665859401835,-0.9328886605593014,0.983530772278728,-0.5213231819430831,0.7415413967550625,0.207043848536787,0.9662578235807159,0.8689075147756867,-0.8995457203738111,0.25246013853796073,-0.7677879639696509,0.6254109383402264,0.9711568249679883,-0.7846977072631005,-0.506844365617457,-0.04590849561362645,-0.015171966571804198,-0.9879626342069878,-0.26600827094392004,0.23024287244225464,0.5279032690212964,-0.4987966940346523,-0.5757909625843145,-0.6626466951448764,0.8879420462910952,0.3741904971427581,0.6572147442770462,0.17693958901548512,-0.5166941302122018,-0.9320211728408324,-0.02160720975002726,-0.059611010066404964,0.12134674353435108,0.6955888168671372,-0.16828381172784937,0.6903876769059942,0.15956895608675253,0.6045123949423881,0.821520965109899,-0.8139674660109125,-0.2977756808142837,-0.9263151418198594,-0.3814235896899025,0.7027108456092755,0.8990040826107707,-0.6528685244782823,0.5239198357495263,0.44736845209479215,0.6034294723064271,-0.8444990046633548,0.650097508820415,0.9827887590382167,0.26401123617392025,-0.254537178956519,-0.011922066198902978,-0.5911688936155574,0.7380546473452686,0.6674202547596523,0.9355443639325101,0.4352062134568424,-0.07924113918213777,-0.43260323289596675,0.2430279842058387,-0.6930010102254937,-0.8143081562477666,0.09072379958383033,0.591604104359378,-0.4463473920300532,-0.9936628992416237,-0.0855939125314963,-0.25932118421115036,-0.45370331241250084,-0.7933159172626749,-0.01998123609787068,0.6244899696459553,-0.5402847702039557,-0.4410464807552532,-0.16980382140045783,-0.46816707297930127,-0.45673776665290755,0.5778333568142432,0.5658656278576059,-0.2666637493806832,-0.5758048910815005,0.12060552044450876,0.25800734852466295,-0.30317178237536774,0.5065173063631847,0.5837748650898655,-0.4661579575615447,0.8470077007681344,-0.03610709953767807,-0.2907568223653737,-0.9538864960080717,0.14797228713294175,-0.01218322197007904,-0.29870500855799925,0.19888991780470627,0.49016106435355605,0.019641633081650973,-0.9838033457454097,0.48954113683243133,0.5344986910402085,-0.12639294645771984,-0.8198013855684966,-0.14776292458063928,0.5858278798362933,-0.8707550430812215,0.758630695510441,-0.32948416421492766,-0.2799444356944072,0.6262478809988697,0.4404047726240278,0.13401671557636388,-0.3191520162362934,-0.6526333837899184,0.6076511200529757,0.8317663624019417,0.4417988237507372,0.6441318275058565,-0.20728738472408242,-0.5538569100258345,-0.49644716201390066,-0.4533223561459341,0.02137943739642155,0.3875717400914531,0.2426887695013841,0.033528090551626887,0.9235299349512933,-0.2062613571321993,-0.8983597730605585,-0.15986987290535531,-0.0486041250327454,-0.8857298530262409,-0.6175452822016086,0.5336843127435147,-0.7397826972310012,-0.5003833682783642,0.9991961958467334,-0.954460272046185,-0.3951782093110802,0.7665642737237303,0.8509862931843373,0.8525337796139949,0.320918169472126,-0.9336267938215427,0.643633217088425,0.10934168676495726,-0.4631824600378893,0.7027620829154322,0.7902369901791089,-0.9232161604159136,-0.6175108119032909,-0.2280531097280015,0.5598127097233364,0.12478836441154384,-0.4806408410557699,0.7258367907362276,0.03222506867341992,0.8641040813254643,0.7197262521909461,-0.9664711795909644,-0.4553324159479791,0.48621571171015726,0.33715096220884383,0.5962860371089291,0.4310993624524529,-0.8637811265137119,-0.4747644602489526,-0.7023957002034719,0.39863636907392547,0.8534771550756163,0.020163945513457626,0.9073338629391872,0.4196777925073843,0.409376987566606,0.18540411692808637,-0.9891194000030614,0.5294755335870197,-0.03705748140871734,-0.18885906405046843,-0.9709948041439543,-0.22010067387515242,0.3778710484826038,-0.9962636907820733,-0.8391302503673899,-0.0340064784372993,0.45085447209728735,-0.38227359275582995,0.6882625203062086,-0.4590871840184851,0.84061178612941,0.5147138739402058,-0.16787740380430455,-0.07964488768052755,0.14398839204426675,0.028731592782336078,0.6537352027537968,0.6638655417295272,-0.3774908312830845,-0.8691779321896417,0.8310199439613595,0.8441089691809078,0.04394027100771593,-0.8127257580264864,-0.4756539960246441,0.42824770147440805,0.8098923476791489,0.6742721136426229,-0.2348249918457871,-0.8297886291967784,0.2118556165779558,-0.7375415577998533,-0.1323913707447023,0.9226144722881208,-0.5218831170949838,-0.9619874827170213,0.15665440671157654,0.7331804069945236,0.5324089941663576,-0.1811302299928685,-0.29068112295729504,-0.7711545928666753,0.3765082026907456,0.7072736928574465,0.7922522793387077,0.2257652991736771,0.1917718523603167,-0.5972009630993733,-0.41020607215227073,-0.7589823386367023,0.40942713343761966,-0.5860802829111674,0.10953603088496404,0.8214324617096104,-0.14143078151639515,-0.8453440848453996,-0.7048256638371977,-0.8482413340598811,-0.1757935776516835,0.719337560856418,-0.400132865851409,0.5172813437819765,0.9400003457258327,0.27237665862748917,0.44443745591654404,0.6655121752480464,0.7798920010471023,0.5067499130143972,0.2890350504635649,0.12037775350769378,0.18130575471077046,-0.18416438613678465,-0.02442760126162962,0.8460558056641059,-0.1781869271695942,-0.5454323231839233,0.7095337202612121,-0.7372398754472977,0.2527698350446613,0.7787997893499959,-0.5216090365891806,0.9172881759679818,-0.24560699954393475,0.37984730495079955,0.1990040856150157,0.6144109181647402,0.5266788843382337,0.8435548088980813,-0.9723883412823852,0.2960211604867681,0.6167858972117363,-0.9408696826887158,0.10628294574176626,0.8754024543650858,0.4606469174857289,-0.9715298415098063,0.5996953850843585,0.4984588046393978,-0.6981433217032545,0.6177011864952915,0.9814489290636574,0.06917035124236284,0.19320800196789137,0.7534584589743059,-0.1643963785130341,-0.31256886510754617,-0.47681988439261425,-0.17069834346933271,0.5332993479413017,0.026970378802928047,0.9233301344838778,0.1663823284655304,-0.35992068410050504,-0.14900359906575128,-0.8183309465772792,0.9088851918401312,-0.08115200813016367,-0.18732497627186545,0.8816503626609287,-0.35488504391354075,-0.01987522258660847,0.6053910919719695,-0.7955113964990304,-0.3101082370824174,0.3450178548912587,-0.17503867087361857,0.722327760334707,0.14075537984036116,0.7028894038006891,-0.30681076786843103,0.9316484322216265,0.11119550607857041,0.4101045708597261,-0.5639177720009957,-0.3762770450062999,0.06893746378890542,0.4507133452387629,-0.49906595801801745,0.8701685010196388,-0.7382916499273032,0.6007689320549897,-0.29950383372761424,0.2987278312279569,0.26239634822542923,-0.9678371782816062,0.538183844482892,-0.6552602295382084,-0.4608526209455121,0.13152377639918866,0.33570165479133823,0.6461010832002735,0.5698604512278178,0.8468461730880752,0.6758819202340376,-0.15560071676262266,0.4806516243645383,-0.6399392788953406,0.32492953874860897,-0.14088187510818534,0.3344700489945879,-0.9638236789543534,0.008368249340366576,0.6265530955693163,-0.1616413008240814,0.9556265210289524,0.8130489647424207,-0.4555332912562996,0.4247345905925361,-0.289159458115333,0.6376255256465647,-0.8487206311069425,-0.11641715682084242,0.9284306455904148,-0.6117281766672793,0.30271855508968226,-0.08391276788013059,-0.061979145393639516,-0.35719243930490363,-0.6576757808498688,0.04499674380712618,0.7622170646761067,0.8225698176581424,-0.8257555152534364,-0.8732742522000944,-0.5557020286750711,-0.1227568816412263,0.8017873046559886,-0.25474900867756894,0.1111177541543765,0.31637059867839734,-0.8054289420203588,0.10046050049978586,-0.720234007293538,0.8299743254883554,-0.7760312738521908,0.9300302762166435,-0.9144921770084884,-0.09732940778199992,0.09517603098209508,0.462214689232486,0.5460736517808582,0.9226134982647527,0.357889788093145,-0.3358071131804152,0.41132719867618717,-0.5434952850636697,0.35627448469561557,0.3894524364152195,0.8882326156110152,0.8465387453085471,-0.09098603850023898,-0.4786593170801328,-0.8548904192094685,-0.5378438492339869,-0.6420933619769796,0.07520518045518043,-0.6982157737286115,-0.3746880484603304,0.5643059748643454,0.3632330693464557,-0.4845305319096114,0.0588906869542301,-0.7845042855118469,0.47026554855290087,0.47176910880342937,-0.3134397758939299,0.1410223070300517,0.5090300661703447,0.5673988885119226,-0.7059440169133178,0.6484184924889292,-0.40677913454778564,0.1874054548089008,-0.8620085250890184,-0.4152951459763457,-0.9945875848076892,-0.15800093405402255,-0.8430292122667827,0.5126650129677881,-0.35462911888707016,0.17047078606260915,-0.4792569185465524,0.6544376067958783,-0.05695798212272428,-0.04935577465015231,-0.6055747837109987,-0.17610426216667693,0.7031482363506768,0.5006228452521246,0.11292589455297417,0.8711658916447287,0.5911287325264201,0.17875662776157705,0.19430058294816252,-0.24120202438065863,-0.8832130629392747,0.6382615347387706,0.8583906560673058,-0.9544577588362375,0.30312220802212336,0.9305280338088942,0.7406545891982884,-0.5619151397265911,0.28353125646368943,0.9126818977240383,-0.8033179757341773,-0.5897477147140946,-0.4510461394252442,-0.7243978101610175,0.5882653545522244,0.33915121842539625,-0.8958059837280516,0.07864144425538563,0.8123093436969757,-0.490149229496312,0.16540292574421278,-0.4596053316455212,0.7507987355041914,0.17090800827735786,-0.30215832572620427,0.17803962331829581,-0.6156408914567941,-0.25976635805957715,0.9139908692403904,0.5371311624798789,0.7616609976357047,0.7688090162840657,-0.6963956119431218,-0.7655096516637201,0.07677832680544014,-0.8823920372092142,0.5142624924621737,0.7781915970973556,-0.6373674645530396,0.7258458181437595,-0.27712806906963394,-0.3377936405224232,0.8318280781222693,0.6309169252351223,-0.06207604117220313,-0.5702446518269544,0.895572112217311,-0.7047110013297089,0.8068185186045902,-0.4808942185553532,0.48394585809752344,0.16634592265825188,-0.7916903144770822,0.29589131274502634,0.8806105287488335,-0.01718303909509848,0.3191826578691489,-0.0670546087415839,0.7818799459021988,0.9872425503632951,-0.6788909072700067,0.1308110315302936,0.5973423509313394,0.7544354647123179,-0.17508119990445026,0.28092124924779804,-0.466774292346208],[0.6371731860278405,0.2440399964620214,0.16725999268758757,-0.03373608691058669,1.0301844884010924,0.3663890558696764,-0.7088266753253771,-0.020416269773896194,0.4982456624574092,-0.037390321082808944,-0.10594211949755282,-0.35468768276820295,0.06695699247377805,-0.46515048555395455,-1.328846542216797,-0.6281739034120831,0.3587923271221388,0.7723837934270672,-0.2868499014250344,-0.0412802976474317,-0.06539595995559937,0.830810766668423,1.0663157629396827,-0.34191511144470477,0.3088038729266396,1.099712431956034,0.3635384796815343,-0.6486503064422728,-0.20860725247203027,-0.15375590090182722,-0.18209307066208386,-0.0716208846274682,0.5728260778596055,0.6981280495880706,-0.7163626972216743,-0.41525804966946167,-0.6600558439521866,0.03601430834615376,-0.11679330098858254,0.11344076249078636,0.21874432416702377,-1.2296631929143256,-0.03755242352386426,-0.39481099898453015,-0.49873734922563756,0.5710011092361137,-0.27143158407703866,0.6144061102201734,0.48529350006099115,0.5805045825176633,-0.6883255324127382,0.6987186728767596,0.11595684149486445,-0.6252109347160437,0.6266152454223457,0.4262874429653086,-0.0938428788533973,1.1022580053590858,0.8659032517397036,-0.26796117544667564,-0.7049696360288557,-1.7197944390533908,0.29991364668809223,-0.5482888378109015,0.008010868113163616,1.1765915007882553,0.8257019221195562,0.15011776593139475,0.07940748596253065,-0.2990298825676992,0.6436911979238794,0.39033869402322285,-0.0499763339983848,0.4420829559428101,-0.29454771003857527,0.003906828654022647,0.7921861148541985,0.8509344007468983,0.0900469475068743,-1.3172325841898629,0.7843479183047758,-0.842271515279647,1.001256851074765,-0.5662828837797923,-0.27922623758494297,0.3340500910320424,-0.9206151040257239,-0.5089366467807099,0.7753625886731023,-0.4709740485159006,-1.5953007328980995,-0.8284577337560285,0.9593412579546603,-0.9976181285994704,-0.6320466017582237,-0.18970244058995367,0.257924058993642,0.09087102428097223,-0.06356891910361835,0.6614759497253618,1.2226675613733602,-0.10877134216605458,0.30239685534699995,-0.16778195903456936,0.10831990991427878,-0.8165836194445675,0.5922090448347015,-0.8831405878236734,-0.5441837912685384,1.052533639087029,1.2526033384839756,0.7191903153557367,0.6107976616347301,-1.4822790765625988,-1.1787285590693466,-0.572136695708286,0.9509282701457604,0.5007477246283368,-0.6015633248005875,-0.14089735879180287,-0.49644011006052313,1.0754155679895843,0.10763742854826258,0.17002908351654625,1.4761245986906077,0.5658683778219975,-0.6409653464541888,0.5717298986432428,0.20020062455221754,-0.32795064873782864,-0.6397820869635225,-0.475860347687862,-0.8927036586556317,0.3499122921918529,0.9408570459514876,1.9710279797201276,1.758425314278884,0.8283394288501118,-1.447611381422851,0.20790852277474378,-0.1273117102998132,-0.5686943606409578,-0.25797588462930704,0.3129591471000098,0.6105819484933341,-0.7118903909909088,-0.5838267700842633,-0.7234200604015725,0.5540847481729041,0.38299648845365153,-0.5211742048827863,-0.8767619289211654,-0.42103325127575825,-0.4470126153296106,-1.5017536937068448,-0.4997860027083975,-1.0666927183875963,-0.9794846581838724,1.9167230971993658,0.25484000384329125,1.2068015280821933,0.4760851209122483,-0.5249617123115253,-2.424101170414587,-1.3792113611187726,0.24136971093441478,-0.9065086085226847,0.2046379474605205,0.17840744035190215,-0.13198444205905124,-0.4733943436419032,0.23319394770006863,-0.4405473794116595,-0.23288461462700277,0.06779096441571371,0.23611700541734953,1.0086102091210882,0.2629208721227589,-1.7171014486930547,-0.4483980646957758,-0.05651829754166866,-1.1313801087615951,-0.031247748890610143,0.46974804882851434,0.3488803913743259,-0.5214926180279543,-1.695013819364618,-0.8005663816649904,0.8509684860437923,-1.1935550187063924,-0.7995633402102216,-0.3925571233172884,0.748185023026696,-0.16160798350562347,0.08769733858835818,-0.06825229546838062,-0.8104510078918359,0.005702753398899136,-0.21543797703835993,1.425941248129323,-0.6903619329331678,-0.4111984733651298,-1.0591678251504277,0.17044445224055252,-0.7971942680324923,-0.07053384822605775,-0.38792194073232833,-0.36692726045314034,0.7765357565017604,0.4032669920390408,-0.44118616581966863,-0.09706072968595722,0.4140838644575803,0.9698300175645029,-0.9922966540158492,-0.06894213293026442,-0.7879256545168065,-0.8015950271053015,0.9968289841105443,-2.3528867697485363,-1.5935777597030232,-0.09146795070545755,-0.8839463665317628,0.8506754550530924,-0.07971932154551997,-0.333575639185889,-0.016561246092495905,-1.393524472356579,0.6464310500363054,0.9036062235861823,0.785954444408113,-1.3314126919322045,-0.29760227588959026,0.2112262639651579,-0.5667429595592888,-0.5105911337506731,-0.2084082324078015,-0.17228694519548407,-0.5592286065856393,-0.8216696207252316,0.5336395523560507,0.3544832815488169,-1.3118132847520507,-0.7609866688939102,-2.0468876164501055,-0.12033558871082357,0.1277334454290221,-0.5084029144722825,-0.5517840064837783,-1.1989226812242502,-1.0113975361475975,-0.2132536077931284,0.6268805311253242,-0.4007958300342007,-0.8036939816561365,-0.46476167761724846,-1.3752320390730135,0.24435752048159404,0.9902334690062893,0.30284997218191834,0.08959111488308091,-0.4555238464656782,-0.5760550003969097,0.8873936736758704,0.41134314118944176,0.7590201454372586,-0.14222997941075957,-1.5949169912784444,0.658477930012884,0.38973253758549664,-0.4451572807796061,0.16508186223920918,-0.4166956045705302,0.1852554223568972,-0.050481371613652994,0.8945485377071738,1.9722043376860052,1.0780973795964162,-0.4328954877698257,0.30560368180057945,-0.11180299725698414,-0.5189474737032291,-0.9073759412232605,0.9889506413569717,0.23668661646986586,0.45713894854956194,-0.41839335456777677,-0.6220962429416804,0.44186982221073273,0.6381155616326589,-0.6082119227581813,-0.7239637552550292,-0.5791493021872892,0.11914870869782009,0.1318241604164664,-0.16271938820654436,-0.22728770721760572,-0.2297105446810894,0.6495196228958559,0.2392577012823528,0.3878823181005412,1.5433788451275139,-0.5091601829797524,-0.8000856467062947,-0.3859006059319537,0.5095987653178393,0.7130706959920999,0.3986164193235691,0.8068058787208905,0.5568940758900663,1.5083617771244908,0.0403287986538577,-0.13069077743623814,-0.12316708924865884,-0.5256190978279314,0.24401995409714358,0.3763032602423797,0.6525737274386226,0.49761878343396154,-0.41971469539050665,0.8222082277748458,1.2943210006176624,0.5398445581405225,-0.7850392792352676,1.5201828898792327,0.6185294878537778,1.4261870109405534,-0.5336205536933218,-0.39034982638137733,-2.2466797593824963,-0.9855023665954131,1.008032787714372,0.13623954760146392,0.33361064932030016,-0.532740749147521,0.6079711490029477,0.7408997036262008,-0.09750038727271855,-0.5212365138428581,0.22388080746695144,1.4055209314852466,0.03138321406352685,-0.28524597519968986,0.28371610363913186,0.511429287911893,-0.21725672400477442,0.030236242429273027,0.1301717548298122,-0.2277716482321769,1.052408131518885,1.2442508754322519,0.3147639691353518,0.04212943795896327,-0.7162764722511954,1.2643340155853857,0.6534707854566353,-0.1475116569131268,0.9623615980513034,0.8319805752147567,-0.4304762911582992,-0.6094789891549701,0.8063085577674751,-0.06978098698810499,-0.49782186937601397,-0.7193755489402132,-0.489534580782368,-0.35758328251876703,1.0650189870556948,2.2534622143147924,-0.16741106750315382,-0.6388748407875164,-1.141950077278188,-1.1355894633709922,1.1580583451899866,0.24508140626550481,-0.49081549050457807,-0.8807007987861039,0.3491780165361059,0.5359789182508444,1.6656389857934983,1.17424675900907,-0.4635447998988613,0.33212820846989266,-0.14619225930530044,0.3192002311716785,1.2949340325350798,-0.8209188632238191,0.11069613333543354,-1.0291608264600267,-0.48906622444190095,1.002103102276008,0.7823204306950361,0.7996279891466921,-0.4743643178801094,-2.260046945156022,-1.9478292000326465,-2.059349105160484,-0.48159685570018007,-0.3588709616984826,-0.5427894289423174,-1.0637539307670252,1.3115902106246744,0.4852740637856436,0.3041758406150132,1.5472036992968856,0.6086873595474245,-0.7166255588197717,-0.8198388785944524,-0.6193923776840249,0.0891330493809923,1.7287998275476004,-0.1942486601055506,-0.11966175966197846,0.43366380941190485,0.5898419743375747,1.0119583275467292,0.4669508530182112,0.03808496210951003,0.3706269675811169,-0.7861385232153949,-1.069749453746343,-1.719832081517187,-1.5237796826628027,-1.4435244529242035,-0.0065753926348312685,0.4547590230985347,1.0861140194898193,1.6722615564922025,0.38030410896173833,1.7061677333003444,-0.5422078893358189,0.6172521767447492,-0.18833509688027167,0.14010057529703757,0.8263658672983063,0.4762436541849551,-0.23588075157554725,0.1522620216903416,0.9678653703449905,1.3232932997520648,1.3266193986042494,0.8076825384126717,-1.3312251862494768,-1.1376125547731408,-0.7679689051271039,-2.1244432477139794,-2.289890302207515,-1.6872316361420832,0.11389566809682951,0.23036157808297145,0.4014245510526081,1.6470131876383651,2.356120823909746,0.16547842175625427,0.3095047038701026,-0.6220880758213756,0.6954794231304418,0.4399547015590516,-0.6987382662137418,0.8539866126422728,-0.6314807367965689,0.40268040842254726,-0.19968302244660846,1.0174015745540685,-1.513982623956045,-0.29282094194587244,-1.0755258660654583,-1.6606452309783664,-1.7148280670818261,-1.6031671799744254,-0.049602096720443946,-0.18564770337578776,-1.0918194558896568,-0.522128696927361,0.7097577257340676,0.14980008447598395,0.30170070905439916,1.4825781363687383,0.7163379310515645,-0.3743259673878335,0.6538444222764359,-0.044666673210209284,0.17115879283330915,1.452787742094471,0.016890205241038167,-0.32667032615402897,0.6306187451818149,0.0211682759701505,0.42708548847124483,-0.6849180132243735,0.37784929763312813,-1.0171463986633082,-0.95855144386433,-0.4808931358530715,-0.6012631315108975,0.40021267106815467,-1.443140646229064,0.7766428467997994,-0.04438644973718406,0.21239201297348984,1.2214882934935403,0.47833273025684425,0.6602549342010924,1.0451071054512748,0.06922798388443714,0.5105112095867729,-0.7925849543059686,0.9056301631611658,-0.27897368898710734,1.164152457698078,-0.09743303877442624,-0.7615647484250972,-0.7585821307407271,-0.5113458204338074,-0.22236808268218639,0.6214349489241944,-0.6296184382680813,0.0718524607663109,1.0328112189275398,0.7612202418493512,0.19822794283198475,-0.6726103495895148,0.4291803134091791,0.5376958498451494,0.21603041031419873,-0.7771945075966276,0.7422594196733354,-0.701162391119245,-0.27563487832910394,0.5932731497100638,0.26884685246093987,-0.7723388251875614,-0.7030504874166175,-0.7371704503733487,-0.6860833214052198,0.20217905840181616,0.5600843065077294,-0.5087804950926711,0.44541312784188813,1.15263872957854,0.49405425349897125,0.5151064285344569,0.34460700634537933,-0.4345989039410715,1.1443267508902701,0.013621738264438465,1.0023542480225986,-0.1814763736611984,0.9394264173703921,0.9545093076557105,-0.42513510041308133,0.7596819856109938,0.8858457130038913,0.8082520568615412,-0.6048748427871296,-0.13765728288286783,1.0723532770618045,0.2674582487318744,1.1909667382936922,1.1833752390958863,0.5635604018262701,-0.7584919200071276,-0.7433868267595312,-0.14943068341722027,0.6744076989551289,-0.4197240477870451,-0.2497296830888813,0.9426080416029814,1.030203442296768,0.46633948327761787,0.3709461295982316,-0.19624413290400672,1.1423485652810326,-0.06660464394817507,0.7934523474436581,1.071664273896603],[-0.3233471255257297,0.4471132440612357,0.006662160047508164,0.5412530291795605,-0.7791821717009293,0.8194694386801931,-0.42436230373937694,-0.6327287394766039,-0.052571593963940934,-0.41576581500321624,0.5873212176539571,-0.609980713641401,0.2998781367394507,0.6232955587733213,0.7373854784633228,0.988101520833386,0.5169871102535687,0.3935609539737685,0.2242213856961752,0.43005927139015626,0.5515207483171156,-0.8880667382436005,0.03968837739424098,0.27372621203364006,-0.20025633820685293,-0.3496181145600373,-0.5095934311548149,0.6797198182130268,0.4356600957944689,0.11360542773627039,0.3384936517070442,-0.12982271948983418,0.6614613034810806,-0.5209068427853261,0.20084242983276315,0.5533433352421715,-0.4159064667395705,-0.8803315645879818,0.8724043108090956,0.605035400387789,0.8293435681120974,0.7808239378610268,0.48052202233606883,0.23877775915423172,-0.707890582251408,-1.0433361239222299,0.5809820788496455,-0.2548507583052721,-1.0007802303443412,0.20426005080950763,0.4687726889578567,0.6975673484919985,-0.1832177237606627,-0.7618104074570035,0.5012744292596201,-0.1724712236382235,-0.3396893216782167,0.1936400844900781,-0.3792783360824264,-0.8370774709253583,-0.20764166319749197,-0.5821124344481783,0.07891468826282319,-0.7305670087164982,-0.4950992923232861,0.15755750552400355,-0.5437544518211194,0.39684855231540256,-0.516919167346351,0.17854874442826796,0.12988277576635604,-0.7521043086720385,-0.49547350382148886,-0.10484294255972024,0.885472919478849,0.17232764838099696,-0.8441998101300932,0.17357952039443827,0.6261407302463288,-0.3385132737610676,0.5965826122076533,0.06045822559212754,0.6460341769289041,0.8699860697043523,0.6356743460594217,0.45123997204872657,0.926404494298079,-0.3794457578472568,-0.1855514616318805,0.741231516654714,-0.9434800791292726,-0.6060627409091621,0.038507887354418735,-1.0308020119806318,-0.36397158524834344,0.29866039998399313,-0.07809151579593243,0.8309164010357175,-0.9613856233097142,-0.5530297187852884,0.05919593702798382,0.5558374275709324,0.3700604346086647,0.5848187743060986,1.2541516466147595,0.9414211214489473,0.5188233009022974,0.3784186073315694,0.9000241143256638,-0.7486642862053996,0.520657698461331,1.2191491887869499,1.0656675328915741,-0.04897150321165793,0.311737506336762,-0.26243665545983835,-0.493922436208874,-0.5787167714346044,0.762589565315717,-0.04160055642344985,-0.5661109800640427,0.5581965291135199,0.24517191752912848,-0.9089966093389027,-0.5939878928132992,-1.2092332976277356,0.7596904228833894,1.1947382421937838,0.6866891981153015,0.10175363458522688,-0.012627198617726812,0.930242758773908,0.4686725679004063,0.6102225134336792,0.743302360871455,0.45987717533799843,-0.5182381927758454,-1.1176871048288353,0.7538443454829766,-0.8839230659399391,-1.0747052382532043,0.2953075709404684,0.6511528521917923,0.9031680732880989,0.81646245470234,0.50601308678769,0.6889753250513654,-1.4241461297859888,-0.8558319910304003,0.6852673684659137,0.13379000263504925,0.17783807578323238,1.0401044368132402,0.29537283718233653,1.3242815300531126,0.15449575949432132,1.0744704883666034,0.5566820402300459,-0.15746996613633643,0.4251760943648585,-0.026741403004038523,0.020297223990740403,0.2895591204667972,-0.3707427627178112,-0.6830538860845776,0.6482562323137098,-0.1339759125690293,0.4877627387980828,0.7092752824759343,-0.1363892734933356,-0.7672979113259852,0.6387428782640444,-0.8455649620728044,-1.0479429598459922,0.866274244266821,0.9118620452944216,1.4062950325119694,0.9479661312960928,2.3406515556450613,0.7249846463977739,1.1346954659906603,1.2110807833089663,0.833360314092223,0.6969425837845333,-0.36845166318705586,0.4881983112711169,-0.7931885699725921,0.39830398564724667,-0.8469691570292458,0.19729356929477188,-0.015368789311707952,-0.6586713829789994,-0.7781707468970931,0.6437477277867715,0.018727885607540067,-0.9384691072874439,-0.1931531070495955,0.026534721794036972,0.4542245036858654,1.688030655435733,2.02307551409292,2.8039737199268755,1.5011658359589508,1.3358135701637226,-0.17770669683944262,0.8505317347542584,0.11842595777331323,0.4639300324602809,-0.8779902312483042,-0.7729598119840101,-1.23937949400355,0.6552699119400226,-1.1542170571454364,0.21559790948095509,0.46869828525282126,0.8662223956737725,-0.6559763284077305,-0.342192826006883,-0.39668995329233564,0.06857747589107858,-1.412687705827196,0.22438402683706685,-0.04460470776636198,1.1549448340346222,2.1255177023247236,0.9235789018757966,1.0451549625616807,1.5858731168186906,-0.2790897838807965,-0.4775658609244925,-1.0176871354773114,-0.8291813693105005,-1.3165534411531532,-1.4008321074747967,0.09735772605330482,-0.5569906041281169,-1.2895513283938302,1.340544977154049,0.27634895041808283,0.10129209511250023,0.16938861282920017,-0.7921924109064636,-0.18585994611728257,0.43552964760271773,-0.003590843778412567,-0.8041081028463061,0.37445061622582265,0.9032652987009332,0.7760654529347792,1.2446469412824712,0.8177730448539124,1.6312714668559496,0.15650396556610197,0.9618863881380366,0.5105175315098143,-0.8415755967052382,-0.6538230844109849,-0.49565639064481437,0.44611714460458973,-0.6430212160965177,0.2670444615154176,1.2567557920709205,0.21919013120895017,0.2134972578718052,-0.3488990386458959,0.012386365827988034,0.4637438311554574,-0.8802120413164173,0.15234860577526205,-0.030990124565183512,-0.3692909210709651,0.7059220890140825,1.1965833845736915,1.7119700782419978,-0.05882604469002992,-0.7936782601554923,0.5305615126004812,-0.6929213929843354,0.7432173139505535,-0.8662294522962062,-0.7953141623959779,-0.4100571958775512,-1.5023153388273283,-0.32183617007766135,0.4967322091621114,0.17888437692199882,0.7501511807087303,0.5797851854388526,-0.9081527821740885,-0.5683156893132187,0.5648462369067019,-0.4491766913328452,-0.043802913886330834,0.12283319885696796,0.4135668891498416,-1.0787745694405584,0.16822793480522466,0.5241555018994702,0.07154354177009936,-0.11586897422587888,0.3794141862064428,-0.2477661001478634,-0.5788394500701952,-0.3512665241211261,-1.359371898880613,-0.677439760878913,0.4709097524724717,-0.3640741471217984,-0.33734432636801504,0.24069055746316428,-0.2064684298861771,0.1589726807574755,0.8263930904531769,-0.16967510009427683,0.2698606919846142,-0.09371009991045091,-0.028558381555903345,0.18332087553338972,0.877546049718127,-0.06020562069233271,0.23779020325098166,-0.08600769227174926,0.977260039428852,-0.6532787321314705,-0.42079311001601766,-0.4836720088305148,0.03187597248056966,-0.3306892580756695,0.18342353939175787,-0.9265390095085667,-0.15657164990047237,-0.5049098910560003,0.8870183796214645,-0.3797482992248515,-0.07169722929179977,-0.19578596419031086,-0.032854591232202614,-0.11799506514494551,0.7176958743821652,0.5596315562953404,-0.33162689186879823,0.5300999738085782,-0.7616469411375413,-0.6118952204356604,-0.4181998445946602,0.5686460075111528,-1.096135811519822,-1.1522787870645423,-0.059466120140840545,0.5445788266188129,-0.5513740221894227,1.0505549602339073,-0.8312377822206883,-0.3063983000926332,0.19212380911920918,-0.09929201559243929,0.5355537246139228,-1.0742809899537897,0.1869311297214227,0.29592972883157476,-0.891917811546094,-1.0341960838871052,0.35733015355714487,-0.6097643711465829,-0.19804000356434887,-0.29758859578729113,-1.334269642156978,-0.3202923823739038,-1.6208457224547663,-1.4169539815945649,-0.753287014554103,0.5662479312778914,-0.5062742535272383,0.10290531046215895,0.43318943505937385,-0.663214313202582,-0.03745202192225738,0.6142900546246834,-0.532846043655464,-1.1441879440071216,0.03568246923142727,-0.4564544285561518,0.9502491848890956,0.5782448793832285,-0.11520903275258218,-1.082179576549171,0.24343973513040654,-0.30183090087593395,0.5735138356672851,-0.024690515215689317,-0.8635084104356857,-1.2977677274128223,0.47828928431104234,-0.4990792326649387,-0.6314652768930856,-1.0510669496637617,0.368073155943485,-0.4142411881221725,-0.008630269142370733,0.6011551487813993,0.8882926199371268,-0.15834988125418736,-1.203973375982886,-1.198274925181844,-0.8210309333960315,-0.5022638960504983,0.2994384517425092,0.33877350947855317,-0.7225601748250947,0.5988787960539578,0.8116163280268462,0.5510099669416334,0.290867641884269,0.011207370691086134,-1.1791192645784427,-0.9649443019207524,0.7297461434093976,0.16752767571673352,-0.4546005036397594,0.32088636725076986,-0.7979265440281785,-0.9637552485044473,1.450120257654623,-0.5026994100446454,-0.1681870095102072,-0.24233921175891943,-0.10134222262631085,-1.0903461280647284,-0.45276358097169084,0.0827764364015565,0.6925789925740998,-0.8204667476278849,0.08201365727318594,0.0549453151601328,-0.24710414305707798,-0.7135784868801434,0.8828952252878073,-0.6752483173021948,-0.39210127500482445,-0.250046475786374,-0.4425698880929619,0.45743389017897707,-0.27147851566914305,0.1956017635116934,0.055959606252920666,-0.20736357137078187,0.10983205591799544,-0.423835546917986,-1.335616631601777,0.2914500335994704,-1.1831824767870143,-0.8255501583939278,-0.5865775356302233,-0.20159084662792304,0.7274177743193871,-0.44061789457655004,-0.11263642033357754,-0.9057128890722514,1.101327708694129,0.7939999530611875,1.0177431947566693,0.7044055562600735,0.4908985306029348,0.11554717434415346,0.9385936769906509,-0.09238201452125512,0.5252487410573801,0.44173645842491,-0.5822188716412906,-0.08597885684251977,0.3138372912696354,-0.5185471212792088,-1.171994772997118,-1.0522281833089377,0.7594370729316013,-0.27883512287157913,-0.18311513381980216,-1.0813189981072777,-0.8161391400828581,0.23006493301809403,-0.4011586825304934,0.1370250868826965,-0.3642459416321711,-0.5173036187731997,0.2618906316595116,-0.21703534730975949,-0.27416170071781437,-0.7660040315894375,-0.28497400133204753,-0.5940261971819354,0.12019173806794535,0.5062143868735802,0.10702500855165885,-0.7018367759198592,-0.9357181218280584,0.29718028365103727,-0.7539932771209876,-0.1422192079877802,-0.45715629627446047,-0.4595247783208129,-0.10089662631125432,0.13976738399457064,-0.9219022107570123,-0.6379531836606731,0.7291602220716922,0.06605777606287161,-0.4229292778945871,-0.08934769263029693,0.5708228639686417,0.24884339432327415,-0.6686964657176657,0.6389984644609175,0.19957617603601033,0.4432441511124335,0.531193421070574,-0.18451342151654826,0.8843841842524972,-0.3903492949789522,-0.9488336546682574,0.13862630798429332,-0.04582938514946303,-0.5845611998628508,-0.9075816020168432,-0.06854697416921612,0.38292213815097315,0.8068107094872616,-0.11443398057642148,0.4009291969232868,0.668601469603326,0.3339020152250118,-0.2616560814892203,-0.5039138089640874,0.4832567281627756,-0.16331203639438005,-0.4231582573000628,-0.5479574529810047,-0.17343476818495393,0.5903154289268853,0.8062105254019245,0.03451404201318962,0.19007961935014686,-0.5183844831895608,0.6149433142555074,0.6281907519866985,-0.34490344937981093,-0.92475120820671,-0.06731846556466284,0.005466423512640143,0.6499495251161467,-0.334288169835302,0.8830988862993994,0.7638854983925809,-0.039822062427936726,0.4660718184204449,-0.048624876487962536,0.7681052432150797,-0.8178870075751792,-0.11799948124202561,0.31646215901308733,-0.1756070984771176,0.1927876729093543,0.14078739757889583,-0.33671162165768315,-0.2948438231618516,-0.9058428354994275,-0.3940797181333722,0.941810722416226,-0.5339392940040624,-0.5619946151447441,-0.03240556151024133,0.31391827555647883,-0.182705046333367,-0.9518686453853868,0.5172687523523176,0.4625368575131123,0.9163323622949041],[0.5657197844525441,-0.7770267471932792,-0.42946390816064967,-0.8510862499562319,0.8395292502896547,0.8353710829835073,-0.6372434189703935,-0.017091052311264447,0.9520423088760464,-0.24373578290593695,-0.7292533116587216,0.46012834839596445,-0.1527423940535982,0.5624960237072185,-0.6000996518908637,0.14636147164354127,0.2757972155786561,-0.74828809238608,-0.9501584241655116,-0.08913096224955182,0.9957887518936015,0.49709735580383657,0.48181324133221654,-0.2792757551078961,-0.3485040925276081,0.5798173029617273,-0.7577503242377148,-0.45771078513734975,0.3785295905536999,-0.11219174263998198,-0.8464345844823924,-0.6543666000441422,1.008430000230943,-0.5776502807440915,0.220183504726044,0.8074513671466208,0.25745776000721776,0.7719871393636475,0.5134783032071347,-0.661564495304698,-0.2724552469505927,-0.8885875774832028,-0.5969854345596091,0.6266209053169777,-0.39972798538479576,1.0233688556367306,-0.33392178758297747,-0.19466733657042265,0.0990631451254556,0.3073164224090242,-0.8966252175709365,-0.8594201169766759,0.41525526932825313,-0.4495236602476792,0.31109203202387975,-0.20102507340910059,-0.16140631594940533,-0.42032850299084296,-0.40173205711431387,0.6865563548861322,-0.9537477857291262,-0.33038944431228934,0.8385584102137893,0.6329323635407161,0.6739823766486448,0.6972309724044277,-0.7687808630981676,-0.2730267079662623,0.6169753914823776,-0.22017016189295494,0.9168763156248046,-0.7873006018206137,-0.04378848621312417,-0.5437353716672912,0.06673524247162763,0.9841486670903324,1.0249867844811587,0.8724993417393878,0.1318369565349738,0.35834445594051967,-0.27862974890068437,0.15599703506124948,0.5156637041795971,0.9801319465199141,0.9032636563536427,-0.08111464811510033,0.13969127046611904,-0.6454833693730265,-0.9339139584017696,-0.05875672238218377,-0.8017008950215094,-0.577210201267955,0.896849074728699,0.21545793741099808,0.17798865462962363,0.7601962227979746,0.5400309015693884,0.8326166136151361,-0.44778727775780164,-0.9127882660216092,0.8638116347911751,-0.7573586237049716,0.5280665133230931,0.37296332238888563,0.5278973146289597,-0.8822876251260918,-0.5889906407340133,0.35924929789093374,1.0231104672021376,0.15818871180832356,0.6870129192337745,-0.06119818578162798,-0.9050397816536347,-0.3688535370135033,0.5643559927175179,0.16044460080501055,-0.4266970910240737,0.5730586595363916,0.6411280402476288,1.016118091806235,-0.7702278188445206,-0.41943636764634684,-0.9388599922013702,0.8644944476245423,-0.8312132276792293,0.5583072337419123,0.9672413392255149,0.47888621819980165,-0.6004308289899004,-0.49030330388334137,0.44178190449881494,1.0111754873069068,0.9879920702427907,-0.23394745966638952,-0.6529188312554551,0.3841616029504719,1.0364966858795064,-0.43628501977062784,0.4805281859502818,0.29919909996468586,0.27412595221230535,-0.4853853158888907,0.4211191362608819,-0.668341665057792,-0.4066910540453545,0.8607666566209534,0.37538861304504934,-0.23743892339778883,-0.15584920056509102,-0.913676844574387,0.9121198634638378,-0.41506450234684666,-0.4145468284642349,0.029637677826409557,-0.7174939981871405,0.2114671586111333,-0.7035602824461433,0.6750756530604608,0.18114513793038886,-0.11013258821367498,0.9958493604546735,-0.40037888631312857,0.01534718759933357,-0.4802704027291236,-0.6994221058097295,0.8663830459550618,0.8898963039898958,0.31031747802869863,0.30214288934576966,0.8920222627739516,-0.7258945616067445,-0.846625061301953,0.4314895948350498,0.8384313950247103,-0.8046718060505654,-0.5002232528442909,-0.019784830466653937,0.4478078493828732,-0.4325074460001191,0.5838157328087873,0.8805616048492761,0.4054730940930821,-0.15396847154351137,-0.25311158617349255,-0.6881306259948895,-0.04424053661500618,0.3911738107416602,0.4656774930393086,0.11844558599716834,1.0108508088858128,-0.4095006502024984,0.9506231583109146,0.2942673322450301,-0.5838586564098817,0.9493554400642862,-0.558169639758904,0.7530355569828575,-0.26387460560205267,0.6338067124072836,1.0070306236666586,-0.21098437768102365,0.8093637734427134,-0.11752304680317253,0.017696320333535034,-0.7257898251680003,0.8803112481103614,-0.541881553747644,-0.8193325445946491,-0.27188343457755393,0.05707488957282498,0.2566259973169948,-0.2177701678556482,0.7478068524442112,-0.022844438200412914,0.9548326734974314,-0.8100127453707322,0.029316089817763496,-0.18226413705356684,-0.18207904398368047,0.282817040407461,0.9536252958462923,-0.8882914396849462,0.6460974392831191,-0.1218191055875218,-0.5453203075879102,-0.8143501842031751,-0.8039349554138381,0.9019426729789355,0.1464801624302689,-0.03670965571366593,-0.71554596824001,-0.2522197798601855,0.6567709850829578,0.6745284745297576,-0.16934156149578475,0.5651359606132097,0.5206295199549026,0.3435886470614174,-0.24851130976389696,0.19980908497438044,-0.3746863040524017,0.6226072879604334,-0.2470820623839553,-0.7049327400992138,0.2712097644818391,-0.433864663038782,0.9344977114164837,0.39714771887566974,1.0031613477800447,0.1836754375810739,-0.15416781962537335,0.05152133985425501,-0.1374736483249701,0.33749383599906585,0.4845222138618239,-0.6766273895240775,-0.6378604816828278,0.6346244620436732,0.3991613799524954,1.0165398638692187,-0.8132352915180886,-0.09749798158867273,0.046258161877097775,0.8791622100299032,-0.3612524051833673,0.8917994224676721,0.004367351837726981,-0.32127715840575904,0.38517088861920945,-0.8504427888026813,-0.3463736798685362,0.3866236438690239,-0.8807652143741286,0.7336756533298441,0.24995976972190115,0.23929738380488597,0.806589294266017,-0.8431372338742028,0.6823523261694073,0.5990189128095637,-0.573331249366726,0.30182236207463353,-0.6576774735546699,1.0136284257543833,-0.9052526490081659,-0.5891050900731222,0.40956814598251035,0.44266454019604307,-0.7563386943630718,-0.6925669325404465,0.6366810436662454,-0.6187051495888599,0.4123180821401432,-0.6438836986492519,0.23259704080499427,-0.8688157553708218,-0.8970762038112258,0.39808123598775913,-0.6043565973436048,-0.36794368138997935,-0.03179042857556454,0.989236764392898,-0.24856105589305327,0.4036528742510986,0.204417018150932,0.9203821841147662,-0.3898071240142503,-0.7976714870999032,0.6255055995573071,0.0539807506727178,-0.4200344738180109,-0.021082804079345853,-0.23072868704445798,-0.7353872232227883,0.09295659549907108,-0.32889795564349616,-0.08785372524832384,-0.5871126948098792,0.43782192307142537,0.0322023767554951,0.22974191238474126,0.4237226572936864,-0.060745177722565366,0.40859021807573376,-0.84244985926684,0.7160424007829096,0.3085110379123791,0.023176912930809486,-0.5289106377385174,-0.5432444856091934,-0.7488220816603995,1.0491336680425793,0.8902440795834062,0.1323454220357651,-0.12769242809071474,-0.11330144371041496,0.03237840936723686,-0.8375692016382675,0.07773079726613759,-0.7390554890773297,-0.04708734325922741,-0.6820546173013325,-0.19674398216323663,-0.35251884811643724,-0.350800409362602,-0.47856699627855287,0.4420947456953092,-0.6227007007459783,-0.5619655772707716,0.4011063167066599,-0.8701098458248091,0.5215513620212439,0.30962085296874625,0.16716114583596073,-0.5227732906543276,-0.5842252779830587,0.06530142144531537,-0.22224362734359063,0.6730864819940318,0.1831283396972154,-0.24422470935287874,-0.8243825377987852,0.1708930895695493,-0.1625455320512779,-0.018442631806502834,-0.9272828228137261,0.9216116147287639,-0.8309723238446144,-0.6860860852130285,-0.5286423552914508,-0.013711352133910613,1.060875290258617,0.5968042826152361,-0.03842766257773183,-0.3683992822704292,-0.8837936317475454,0.9430874466991581,-0.8180409428200339,0.6310609488581636,0.367160583717166,0.7345469611411274,-0.6257343569824335,-0.37404091371518355,-0.7968046018794249,-0.28050184359002034,-0.17908993412896382,-0.11221581687329026,0.12548117156071,-0.49287417697923047,-0.8342713898878414,-0.20962307678658296,-0.6531117343357807,-0.7743135800887682,1.0073708555453762,0.9598793352605762,-0.35589924220581803,0.4051235310137961,0.45970621479909185,1.0238994612456922,0.008171493330397522,-0.7633388953589934,0.023483812803744106,-0.3829600372026524,0.7192873981263462,0.727395684383464,-0.04275716912199532,-0.251955677369182,0.7881272097752033,-0.16849134650427375,0.27553434403003707,0.7036006214829256,-0.9461597157488418,1.006740292936217,0.8096795721721782,-0.007088734250300983,0.3785997518348896,-0.41251295242170344,-0.48278239912031945,0.429869752869933,-0.4877461908386819,-0.47251539899124734,0.4367096407148177,-0.027895393439232037,0.5046089802506528,-0.8096499222730399,0.23153673227034954,0.5186725661899856,-0.6188142394153741,-0.16385552014296006,-0.0585674785868813,-0.4034092642621782,-0.3945334751166267,0.5960395127667205,0.30871354420362723,-0.7839717781218551,0.9539627713684645,-0.7393895700931639,-0.09720061884021658,-0.2171756064250738,-0.34119602724100473,0.8643801974251987,0.7513503427555884,-0.9062609036467097,0.17079368171662376,-0.9584886075435765,0.8083748974890335,0.2844433394175182,0.9091239779341198,-0.22164186169249256,1.0332057009838589,-0.9363535224386154,-0.7904840478130962,-0.047307960447365995,-0.573583709021947,-0.6655813585720218,-0.028180208474050294,-0.06362834362950233,0.9832883051791864,0.8571915558883603,-0.1333075882671203,0.2485966724628138,-0.10298411247943744,0.2241066913825482,-0.25306106832312675,0.7774222411015097,0.8595576449948992,0.9202744853750481,-0.7602844054436778,0.08698593657328933,-0.16557400716920617,0.38125322509885456,0.9666781546159404,-0.261235907630393,-0.6027354527463944,0.8237141288188323,0.3353628268413042,0.7964983316721452,-0.5638073256531423,-0.36515669335616313,-0.8870302051130807,0.1949012360215531,-0.6096814148486994,-0.1044854835291713,0.5768720900037502,-0.20838879137139144,0.11770168918582549,0.4345900112582639,0.30571785976228627,-0.2928316600183661,0.49377724844882365,-0.6847512963515381,0.2123746775348463,0.9314086061887846,0.9363240747141585,0.40574910393200325,0.5505832342712307,0.38689681286433775,0.6831447643109206,0.70722280411921,-0.596802149923598,0.10274610085169403,-0.5974177003662484,-0.5523441336666381,0.06331106033044376,-0.46602602994118975,-0.27191680760053477,-0.14365530248531902,0.1931539050139269,-0.5096137726719624,0.6692861789995022,-0.09480547381477285,0.7847477634716008,-0.35817951066566417,0.8653587493900832,-0.7193941602989697,0.04607179027691331,0.3752092907431932,-0.5659659187811134,-0.3830535322853531,0.8743453120872925,-0.841922538166141,0.7211740863146396,-0.6701643156581536,-0.9339673094399252,0.7012913590845962,0.9569011580313431,0.2631988426590578,-0.023472480322752974,-0.3514471364258875,-0.6419893923922853,-0.1514119478392902,-0.09121503481413994,0.6551933294045986,0.9586542979235169,-0.41030917395348004,0.8862186853866036,0.6750795091574366,0.968265769934354,0.30492085272666075,0.40600660619431644,0.11829133259046985,0.6058700463527742,0.1482844386872518,0.06257938736650209,0.7139907063690456,0.0654456746071061,0.5242510168991014,-0.09033150856557859,0.657174906145112,-0.3127972681050177,0.9158600977666016,0.7299386735221292,0.7844731800810865,-0.6706437261748464,0.00818060507199428,-0.10700239618347353,-0.09651479640113152,-0.47503415513295355,-0.4166614420714178,0.7818085696128516,-0.7102156304597342,0.31171622525958026,0.24429615305604938,-0.836956645124723,-0.06568999069628058,-0.728578641103313,-0.23584284292077703,0.5792164189856523,0.7790319166966662,0.4187244877712744,-0.5628000228934249,-0.6760664338943545,-0.7799291017678016,0.4750947308767673,0.5907560887211527,0.6904789612346307],[-0.5191343056186052,-0.33221992162383934,0.7553396831322386,-0.5750145386608393,-0.2571501120891094,-0.017254637126204304,0.8294125829762843,-0.824875776401253,0.5399408192324923,0.013936765906067058,-0.48182803737630314,0.8742022301801119,-0.2487290991868523,0.48071644271495456,-0.5851010353030325,0.6358921094051228,0.13163803336657812,0.787112801109323,0.3248783561268453,-0.43898588453480253,0.8391742174839064,-0.3987961699527412,0.042211025699555066,-0.4791421285050737,0.9138235831334086,0.33778639616170064,-0.11082914029241521,-0.050641213355036324,0.267373176469702,-0.9992433633556547,-0.5112170378081607,-0.10804461926722721,-0.02639558076949676,-0.18878433189892466,0.07093699657234219,-0.2731849062357737,-0.08830395957175109,0.47065950554464275,-0.849303166204003,-0.273308652558079,-0.47112333271342943,-0.7883147056506848,0.9274354882655326,-0.9787447004825082,-0.7352454449373019,0.058583239235711695,0.359208170691269,-0.4614758238718846,-0.25041621584731383,-0.6667299806428145,-0.5611428033100756,-0.5246393143056673,-0.07133805892381515,-0.11953466470066818,-0.24307987160181302,-0.15075464023056487,-0.7124421881907262,0.4164950167120027,0.6939742584302789,-0.4737174776495801,0.659631636003098,0.18312740946937556,0.525673514520344,-0.318894449338561,-0.49724153640091234,-0.9458128483749058,-0.10662348140094555,0.9865871350564485,-0.6303067162550224,0.6525569815312761,0.9396058000279842,0.6518170101776796,0.39180692265304623,-0.12299518308547554,0.9934979152495795,0.5782571046644471,-0.849625579029321,-0.7065711077484896,0.46944973511069515,0.5137903893877428,-0.17733183437849012,0.35179326245121095,0.34703306992656774,-0.08938974903446709,0.26409763030361716,0.9308984750196714,-0.8750133228711441,0.9603881486389179,0.6503774258701368,-0.12381943963355956,-0.5928728366246175,-0.3747198324392538,-0.10677222970570359,-0.5210312841200495,-0.7295349403187371,-0.8966975727652774,-0.7229869937628836,0.2912486267700762,0.8245797665330377,0.04637710996471858,0.18266120484917903,0.22426924769549358,-0.3915028865791863,-0.21147166692227992,0.8878870584029335,-0.2750366406041742,-0.33857805797661017,-0.41657769813152,0.2861174430791866,0.8751112030169091,0.46763145729246974,0.009640073163629912,-0.637631421695583,-0.4695701098872963,0.2894529104865291,-0.6142026737113583,-0.004928319349736774,-0.3841354177272437,0.267216844026844,0.32755565623112476,-0.7808311464628156,-0.9603244055939639,-0.9375430070681582,0.12472679634729472,-0.8559191870750404,0.7977103889208297,0.16733817295663028,0.04625953612120842,-0.4289843959940418,0.9211216348527023,0.6088385347122521,0.7399474372419126,0.9323224631424353,0.8218488213997608,0.19574402246483336,0.9468100995895788,-0.8200132586216173,-0.5315460448500837,0.34096604378768536,0.14594087569177627,0.043611065384499936,0.8908576550982465,-0.7394128825673717,-0.6811407344849768,0.46895633572921186,0.27442313994690876,-0.5387360851564222,-0.5740481940737782,-0.5737298004020863,0.3370177684933006,0.199474666849905,-0.9030372156714326,0.44408553341626994,0.1037024440862407,-0.03978686536740182,-0.8908633426937486,0.15727812375090888,-0.838057236266992,0.24782292397249656,-0.8676593263967762,0.06211011963938652,-0.8625650621595037,0.024491290972099473,-0.4540778763046808,-0.6875803068793056,-0.13860002172933616,0.9000424274591006,0.8131916933974895,0.07962710580304987,0.6611780816605836,-0.1511944800182215,-0.5714814555698218,0.18924017065599036,-0.013374540318031907,0.13660349662592106,0.6467211150671553,-0.5375065672714209,-0.4115700032552213,-0.2598969107455032,-0.800378729745271,-0.7378699003451059,0.13447677192882188,-0.4413251692429513,0.8645158667594764,-0.833364627271704,0.356593228827989,-0.5481408496938368,-0.43654595473512703,-0.9483166527810611,-0.9137635349807052,0.8011100850745501,-0.8897343628609286,-0.8637802874556287,-0.7224737687419011,-0.9143661573342917,0.2761797563216339,0.8804606029989889,-0.7531724293222382,0.08882821122752146,-0.41689489801568425,-1.0036584971773843,0.11915664883422476,0.6395578925576719,0.35609787462817305,-0.029583656023471936,-0.6271091163592875,-0.029850396925261813,-0.7548874931781255,0.8052527488618341,-0.5556172954305619,-0.5543915498668742,-0.2803659186043231,0.04383563938630226,-0.4144708285601263,-0.22365791155347514,0.5171341188522321,-0.6285473568108778,0.5070708578661622,-0.20348491751675554,-0.6874880911424729,0.6155709474519612,-0.9156774173983991,-0.8545438150581292,-0.7470109382566561,0.10858156254114432,-0.4058196610726053,0.14987073722663535,-0.5267225788462265,0.7192256424950405,0.530879680975033,-0.49090329878968747,-0.3105926161780928,-0.45182391423924323,-0.11902805677568247,0.8683596244875846,0.8603040594200512,-0.2906473081534253,-0.14026832791012167,-0.7282316194556223,-0.8623251579966937,-0.9161763317650021,0.4796542075411882,-0.3776876834294931,0.008089342578677406,0.4636688995053562,-0.9119071446576316,-0.3247854078841947,0.30162722581909723,0.10174443193222235,-0.47639518620499854,-0.49935410986090345,-0.9531939496960735,0.2397842535482187,0.20643859947612497,0.202359514485042,0.01679795385253651,0.9770484803733042,-0.0031858395182445274,0.9532465140087257,0.13699205464563,-0.002476916264058761,-0.1659264692243654,0.22761362493578569,0.12548699477775027,-0.2550917151808238,0.3826510917698426,-0.9642407779042101,0.2780609762580787,0.8099963706161437,0.43221780572841895,-0.9509316997773446,0.5786566941670763,0.9277629683638675,0.06187583150920058,0.6344007632712424,0.8444069220904388,0.8047308632865753,0.9627751790970749,-0.73481681859512,0.490648780960644,-0.381658362522878,-0.9968693157962032,-0.9687979605994533,0.3823516374412921,-0.18404611468460325,-0.23976466473470795,0.47307849703212534,0.5769585655107365,0.7554476166442669,-0.14540601606587464,-0.3277895668407934,-0.20564104491792196,0.3717550781790494,0.824437774934896,0.23224665609133435,0.3577354567407701,-0.413267905298442,0.2227645168308161,0.6102901092148558,-0.2947194669926032,-0.8044502129910139,0.12653071063312085,0.13340961493883477,-0.4691208964257316,0.8070425087836279,-0.5088250781712426,0.8032070278325453,-0.1864864435354923,0.559379836363739,-0.6560528436158636,-0.2773504569206264,-0.1569257605905591,-0.40689297566590343,-0.47569939880821716,-0.47982187875408777,0.4848025627843285,-0.8374571775810021,-0.7015218890641673,-0.5556204845050983,-0.9989431423004251,0.5256810612993229,-0.5287705371794862,-0.9219289241558208,-0.23668087920440878,0.3270443365372876,0.6887329912225569,-0.9297701427541208,-0.19527121632701355,-0.5353069645702266,0.8919378328062433,0.11011728035125158,-0.19655512480268678,0.6324389032551102,0.6317525367435401,0.5786126473553803,-0.303704028031811,0.3669287953558038,0.5160283940338324,-0.6500173902192722,0.5588748312940761,0.4006815251158709,-0.9825825924661136,0.6452088970023735,0.2569420034619892,-0.21007598634725658,0.44185793804129625,-0.019569634369365926,0.8229764431161513,0.9032293359436337,-0.698928259518853,0.1340382653103623,-0.27252548840532836,-0.3519645552278282,0.6116942563909145,-0.46527718099872367,0.826768189775381,0.7146325764456551,0.5691800168430378,0.2505390451374191,-0.5579832558496324,-0.19286998178119655,0.6797486855771219,0.4730700473214031,0.5267988194786682,0.10090254772942926,-0.7185086392929417,-0.9226610778721615,-0.8809872465029732,0.07891697452467696,-0.4702889062804334,-0.4947613743355517,-0.3388915916148641,-0.7306446157890272,0.10037855533842434,-0.8191567817663927,-0.7416475696645544,-0.6197391203562285,-0.9153929488233092,-0.5348791862825786,-0.13545710136727332,-0.8895204464268825,0.5967218405851845,-0.22812002584382085,0.10664830510015574,-0.020334751838638303,-0.08758937316977435,0.543983729275751,0.2984730853444526,0.1638920740223425,-0.9034640657320628,-0.0356396920186121,0.5059016248528121,-0.25435513889465144,-0.22319571862801196,-0.055747735447951086,-0.939175734463611,-0.9690315207269932,-0.6363996966312986,0.026488135129625858,-0.03574788375370702,0.22257088249896956,0.1400305226150838,0.9182874819854339,0.7749170260761413,0.6438908708132479,-0.767192632978614,-0.6817414834720091,0.967773203966883,-0.18939269580833187,0.6365706768485203,-0.9348748855122513,0.297498736017244,0.2403202594156524,-0.059450783144567865,-0.3659212937043637,0.019567478976770504,-0.7811243222314426,-0.5018218620242725,0.7799361625702689,0.7337400974006696,0.4349851448544219,-0.3873554326821291,0.5928525212129996,0.5743900661282372,-0.16422781952847657,0.7900436439132636,-0.869116475417877,0.7230096817532422,-0.12948842421840967,0.609767246897575,0.5969530402036128,-0.6999364227096233,-0.8349990737841271,0.6898020401546407,0.2860343011101033,-0.1553949575124036,0.6024749416804076,0.6321852837676688,-0.4700545433572507,0.669036851424204,0.9145716324711421,0.5408923375576148,0.589430316628109,-0.5529627209825233,-0.4028369620121362,-0.19297263353702607,0.10618679346788625,-0.844019568178636,-0.2514762119082085,0.9594177267434159,-0.15288369707318936,-0.40601908830663197,0.7013792633050457,0.07441216204284287,-0.07861014235450513,-0.7333997281286714,-0.9903964870427874,0.705231447293677,0.6863737038975873,-0.8994114044662762,-0.6593590320927425,-0.3582582534916718,0.41109559847832267,-0.7838617362168063,-0.7824978788748919,0.09444143914616197,-0.3961701555933288,0.5728375632924146,0.019663667469004595,0.7026784882639617,0.5259696197002075,0.16361750364998848,0.9135549806506582,0.8601825076513265,0.8638553882395138,0.06793918245965132,-0.28573848674114927,0.596304454612441,-0.24657949057947207,-0.8978466150355738,-0.954228607578051,0.3674473175540567,-0.16205189933500572,-0.6490126076139048,-0.3472886666422136,-0.16033949958540136,0.2738297016815283,0.26984745967519913,-0.38155347690163166,0.5671697434506335,0.8715649130077145,-0.07876908408430146,-0.7648018127839553,-0.4871821698741442,-0.1946105227712644,0.8759691213475967,-0.8154410713222592,0.6828000013321709,0.5477044518451872,-0.10059958109692027,0.4559428609858902,0.6673503528394698,-0.7370102337239127,-0.8102739702382723,-0.9431808186649827,-0.09561516299060162,-0.8233576058530067,0.051553814789538785,-0.5568529804416636,-0.9072102506854031,0.7037239257622778,0.014107578584756088,-0.1461813403620851,-0.6979568546512502,-0.7704384003008116,-0.02289219167503174,-0.6378937251041265,-0.08356826999679678,-0.7490462992293733,-0.8936544139021648,-0.801561850475807,-0.44557284212260223,0.7393989578824439,0.9883336781962154,-0.8500891453011904,0.9627022289933845,-0.05694811663188956,0.9589498508073887,-0.43973433741017015,0.6932440124803875,-0.6599964003275985,-0.10787147302437806,-0.0333392966601466,-0.46760701908121144,0.7487865835635544,-0.27302940028376815,-0.5202996176832991,0.7073474979158055,0.3223452637109587,0.8048547045648015,-0.8931784670174711,0.5405685644212311,0.4859636252735337,-0.5578153186097671,0.40642188062741263,0.7738335489566511,-0.8306448521310433,-0.585935565816138,0.17590294457114838,-0.12364732280599879,-0.1518344256233848,-0.13806386785645922,0.1265311936472144,0.7692067221074087,-0.985897025767973,-0.3748847456053133,-0.10059860949413481,-0.019091109460625963,0.2276819426816765,-0.6648861169451615,-0.5502161345869173,0.9805428159320285,-0.6480279845678084,0.3317049003301075,-0.7605854705025078,0.49938229934812467,-0.30167836146946053,-0.7822961229110023,0.2614912060352061,-0.9650770541294044,-0.8965491326773932,0.26959523887508036,0.9487636206340172,0.5780344715514883,-0.8037674713216746,0.8782564878461199],[0.21134924917152523,0.8915147456744433,0.5039947728683732,0.49148718081878856,-0.9487019242479154,-0.7729927090394534,-0.8153720224525848,0.022106261609698103,0.4869914021192621,0.17167103544037124,-0.08988718582624765,-0.031021345703098,0.6234871983513467,-0.8078641984645386,0.5229544244949467,-0.547235941709956,0.5139121042416106,0.3325538381723215,0.5984422324015796,-0.9252762563071771,-0.2845283971981895,-0.8770043486285394,0.6444669585537207,-0.9144822280371737,0.3641493686664468,-0.7496437600215772,0.9079554267601336,-0.11240736484531762,-0.9377095293037111,-0.7409102835913332,0.0720556538280346,0.12600467489354797,0.07833939983152784,0.009770700868850606,0.9259525835502543,-0.44999387638643124,0.49958899717342453,0.3993576837413598,0.28833024955783493,-0.12482685845188803,-0.5601907442141606,0.3498187809155229,-0.19319783426265566,0.5938388424938746,-0.27173878852344585,-0.8040868607175954,-0.7745052393040314,-0.4350524107811144,0.7066248209644103,-0.2629343367411901,-0.10210439975192193,-0.15326224475807365,-0.4544858035799045,0.1621329206889735,0.3737254291987753,0.8690286926530865,-0.2017312421027457,-0.6859575784705038,-0.36148625518599714,-0.6229925202882473,0.5475452440567685,-0.4086786681116299,-0.3380544320295458,0.5794070502918991,-0.6445935524208813,-0.4355579009366985,0.6095007989327488,-0.32311569289327763,-0.5995878820859453,0.6544725477430312,0.6626525789387218,0.6326636085906933,-0.29792357321321156,-0.8621160294668232,0.15651606126198586,1.0400287717134924,-0.7511817650152395,-0.5559826974241104,0.24927411517132622,-0.010453231318129471,-0.14311441307559133,-0.579547282897247,-0.4604448333436766,0.7514549079261199,-0.1263296875980446,-0.5257803668577758,-0.1733828525634792,0.44969719903076716,-0.6863767245938379,-0.17607826696244852,-0.32093627552202814,0.36698200698832967,-0.49926232702684287,0.8150324172782619,-0.012626428784066676,-0.49225125607344794,-0.8441875290755402,0.6290328993728215,-0.9514270844861735,0.42393810331843695,-1.103581685342942,0.5829514309564947,-0.6867836582438214,-0.3713980534207463,-0.2011482039063136,0.4837974273727509,-0.9795298219314389,0.3671016594953457,-0.4023496346346672,-1.2056019245188274,-1.509826000859043,-0.19854439412568908,-0.5225793875480742,0.49595582961891016,1.4144095708792948,0.39689384214347745,0.8284474035429457,0.811732588186086,1.0845885774752637,0.4484994951743923,-1.0457146289144914,0.09668602789614192,0.5263657161429119,-0.18926700399134708,-0.45481157376377557,-0.1180401718714364,0.22591213308220995,-0.409426113629932,0.9339630182051202,0.20636090609442087,0.2599320908058858,-0.4975423863482542,-0.39010944465296343,-0.9144649812878135,-1.5999859662258464,-2.310070083935225,0.38711436211382555,0.7248307392524344,0.5766992921614452,0.04065067057437115,0.9120192399321799,0.3517753432224543,-0.4511132786629675,0.8779656983746239,-0.05656304207545414,-0.531443334610041,0.07464115766578654,-0.2329110183132112,-0.07271751231906927,-0.8095668302415056,-0.03451072906041013,-0.9180222113860542,0.4709877984949361,0.7275422254538488,0.7442537922847792,-0.6136533084298226,-0.581994801065822,-0.572163221751941,-2.28980905180096,-2.2518649327909523,-0.667328202311532,0.45462014589056793,0.8839366549875033,1.8518179978998308,0.9717344808388727,0.4212552220382368,0.6543721480782925,0.31413151802797473,0.12499813952292058,0.27404732992959346,0.7094824847574476,0.9369732965521165,-0.0945546661760483,-0.05828258387137625,-0.5725311561026721,0.20686786782251393,0.5187456046021396,-0.005937998524410673,0.23396305648384058,0.17893797834944203,-0.8140201911686128,-0.15502288245187765,-1.43215028071523,-1.5660048834990783,0.6825689011086211,0.7652556314909089,1.0449649880798548,1.4903588171588555,1.1539718503119771,-0.363132686852296,0.9630929998379278,0.494432849505872,0.5375610456628047,-0.580501464681805,0.08936995117583395,-0.2453022897915706,0.16090970251597875,1.0184580610127683,-0.165109907588764,0.09243050956151624,0.2997319525356823,0.648552376952454,-0.4994931169744332,0.2548924100864868,-1.2812052369407292,-0.7739672219067935,-2.0787307323642206,-0.9157224337708785,0.48165787793704934,0.11978900151323973,-0.12648309629544024,0.38561744827985384,0.30535800085013115,1.1239552660393204,0.31255727334881916,-0.19639032854179825,0.9063462360961524,0.7195957904346443,0.7499664259338524,1.3149841897692045,0.6661593597805177,-1.0651163704328208,-0.11837664777815092,-0.5807306016753657,0.4163002048386702,0.8401050082846198,0.35996182013910727,0.2086213598287232,0.24320811575191392,0.20700467226797725,-0.9751484743100576,-1.0818792681146254,-0.1458856437137455,-0.38478364901180917,1.698078303884535,0.8055010102786542,-0.6462401943682723,0.8874948232865849,-0.22910512123103582,-0.15115502637156425,-0.454435096164375,0.5557783948306888,1.0101772202439399,1.0200965055707976,0.5656190032873842,-0.7966387494018222,-0.3770111305527214,0.2902019387973987,-0.7350935494617848,0.055223184870214125,0.8987747960818694,0.7554015189603291,0.06866955380710754,-0.6489758131083561,-1.0071568965653466,-1.1214988288862646,-0.5513228640363586,-0.12590774362973767,-0.016616877731128965,-0.19458399984380223,0.5607578893179652,-0.08568694003370307,-0.17739646157667704,0.630695767990306,0.3108896987944551,-0.5950157365633327,0.7367383348701361,0.687993921407493,-0.24907530266268607,0.6358533634695664,-0.44244224731000337,-0.8642012324262982,0.30193730807275093,1.381932878634465,0.4630691385258207,0.44038120542906933,-0.1823053377474649,-1.17904502286128,-0.27728580334987496,-0.05591086119308375,0.10917148362684889,0.7133520460596764,0.9261805304918158,-0.5739391505199123,-0.5387902369016514,-0.5125575009846175,0.8107227030115112,-0.30691407167142937,-0.1347175712936041,-0.13736170148267035,-0.6405185502445944,0.5160931670008869,0.6062787146422611,0.11254006717366402,-0.1998481275493103,-0.1305609575570215,0.8185983766306728,-0.45345134038422,1.5645569056071331,1.3631256251657935,0.5910930174652879,-0.02224473057085834,-0.47314761562669355,-1.039479951029732,-0.07164608424889073,0.13849897836704553,-0.953364211512361,0.07642427632271687,-0.34705067063938677,0.4852822622287727,0.3877666184730329,-0.8913085623079354,-0.4942481508846629,-0.5386170985277839,-1.5591833456950135,-0.4828850483825251,1.004404975820017,0.19677324645405767,-0.5743466546858216,-0.5923354127510151,0.4031469668224547,0.692019361757652,0.7152747696342423,0.18119993617269925,-0.4107382071565149,-1.2406180498715138,-0.11372775593326177,-0.24405916180657344,-0.08855996219537166,-0.09345062576222335,0.1645155406132738,-1.30350908184459,-0.31409139027936217,-1.2648718070024039,0.26799262477274605,0.8975142574783137,-1.0297709530332702,-0.8013042134212257,-0.6618571139458201,-0.7119865938146872,0.14987339157187796,0.5529266014461682,-0.09306331455985271,-0.8947672270098181,0.10745839975086502,0.39244213513891973,1.1220528795618254,-0.5891170214674982,0.6406853355591223,-0.29115507634147014,-0.9735720894390332,-0.3937025395586027,-0.24315476073487866,-1.0528647089916732,0.6254426044320116,-0.4357193273033748,0.31920965335151524,-0.6203009957744262,0.35992793668354656,-0.3938292968814479,0.7443723322785994,-0.3346055135896769,0.15240880360190426,-0.42416788089746094,1.108477806756592,-0.31818785255098414,-0.05993605057588923,-0.4346043093651519,-0.9514537671134041,-0.7272264333909773,0.7996671328430254,0.21936435726583822,-0.22464723445503673,0.017979174575471938,-0.04465454725002991,0.7886405170200571,0.1587702970247512,0.908867142390904,-0.17236793080961677,-1.9781826914604486,-0.9528079725522927,-0.14892767199911353,0.9573702621947535,-0.34210877539557166,-0.6928226959398366,-0.25373248673740095,0.8291938189615157,0.3114180802012053,1.348547982734162,0.6962675431856672,0.1038348617603267,-1.0075496399399415,0.147541481636712,0.2615919658080067,0.14897802283225994,0.2456135473270261,-0.29307733662679863,-0.3532072659027997,0.6270912290554612,0.2648407875756966,1.0795857874283572,1.0179939308167294,-0.11587613143224237,-1.2124663714426598,-0.8298873022803692,-0.8726571940747718,0.6059933523558415,-1.016752589835366,0.2997525107068471,0.7559082711968929,-0.31240102750697973,0.7209294731765221,-0.021822730748467658,1.2897233704911255,0.2727617943334635,-1.429775734048726,-0.7880482375002216,-0.25457673712886053,0.6103317702465125,0.8124901341416432,0.6145352475447226,0.3609221295013448,0.7620582336457282,0.7131888606893461,0.7061933633317085,-0.44161251963148546,-0.013288082919656002,-0.3347176364283455,-0.5975745959400884,-0.9341780499417343,-0.38636399007785605,0.5269652248476641,-0.2432231657953105,0.6855391376577267,-0.7479987813324733,-0.28680773704413026,0.9313199983575197,0.11514319873896943,-0.44478864675722357,-1.3877418016799092,-0.3967050309970529,-0.8373165091091965,-0.3971020275223053,-0.1774735111520499,-0.11745100084742278,0.27445726620293515,-0.08381146235308805,1.3987484796825234,-0.053681037083096614,-0.6403380662211816,-0.141705709479243,-0.5861795184694495,-0.14435396217238897,-1.2789742249231923,0.13958646082481413,-0.8156797337514546,-0.9972152194632061,-0.3184208753838354,0.10122519272428775,0.6033874155494829,1.0699238786685665,0.0035253241282226337,0.3971055150187095,-0.5694549644282457,0.7568169716636135,0.5399785519369429,0.7544589598959566,0.16151298630111932,0.35781633231744914,0.11429009312725245,0.8456360343024447,0.22499960654185527,0.9036946083500788,-0.48497396825563693,0.03394906157241838,-0.8496040677475454,-0.848522912634573,-0.338191932841778,-0.3383565490539852,0.7042580718998875,0.6285138354916907,-0.8308987892347106,-0.6284803099439471,-0.38677667808988814,-0.18869111681831424,-0.02659312606210647,0.3723721106786682,-0.4298708493098002,-0.41947156240773154,-0.2823675184322143,-0.9855268769703126,-0.572601014700943,0.30530715769353467,-0.814777256432267,0.3679624161097055,-0.0171041437485288,0.14578043892017342,0.934319683998063,0.34025399316058547,-0.09143499433114928,-0.30923957749792785,-0.19785693208696167,-0.5270309520651332,0.9386845802253977,-0.4073356157215124,0.695004031361235,0.38889270349610666,0.07334805120603509,0.9889728664959611,0.9244747607592995,-0.7803883088156754,-0.45380054935234154,0.4010173091496622,0.7838358969517758,0.3934850679453677,-0.6212245652346594,-0.40823997585456206,0.8883199752743685,-0.9498673854897873,0.5340087169086944,-0.7628010344399644,0.03636456841060695,-0.6669580019135138,0.9381990506981445,-1.0316604228029835,0.7341203194171765,-0.48219124535098795,-0.9593314414201332,0.8071037173443177,-0.2702695871821566,0.30898733335279954,-0.35917061154185664,0.5417904523111104,0.85065581807335,-0.4670583913020409,-0.9388486440341183,0.1333454811816346,-0.7739130524313375,-0.3790737280173084,0.10836876897822119,0.872169701789378,0.4074198078745009,-0.07402995296763352,0.6429914919983156,-0.12839782513117928,0.5170147579154166,-0.6306819432205973,-0.13827230840324006,-0.46624333551481206,-0.8452992857505489,0.5564559194866064,-0.728109442179005,-0.42841235711503395,-0.30358746268973674,-0.6030457429038086,0.17612544322694104,0.21418254115299787,-0.7628803803933094,-0.5355342777735074,-0.13388973729827616,0.9337268956583124,-0.384217611771197,0.7729105769220944,0.008023714806587081,0.6259239645163722,0.6721840411094532,-0.7433996587712653,-0.9141376977319281,0.1345215554997015,-0.23600326904649657,0.12967755057653443,-0.005456418407003002,-0.5693359727520587,-0.06263460130152494,0.19696415505143652,0.3458557584438257],[-0.09256487693044209,0.7205338829628312,-0.14344133887756252,0.06358614483487404,0.9011699075411974,-0.5759561630939951,-0.1512956028867859,-0.992830082808372,-0.8979847671587955,-0.25781751399973973,-0.9057359700895187,-0.8320183847399536,0.4921077098334083,-0.08017703549648054,0.3140181812673776,-0.67003640987357,0.9655859741751545,-0.8773600423924834,0.4413191842660955,-0.714372626475203,0.12094844220738389,-0.9095239137219508,0.09389628977493228,0.5541200151419934,-0.3821292880166911,0.5117754626604742,0.8821985467835447,-1.0152188075751793,0.7082556907023008,-0.3816690315401694,-0.4921910064668624,0.38800576698808054,-0.7974232601258657,0.8011660014200397,0.28712126662958926,0.2292610156477469,-0.6432614978621365,0.3160905502039612,-0.5118807566606838,-0.13929504523159203,0.3903239113834293,0.008056851104094227,0.4791852117498162,0.6575697315295059,0.16725498371912648,0.28998605075435013,-0.48562569477302353,-0.23228763408455133,-0.05769827907026275,0.5007077109432865,-0.1789550214001624,-0.24834580224945546,-1.018449914627802,-0.741264183999594,-0.6996646967439617,0.29916123200730493,0.18699756007681112,0.22906400484054554,-0.556166045505097,0.37230507983750427,0.8159401432312628,-0.5754191683873036,0.08390746523077997,-0.6007942401681005,0.3551033981823639,-0.5280551229750079,-0.22021826202162692,0.4752285528271701,-0.9575440069802031,0.8236222002150373,0.5788929246462833,-0.18077497084800453,-0.5775227278987665,-0.9888027143591651,0.0335557749983583,-0.043054260395742706,0.7603260942598777,0.7317770403414863,0.04203356454475762,0.42872168152153645,-0.19677600727855152,0.9143101579501347,-0.7359884201972637,0.3436143741772577,0.7631492329663687,-0.5223793925602463,0.541230796786216,-0.709236936925651,-0.10623732267374811,-0.23210304506111448,0.4108093571132137,-0.4592807294763552,-0.6987285964711346,0.4355546253598106,0.770833065827627,-0.9201717780469794,0.23052019941951019,-0.9569716084640809,-0.24511234609920846,0.6945269780340182,-0.08804817388457592,-0.5310267891129015,-0.7809796408466838,-0.013999662883729225,0.08823474816480285,0.23684406527898458,-0.5191578241338757,0.005476885913982486,-0.4691333237366217,-0.050829771061514935,0.551540752847584,0.7286445125087062,0.2235663412351601,0.33563236637386773,0.38637697126772436,0.7615643414538938,-0.251120384262292,-0.5713741857186325,-0.14150025735934196,0.255265340866879,0.6236077625265402,-0.5831290212126371,-0.842629644569577,0.7846557143214848,0.6077083070124251,-0.5315556617482958,-0.9796285956209897,-0.5645081455286596,-0.00935003653699067,0.7232487516936804,0.5439247238894518,-0.7505376620241624,-0.18983902283453763,0.3144216528828537,-0.10672218600933688,-0.7154628683397108,-0.054139614806553195,0.19166717766287594,0.7748099120778078,0.8956286700174988,-0.9642506141560018,-0.04393074381811606,0.5685359166614217,0.8430185020978456,0.7299969826330586,0.46349250580016316,-0.012254714536026902,0.6690060384531552,0.2026974928020981,-0.9748934712761609,0.26936367412917983,0.6980965557393646,-0.938866381804563,0.7294460790934544,-0.5255578149982028,-0.5904208878370278,-0.5964959432139454,-0.8617508473315919,0.8095175973557539,0.36793473864473564,0.7634605519295882,0.5005539991465588,-0.8609385545186031,0.30884420647435157,-0.9244547084932113,0.273838852450902,0.44897827470478086,-0.628552516717402,0.8405508723482764,-0.5225093518119737,0.06859395055054975,-0.7297930163374813,0.4958891104685969,0.589505269305995,0.21631671758389015,0.7602604924580179,0.7409941139544707,-0.3412707832081295,-0.5968690840759636,-0.27194364142677213,-0.47351510871447505,0.2762775983928801,0.9443222617360058,0.40126853892834685,0.9292997679980459,-0.7804113518512259,-0.7734178504788441,0.6707057362939775,0.21418317691278996,0.47465272616037407,0.021943135076179905,-0.021713665473570117,-0.8904919217834799,0.5466594455005337,0.4469161753978526,-0.9548664695758126,-0.5468569432074778,-0.05114479198609619,0.21077535353073631,0.7590889827511789,0.7762492948212366,0.4218558795982925,-0.5591074802687864,0.4856480070038465,-0.28246324214357127,0.763173015527012,-0.14038753225977016,-0.24371320388475715,-0.8765662824886891,0.7213782404349369,-0.3298581515400767,-0.9102392239944476,0.28806255145765175,-0.9371361254925547,0.8177863980435492,-0.4201970794819373,-0.9065987628350693,-0.7876843450899716,0.20587206885131704,-0.46087051312506344,0.6572127160626431,-0.7357066169693158,0.7560587020732029,0.182942225395499,0.461507307424384,-0.026797542507842532,-0.3903314572805727,0.9306705361387886,-0.619396319277286,0.15956879248064698,0.8574819047177448,-0.53429985669106,-0.8375733877277113,-0.33321540089409896,-0.9301378600101142,-0.7098183039389854,-0.32533882591976593,-0.6491933427048386,-0.9387174312029788,0.12268434304886393,0.5212506950915043,-0.8951041695963842,0.17591941306862535,0.14779001870938296,-0.5930940250574781,0.6070488357005527,0.7280266956436832,-0.4515722684645314,0.47596434567417184,-0.99345667667152,0.7907772825386775,0.5668689082078684,-0.725041258262327,-0.8250775838755672,-0.7191611727841728,0.32872769101341764,0.40233547940899933,-0.4997726634534906,-0.4754505305916189,-0.42292032197134855,-0.293365154032815,-0.579720919073185,0.6200330322126361,-0.03696662331052731,0.7426598598225788,0.7288887533040928,0.6422424589491897,0.6719635159338889,-0.31455124702076326,-0.06309049774851717,0.5389898244539049,-0.7662129153632814,-0.09331847076174976,0.454465534435029,-0.9278786162883486,-0.13177619974025512,0.020396912468034104,-0.7969456828965222,-0.8318649992772875,-0.40163390516594455,0.5836267962225816,-0.6476838425826077,0.21485731858698603,-0.2575086611580956,-0.7151048270500168,0.20908759847133707,-0.6750562021279755,0.9253712551752318,-0.13498412132190707,0.6395307186111273,0.7940227815337918,-0.40503035027700124,-0.9664028881692186,-0.945752500820594,0.4429113586377798,0.420821321573794,0.14149748727687447,-0.008531033286016438,-0.09233851304705033,-0.009779779482250785,0.0014285323611954244,0.9098831696719806,-0.18111961259104645,-0.10280653270010097,-0.7027610798496219,0.3725388944521172,-0.8852613632774498,-0.8587953503223565,0.868268629262338,0.9233627588391179,-0.3289340699698289,-0.1603471895178261,-1.014541010532024,-0.21673344396753447,-0.6174439644921995,-0.3278755569807101,-0.46217990079002735,0.4760220754296172,-0.9747299620443031,0.34367643109146284,-0.07130884985263046,0.10764222933494591,0.02594195285957842,-0.5618837636008663,0.4437108414290198,-0.4595049480396356,-0.23559980176595896,0.1196561242649835,0.7979734615576456,-0.36663907303493604,0.14830566507656825,0.29851759414420537,0.6745615346840622,-0.9784853642229316,-0.23581078222660587,-0.6828254733109592,0.4719218998606822,0.845107483433758,-0.16585909890270936,0.5516974105647393,0.4330105225363061,-1.0036239300275176,-0.24721165503420484,0.828539240003095,0.0039989545530298085,0.8665896915392999,-0.8213940006012992,-0.36828926533299605,-0.713444823801289,-0.38083380934036515,-0.09120118538528933,-0.2644888083331684,-0.10880094406835383,-0.2955218249755913,-0.5936703465908532,0.32498477924785385,-0.7277299207628242,-0.8825264096152956,-0.688361435113814,0.9264753943198667,0.3070447408145476,0.40108355287326075,0.37484396182091806,0.5717670942456977,0.41296948746866596,0.13195960290369635,0.027951177571134172,-0.2864044859540429,-0.4241264087549468,-0.19905651179645747,-0.27756518016874004,0.44562484414902886,-0.8125368633637328,0.5055107489868098,0.6959143484724589,-0.6015689713918587,0.39977135830575206,-0.9600443093742432,0.6041176726043745,0.6761127655863401,-0.8250419367795434,-0.6852881748343759,0.7158454603702578,0.49103304966642314,-0.3324204061745035,0.7113242832678978,0.6239512179600211,0.45280764086258296,0.4704920282770485,0.5216489851281375,-0.542611944508258,0.042890432183917505,0.07613343302026364,0.8914151635259755,-0.5874310143692824,-0.9981464706758462,0.9483471369315994,-0.8666238793744399,-0.1736279264555449,-0.8536465925542275,-0.6029136909281174,0.4171338967082336,0.3616760496180334,0.5163747093373755,-0.6179733260561002,-0.2726712194611834,0.3092873144841596,0.23464383272282474,0.7053976862042142,0.08418935383363071,0.5207556434014151,0.46115679828335754,0.7244127405543689,0.060031519946414244,-0.9316308939258953,-0.5981794988717002,0.511433354089484,-0.3894783262133004,-0.14541946620738194,-0.3277479272228284,0.7649540506843596,0.3781013650163955,-0.06336807162843487,-0.7899180439820929,0.5214844316442476,0.854645160017679,-0.48449707793191493,-0.6766412880977928,-0.939269186116947,-0.7671036398793926,0.6798414571146361,0.20171234795727921,-0.15393313592600688,-0.21447015270891162,0.4349659810027855,0.6520329240506227,-0.5562061747065843,-0.9934750003661331,-0.01654841083375051,-0.7099981926776227,-0.22986892921694535,-0.6716738156849591,0.6523478427888877,0.18150094861857533,