{"INPUT_NODES":576,"H1_NODES":16,"H2_NODES":16,"OUTPUT_NODES":10,"BIAS":1,"LEARNING_RATE":0.01,"weightsIH1":{"rows":16,"cols":576,"data":[[0.5766495740825788,-0.0256221308498193,0.017535463387659336,0.6709904785558065,-0.7722973404178652,-0.057552913741108415,0.43192546703290613,-0.4615789965309697,0.44636800777470353,-0.8823709869221161,-0.12216003017669413,0.0054247333363229506,-0.1546410695819725,0.1886018222822891,0.672120421161136,-0.05154122330255458,-0.675350014764809,0.20750395062454702,0.07410123061340904,-0.5391077938663289,-0.1282148984192602,0.29749746668691335,0.32453233012368166,0.6910595232118808,-0.0011267966604629517,-0.9000600580606812,0.11624284633053608,0.6662996292397951,0.6840806952686138,-0.7805044680989719,0.04607013370120161,-0.7312289210032763,0.7842030859439715,-0.7889633839764401,0.43662933403032234,-0.0052862926585833464,0.7039699382829612,-0.23540211030985184,0.39165788797603807,0.379558493787299,0.5511262577270044,-0.5375617646303252,0.8243107664792391,0.21124642301251903,0.7507851408779623,-0.22711692178276646,0.6220698063931686,-0.10806709863948602,0.30314420957791943,-0.37121547047683034,-0.4768570436592943,0.0826586381237066,0.6458113254653433,0.3086025520692281,0.4569172074180362,-0.38717170110345445,-0.8434324821916557,0.9700225615285964,-0.45649539524179483,0.1086537980890219,-0.8029265269891707,-0.4712081487008704,-0.300105455323862,-0.7972929033440416,0.279591521776704,0.762417099884055,-0.12089502685027086,-0.4062623036577429,-0.43493278904203,-0.8127330440106414,0.663757549170252,0.8436570288736245,0.3253334598482439,-0.41318776407381386,-0.798426652247163,0.2949731024190244,-0.7727332391631277,-0.138645387028099,-0.5573158173514488,0.2288614540926975,0.5143696665432909,-0.3051476460099153,-0.7083198186785493,0.3141436485735197,-0.42008373990682657,-0.4472189406362524,0.10898640333518014,0.16698597259678474,-0.48947626855366605,-0.03354184079139267,-0.5928957314851114,0.344242881586327,0.7988029640661736,-0.49758798626677836,0.33852025824833376,0.8205555229892323,0.48322816049067707,-0.05367993349748393,-0.38473451888454213,0.9878437690447913,-0.3759775918354946,0.16101694464129604,-0.4610856754176058,0.6225971398948789,-0.9065827050326254,0.9714994415092889,0.4920954890765231,0.5758824766800056,-0.643904929019208,0.5788607996440966,0.471342504640112,0.13783620556445966,0.32770339269542037,0.13901644403372768,-0.07134971291861458,0.4711903118536955,0.48535000418689705,-0.5330385363414064,0.6916798962005958,-0.02171481761013135,-0.7798312719829854,0.9503114105468816,-0.3817054497337658,-0.07207909036451764,0.2722697218801196,0.04062330593904526,0.21791304773276365,0.15862229762704574,-0.1600632101076328,-0.9276231574942588,0.6148354215369091,-0.19784858032753827,-0.29009683783941054,-0.6994176476367024,0.9194401250160933,0.9793195226286746,0.7571606125654994,0.9273454088652823,0.21416584412102668,-0.6316249932334655,-0.6807651093294927,-0.666454046445085,0.3646857913307566,0.29905700506338995,-0.8303144022081004,0.019339599918124516,0.3616373407680747,-0.9663666831803509,0.3408680555789414,0.7709466013030242,-0.35676114340303317,0.33045531038949544,-0.578655244099825,0.07428337436410053,-0.4740601317848932,0.4470577511600464,0.803775086048904,0.05576711661942244,0.4542953758359,0.3878507451098841,0.686655351641608,-0.19097243977245262,0.11995144596520892,0.22314696058214648,-0.3697388344194292,0.3011746881580366,0.7924475610452154,0.8965860733440743,0.909734669873479,-0.7010994346841537,-0.7301821932938706,-0.17696323289531007,-0.47635297377224967,-0.6924505362927156,-0.8898179821434241,-0.1842108398398486,-0.8011817624454313,-0.136530725604655,-0.8218464430550487,0.9229943316154957,-0.05889339550774104,0.5980968131295352,-0.26034211026762155,0.6191556721916891,0.12157598036259855,-0.7348726972117803,0.6514704052720167,-0.38627014948994637,0.26696815685293246,0.33832125090132503,-0.644407472989548,-0.5683377856338485,-0.44410793576787955,0.9563770094848892,0.7897299426931439,-0.01524660847184437,0.3826889785184982,-0.02399247981229345,0.6532907782817078,0.1706352462888753,-0.5261079799706683,-0.2679631576073117,0.11024735796337115,-0.7980720946142649,0.1831743269213232,0.28766817473525175,0.8687019849736877,0.8617251879222523,0.5077269523170188,0.4092981808459619,-0.9007251867804427,-0.285766956130584,-0.3832272892694253,-0.5174710833473541,-0.6433294954264209,0.7630651315698234,-0.4931800802723211,0.06765926732540548,0.6549140276147749,0.9044024023538781,0.9058680129095911,-0.9326628793932803,-0.13711435672579944,-0.09282126373562691,-0.7997031531377018,0.9729092071180191,0.12417200057682054,-0.563221187093044,0.8166153392432958,0.6324155866222619,0.673031430577755,-0.3274824418781772,-0.13304000067563806,-0.3636558810691902,-0.15097182236178605,0.01779973327474035,-0.6653367894544343,0.2779664345213154,0.5285425763122411,0.750625488137075,0.0028668054411587662,0.022762575170962807,0.3730788800623095,0.6318356690155048,-0.6824351187924521,0.7216066026845938,0.9631608728878954,-0.3638510161402904,-0.193336701906984,0.7569004991259607,-0.822582397417938,0.3778617627325896,-0.5007012793617748,-0.9216110249532312,0.1353673263685039,-0.9703254617206005,-0.5459720086414026,0.8697739786382522,-0.11709112379202556,-0.405256622506187,-0.18671524469403813,0.5568809087038613,0.9281985042956461,0.2616809430463921,0.20473182149173702,0.04577904626802593,0.7112922058338432,0.20089274561114842,0.5294691149136023,0.06736571983516808,-0.8705553154351494,-0.21453578955533673,1.0114625270380488,0.9453337337068773,-0.8464595892594019,0.8460205475036267,-0.3436795454825524,-0.9448204994307453,0.7012751987843958,-0.49074402352347657,0.6947801094792059,0.4755131067957021,0.07971811500398913,-0.03467036139281474,-0.5968494627263247,0.6657524172134337,-0.05345990908825427,-0.012615973577687168,-0.34970973722522547,0.2981227401809141,0.9804818105767635,-0.5511002549384781,0.496656125613012,-0.2333552025948158,0.2500047905658966,-0.005639582186817363,0.01486982046726465,0.4897668886030217,0.30077146065077026,0.5831830241275884,0.3932119352490543,0.4532356812757078,0.34184438547405116,0.6336149859410359,0.5799268238186736,0.6023247282342133,-0.3999612051584758,-0.3454651503736467,0.4822749483596028,0.9910512221027955,-0.6942821888315516,0.6722150857961658,0.27111592991140127,0.6632838382045835,0.7576549731847197,1.0036130051648409,0.17565102581774877,0.2516344105150904,-0.43509523730317784,-0.09497413447184941,0.9226200061619686,-0.4578713382980098,0.2966807760320038,-0.810801526202826,-0.7917658305503266,0.15870805605395444,0.20753457929311447,-0.2727149838795849,-0.5847549774684468,-0.4080267627561435,0.2425362844056116,0.608952398778703,-0.6026182617285133,0.08450968351011569,-0.8523910682183169,0.678445455381917,-0.5645863384829415,0.7626131230046135,-0.010501668060067134,0.4679785182449043,-0.43319352937643874,-0.8867712080719982,0.4150249294435112,-0.3492764068322566,0.7049576161502218,1.0133513865175725,0.7791850284664417,-0.15336881268210953,-0.6656662279130108,0.13603931351019688,0.24861347319861554,0.6273119479267544,0.2194886813436651,-0.8156045726590568,0.3076324923678372,0.4283909570963279,-0.8404373462473215,0.43602413316269706,0.5087543018002676,0.49806255819127515,-0.23492521196692456,-0.31210617465975626,0.03906499805065743,-0.48179843369296205,-0.8814680883328964,-0.3428723580108641,0.17028595202951047,-0.25782730306030954,0.05870699986420988,-0.21342047413737117,-0.21677635485142543,0.20824448794800693,-0.8232201600972485,0.7899628435485583,-0.6457144664845299,-0.8868056652311863,0.24196562454267823,0.4870655380350484,-0.8527947179595011,0.1993297474591623,-0.7372683557090822,0.4872312522943236,0.36924001680222296,0.7489611826036245,0.4516327136848911,-0.6778610972221546,-0.8536222025916294,0.869835379690345,-0.35476294913588985,0.42438362223551507,0.4200607025794343,-0.056763696652785856,-0.1919913282723882,0.908486075029848,0.10770186411274191,-0.739917066158289,-0.2089072510153816,0.0040282639124161745,0.34965843449680045,-0.46222557207924325,0.5964320835948034,-0.41606910291491517,0.6713173721115958,0.5831219907600395,-0.8815249838611827,-0.8512788292469212,0.2066942255904193,-0.8037544805606168,-0.43656286089322605,0.8621036549865303,0.01991451295280142,0.5615598016042187,0.8620623687385512,0.008039034328690022,0.5202435486852132,0.5273334599213791,0.12668142735921073,0.19925549409302223,-0.26794551696968516,0.2464450964461,0.39372058717660924,0.642318515188091,-0.7626626007280682,0.5284032257667658,0.14131926803934097,0.6709080928634175,0.05869995488240256,0.7003361688518422,0.3890753613314358,-0.7739570516169758,0.009655106784989879,0.32993094057476335,-0.2440434792769781,0.4735421417516743,-0.9000924147197606,0.17474773766403506,-0.7515516167177617,0.23499156460930523,-0.6618018769852791,-0.9851367792983116,-0.5095651594363093,0.4008509343588738,-0.7238395181381394,0.2829053861446709,-0.6799229985562673,-0.15565187820145954,-0.7761759628321481,-0.19010786564141266,-0.35813385794687647,-0.5852781783876072,0.3170400530197311,0.6030864825515517,0.9280574117985099,-0.866877694533612,-0.4967059932047201,-0.1339606694110445,-0.0585620374789517,0.1385880802846721,0.858789295013699,0.53293664121728,0.07465285293654977,0.8559197193890878,-0.03307190404282801,0.6967684377041584,0.09148486296958847,-0.7389669880242657,0.855191554587778,0.4975385824344299,0.3282464944233268,0.474043931301427,0.18322596355771664,-0.8311982455526863,-0.6935810380107741,-0.9135709141168623,-0.5216549788315576,0.428121026194553,-0.5580872814282977,-0.7767538838610372,-0.5587000917089029,-0.36420670765908547,-0.3202802986934078,-0.6815972010403634,0.0946057082047952,-0.02148532650636101,-0.6735203950307762,0.7340252321789061,-0.749959921625836,0.8687766239016002,0.6229939859944854,-0.9613054968691164,-0.8516652106429717,0.5560107744944593,0.5698407806515586,0.8233343689860122,0.9657183173275676,0.4240443197062142,-0.7150054326585724,-0.1479770045077425,0.3444866958745584,-0.16222436555375344,0.5955805622444316,-0.5258322144572506,-0.45302496611397036,-0.986725720564839,0.9297942060313591,0.63529295370747,-0.1956112902696519,-0.06613462055334872,-0.17259830269940146,0.8125032981958797,-0.6493902411752734,0.22397747119519934,-0.7331348958294646,1.0091108281769419,-0.4881096559999641,-0.8057894742980675,-0.3176545610109338,-0.07548913322628134,-0.40988425851733956,0.07954416571878938,0.6795134439471038,-0.0787315300858564,0.6395466232955243,0.9185423447069034,0.784541916161702,-0.7252800277980336,-0.44680872113519554,-0.011221417731375865,0.8756324531065791,-0.8055194901235476,-0.338340394630564,-0.6755310799190506,-0.034099133385029456,0.5374337278471322,-0.9010385125485396,0.43850406588199176,-0.4941424428774185,-0.9205037666696334,-0.10176559952341743,0.5254739728081372,-0.577447084783085,0.7195766095164375,0.6295912253092479,0.05905686427286716,-0.9871298906826149,0.10084150251716165,-0.8505834421154248,0.5195563699484095,0.7967238590468353,-0.11926718775385639,-0.38672121961137196,-0.5331289865494793,0.7424873186975216,-0.06399859622126144,0.8010285308569911,0.2854125628620755,-0.31837870061760676,-0.615314075220385,0.22160094827597637,0.27533315345329823,0.7222298971643648,-0.37303040783383123,-0.6162317773680221,0.08053130420647528,0.4756116816759065,-0.8363411440059976,0.1783244861627606,-0.8780812269436862,-0.47745043824008626,0.1338194882865112,0.6968479072383407,0.6362541666399133,-0.26828450627324874,0.011523941215077781,0.9283132621032906,-0.5805376436350171],[-0.43965015351093717,0.37679782351796787,-0.40713780920020115,-0.5771726512223653,0.8715033983316892,-0.4970430246969891,0.5414427862245473,0.8825604128822208,-0.7415721975799147,-0.21845167628726217,-0.40585909061903935,-0.6473942362262098,-0.5533776443206774,0.3937147307330311,0.7052695466750619,0.448091120823014,0.7392428644127705,0.33648523608963465,0.06158198467843346,0.7467762410153066,-0.8182795350862623,0.0811676689718354,-0.012461302807896086,-0.6792212912896017,0.9521003331396459,0.2368678710055234,1.0235379095833927,-0.8769896017930211,-0.9048050574707108,0.36966973111048373,-0.7567993896126385,0.6251073020507262,0.3014400046620094,-0.5097480052422679,0.8208563476945457,0.08560107592073544,-0.338806925791574,0.3587014578229754,-0.6220499555737252,-0.29099621232670364,0.26929127495074684,0.6415380481762648,0.9526007709942143,-0.9429512539732614,-0.45440452741540494,0.8117509335064024,0.9669806691449341,-0.43948771561286515,-0.5210675894574658,0.23111521245166908,-0.8330100338621961,0.2532553842511157,-0.7503954035763672,0.13064218480391065,-0.14599310201496565,0.9991866762166041,-0.5619039052329596,0.3621086970908953,-0.1119235659053546,-0.6072233949112346,0.27576345917807177,0.9784141171037806,0.2314746428193859,0.31629707950757413,0.3182587737442647,0.09983260446925546,0.5059623259802152,-0.939100883744151,-0.21440947979546782,0.6190293184163966,-0.5190123956368438,-0.36281816479658957,-0.8924262369720667,-0.8019035118915733,-0.7969317363335563,-0.613541286534386,0.6218273544265972,0.09362168636201562,-0.11465132391369239,0.7655678907880518,-0.28159035046991926,0.610580248630525,-0.4982154564841227,-0.9000737666669688,-0.8124230448878726,0.21835355375032553,0.7950424426625227,-0.9618995568099158,0.2479004517859889,-0.12377989398827363,-0.3051983811675329,-0.9454155317358578,0.9775626509975069,-0.6196998638509831,0.4841720992217948,-0.26601234134045004,0.7443420421519652,0.17365351857417097,-0.7249762111455609,-0.9425136781257976,-0.46708124439903015,0.2239466813462734,0.2870850248418437,-0.8762202877740092,-0.6007394699128353,0.4797638047151976,0.13124447558504512,-0.656588002218408,0.9934093943223011,0.16461196837843045,-0.07472611733428083,0.08947678423081616,-0.8977662726406057,0.18422445800323284,0.45002119349630915,0.9973815617561869,-0.025151153185362082,0.45957316568522344,-0.19885773776835522,-0.5818032097766744,0.9199088117951498,-0.08167275337964269,-0.1399457518284403,0.760876774362027,-0.38262565169227064,0.894203563159921,0.3524551084558613,0.8229947288483738,0.20281419858949673,-0.7872435993943214,0.27607731696205595,-0.5836682215014564,-0.844825792797588,0.6910842505017339,0.3083077473166406,-0.1008302086208943,-0.3178873544451425,-0.6477741127278999,0.8996697042240192,0.7233043564211394,-0.8893254133756742,0.6708271092981022,0.5311405563415645,-0.16463646542834456,-0.5716115268332363,-0.013292287017798924,-0.6630909664737346,0.2794745904403517,0.23016456803057683,0.41275331013029887,0.2248927454707699,-0.717939122350364,0.8755060813624302,0.9124572101144103,-0.39161203450370496,0.8004653190620121,0.20832016257658384,-0.41311430327485066,-0.851075002390789,-0.8930043756301134,0.938649570243216,0.7515091536176831,0.201283617899223,-0.3469911948535093,-0.30658943231597596,0.5901305266784977,0.6371815214273518,-0.575328157192548,1.0348297565365403,-0.2698997196509945,-0.7377073838982542,-0.17665843135418074,-0.7020922185006154,0.6388970549619372,-0.5153236936396736,0.16427922984795715,-0.8932094156094601,0.16742730799191438,0.8148075593240703,0.48070054926019323,0.7618192535026835,-0.8580352156324942,-0.3592817381463567,-0.8098976730795083,0.30667828730117735,0.47855289387466876,0.1969250453977943,-0.5112143982276258,0.05976919400268741,1.0201636020904468,0.9423900334433185,0.8231519441007081,-0.041193530316598795,-0.05053570728800597,-0.21795840226495342,-0.6952566500253142,-0.7179239417905254,0.6987860944635905,0.7399679650399611,-0.44371827006309855,0.38059507261796693,0.9660597845002643,0.7538155654536078,1.0367590512464613,0.5012521626510482,0.14557538174113335,-0.2597429967009535,-0.6600917344007573,-0.6624733962622328,-0.0749029606403807,-0.207828145514081,-0.5115745547878087,0.35845590392858945,0.723839848310846,0.3215066450446349,-0.09611489934280726,0.27225778534982525,-0.7243876127588711,0.48336150980087456,-0.8542613097617413,0.9534605128684392,-0.16319524684556214,0.3691631289219124,-0.43461147062509004,0.0868018692603519,0.7622415910665679,0.9884620373982299,-0.7752391471650453,-0.6530013028923681,-0.19720313030805864,-0.033400771071172106,-0.8022667871308763,0.7997676387101644,0.8793205188458338,-0.45665921461757253,0.3716265598371156,0.45622953087464985,0.10251490208512226,-0.7211020425247695,0.883976070996723,0.387876259059031,0.8809079860122185,-0.5963048290105757,0.6191832746439893,-0.49475076514159033,0.39304741774172525,0.9531231045361113,-0.009621965098568823,-0.8409360904850608,-0.4984257555556506,-0.9414856424572579,-0.4892227895991258,-0.727716174267662,0.6862994150120784,0.0837270587904707,-0.057710291770570625,-0.42043273503038414,-0.42228084165621926,0.12381865339723973,0.10406065087331681,0.7488706018336124,-0.1217671808791527,0.8511213249289465,0.9221291531404189,0.5002103631165719,-0.6801831826906743,0.9832254889982446,0.17319865903753395,0.5902116719636548,0.2504733071106207,-0.6835490183519096,0.7448959475165108,-0.12309167205835451,-0.29415400661977764,-0.7440809158937566,-0.15749859257789448,0.6995752263258291,0.5427707346585239,-0.6938008132405424,0.9555695885858173,-0.36362453913291454,-0.32639356273921694,1.0323371734927373,-0.38249205990309354,0.7806439879693198,0.688975603357174,0.8979596486166741,-0.8132455000915745,0.2260055753696982,0.9724936907475193,0.5256832506312108,0.5685118735406651,0.48037468004904876,0.44401205146247874,0.4529333640622333,0.0906052449084774,-0.7936616731445251,-0.7041560730299774,-0.2101506533496435,0.23992529025591297,-0.5654260494291123,-0.8547473531545878,-0.7414246362652744,0.5542582756843197,-0.039719063971869764,0.09439643245672229,-0.21579412928014374,-0.2483988691983353,-0.017040706053740858,-0.4166760167293555,-0.3778649086765246,-0.10282821391610723,-0.34973730495886796,0.6196825257510353,-0.08060321085023833,-0.25579469084930134,-0.3203555769862531,0.4070398475368731,0.17513076115425616,0.6182284363329916,-0.36706937482716734,0.4970494368877472,1.0090539810619357,-0.12830243694073867,0.3942256081313198,-0.3811902010544761,0.09655857743065854,0.812994704625673,0.430734389128344,-0.7577075273010511,0.48529005445618406,-0.7693464692598622,0.24019475178434382,0.9790230707697458,0.2810196138505133,-0.03288982162173285,0.5003555620988092,-0.511666811840215,0.32038095079622403,-0.20530382640498845,-0.7205129714154577,-0.5150136351316718,-0.2870021374155509,0.761023091901226,-0.7151878265536804,-0.14693437426513742,0.8820621035197909,-0.8276589069516391,-0.3861298327023651,0.05036337190974521,0.8876842345892821,-0.5848150829624651,-0.8299541712303803,0.6584448889540809,-0.039232502652936825,-0.38598234948272897,0.40069934490164083,-0.2295191013790469,-0.782844315908223,0.0525429572618513,0.433965140170506,-0.633107854090103,1.0198335543561385,0.8762832320326868,0.43762752073866734,-0.5370993467631736,-0.1800792697477974,0.3932588288952634,-0.10016301854446143,-0.3129282517354548,-0.2811721236124749,-0.3587246440819213,0.3023022737864182,-0.7915991187703572,0.1291869744222516,-0.5995069102353685,0.510294473569544,1.0361869084003936,-0.39265473686061314,-0.175405611587164,-0.6388924889199503,0.3070651896377567,-0.747295372757085,-0.03490325428755107,-0.41101589951482653,-0.2507735162009393,-0.13299122776649483,-0.6786627964945451,0.8723455276788915,-0.06448091803306012,0.8283196072692091,-0.8291552324046864,-0.7908963706457633,-0.152288429358731,-0.2737529088864763,-0.7483140576726057,0.26555143490680994,-0.29715774830323716,-0.4300160457878949,0.42102025206152005,0.04295499068390619,0.7988114633597821,-0.21479534699295755,-0.6438856430279315,0.6487023103934625,0.4408862403156241,1.0148952863616507,-0.7895697389263261,-0.3815891257119066,-0.44206657242009173,-0.8771160547215002,0.13813618983144108,-0.39792742251210367,-0.7855635836081243,0.17834314314811878,0.6848601983957912,0.9263991498820201,0.22933026407854853,0.2972252110086173,0.5733778255109967,-0.6776035044784807,1.0230396078077146,-0.2412815049455063,-0.3929109671706351,-0.5453131894992167,0.410046315001061,-0.3540580622589126,0.8818401245603517,-0.8279282731626547,0.2685276974338681,-0.07160162569454707,0.4730450943903861,0.3787947711063393,0.9329370996718589,-0.9571626554476096,0.7312858707784645,0.09625372992794054,-0.062202905229479154,-0.6448248271755429,-0.6887675493497594,-0.8911933874224617,0.7133304020896114,0.23538891375445561,0.09049906774427693,1.0310931923151119,-0.15013332907033336,-0.3931839149015939,-0.014891143830214422,-0.33861550369249666,-0.33458901693729587,-0.9033567007350706,-0.5048267752201206,0.715460039305843,0.396492214920465,0.6597391685219592,-0.013637856654274609,-0.8006977532600675,0.13458743005568558,0.9385648447597082,0.269248085160778,-0.6287134673689964,-0.5068908713841388,0.7843508236656198,0.31869203846746014,-0.7872224545948996,1.0100500227368556,-0.31776008282233015,0.6157751645575278,0.16835404924383388,0.9421200051381919,0.5881141320306135,0.06308951401102927,-0.46987203989994586,-0.2182782314921325,-0.9220918069847761,-0.11309620311667778,-0.20877095418441657,-0.10043560044273034,-0.39639548017805604,0.9935768691742816,0.7444879970270685,-0.9171543450757114,-0.6140155089569742,-0.20524464095289485,1.0132064033774197,0.7420011528388801,0.1692927062337201,0.9563891938198079,-0.5464507167076049,0.5858590651881026,-0.6234172313080573,-0.875939206979739,0.5391405873919188,-0.2841752885525815,0.42021425821206093,-0.8209061823499598,0.9769429061957036,0.833034960939587,-0.6847424002150748,0.32719073351602573,0.6236796415659357,0.7079673379901518,0.07449440611043323,-0.00887161610610023,-0.5084458958926613,-0.9383842396103013,-0.14977986040570837,0.8009574132073892,0.17171241307159785,-0.39478473759578536,-0.6701448616788362,0.3589602726355818,-0.1896367308573924,0.1321318253311558,0.2705155146677207,0.9601138460257221,0.6141047338076171,-0.9059180102497969,0.7955004342185065,0.24886993949424493,-0.18215711651060265,0.2541899589129067,0.4276821784092606,-0.8230814894090531,0.6266680249741888,0.45828438081386214,0.8344483813112739,-0.8754990261184051,0.850620175250263,0.9812108718689633,0.2835972638748395,0.9471335776856377,-0.2780709711706102,-0.3792890337643624,-0.5953386356120259,0.06047307899468957,-0.7749754642317236,0.5509581345431386,0.6735972414014851,-0.8146000898487754,-0.006131338437237054,0.14192807074160987,0.029325274345023564,-0.20673247555051025,-0.023796802457830342,-0.5767963551849608,-0.2969148903921046,-0.6562125206279876,0.21092807477235806,-0.49632165002188655,0.7872164304582357,0.8306690646840661,0.35625818910369134,0.614814303510789,-0.2859526169563713,0.4141630558881859,0.9033228419801539,0.9596286403889965,-0.024335154495746254,0.46290464624655403,0.27588317142385455,0.6579419326974928,0.6605930795940572,-0.8084278936741346,-0.24972770101477615,-0.7120773987174357,-0.6723396876984177,-0.32390737638470224,-0.5579135766169071,-0.15313849484257827,0.9696529424305461,-0.16115533383413452,-0.393673080361272,0.8869801373340268,-0.546912635758224,-0.6561213126989287],[0.6033839687852339,0.06616355235611651,-0.6035073486970267,-0.9356243744887934,0.23983499666828123,0.895855578297518,0.7554385170956618,-0.777757334506551,-0.7749795628246491,0.2241537223141047,-0.4396893918247641,0.8128026682986033,-0.5327887886933728,-0.002291468684894069,0.8516542022176875,-0.8745116039661917,0.18867334427473006,-0.33217332129488175,0.2336338901218532,-0.3429017408038607,0.44097511501915154,-0.6819603411387044,-0.07982918239747092,0.1588673666170014,0.3299354412587433,-0.6684323971582565,-0.748679668664585,-0.3796905243976888,-0.1436137543196857,0.21621655678078155,-0.7759284589323648,-0.40409921680495386,0.6713156142440201,-0.3320715322078204,0.37981735044718035,0.8964229430659542,0.24032142313971183,0.12137028143155505,-0.29755085709104584,0.5598592843201421,-0.555250973889246,-0.9779448605934665,-0.8602329691478631,0.46403810923681094,-0.12537860596869152,-0.060804625862307775,-0.5533896867568354,0.49761563279766874,0.8577217251708725,0.6222462320255443,-0.03699146856675686,0.8405434034152546,-0.6604135224315157,-0.9265141545595308,-0.14364849191527107,0.8970739438187266,0.23606711638722977,-0.6295994498397913,-0.1288985939165569,0.24488666471271203,-0.2623522922793323,0.10338891096563269,0.1698412385888317,0.7407906599434937,-0.7233241975019776,0.9636838067844209,0.32979519651725486,0.7037187100651975,0.30009326278208265,-0.661517243224221,0.29533467291719867,-0.04178638499459528,0.06666888836710619,0.6565466818900926,-0.6292696847556905,0.32081966295576786,-0.5515670114665573,0.6858746915303754,-0.6713012605571888,0.9547305176907123,0.9939575307462774,-0.5254580041588887,0.37114703629671436,-0.8321068647940842,0.6613984757754852,0.5454814111877845,-0.6698075688988873,0.09063360853901525,0.27322135349536747,-0.6994284471533779,0.4487023102137346,-0.9475334166433833,-0.8996357705848016,0.8214639242654813,-0.7579366632070234,0.5792001453430863,0.7778328565257114,0.48189397420695335,-0.6022064271927576,0.43006771428494117,0.6895724824097331,0.7833899784304724,-0.19759391798877263,-0.005452686169994807,-0.827497031170126,-0.7545722462285945,0.8304487516809204,0.1216426210930844,-0.12756350424640334,0.17868803677969913,0.6457621760357083,0.8307679847583737,-0.7495475276675666,-0.9367425635525175,-0.8332216191365904,-0.44674029000437654,-0.143982937432413,-0.7288518652986286,0.9579789519785008,0.7204664375081659,-0.45195207066214615,-0.6349223705102999,0.3227474420925519,0.29180006924333196,0.057842270422175726,-0.17516663828971546,0.580586446947404,0.09394815091125791,0.290064363828262,0.042624835219934334,-0.8304756691797088,-0.09115753467394082,0.18708655451719963,0.8691250919899633,-0.2479079831834565,-0.022129807824734286,-0.006034431391944805,-0.12657347310470746,0.18975606075567034,-0.004851669340589564,-0.6047929667736918,-0.7746217564827093,0.19268487799315018,0.25709376036042875,-0.17787514619707834,0.7680667773899185,0.7410216321076418,0.07604972977699218,-0.473433557836731,0.06790726713972765,-0.9356574142260681,-0.01921600094805153,-0.7904050126911591,-0.5957418116771677,-0.5667831654499735,-0.5384007118784474,-0.29909895890869165,-0.07665678739726813,-0.27481752659852826,-0.45574242440630747,-0.46749542732011745,-0.27005749927085637,0.5877038381491584,-0.09538295603084115,-0.4035686218544581,0.6585484162489992,0.7770799174340979,-0.7676171273548585,0.04461019680341419,-0.47103493429813886,-0.3737987012742251,-0.103277006086458,0.16500873148614262,0.48917719962961514,0.1539045224277622,-0.48627181911638284,-0.8677284604248153,0.9955282379538997,0.05204404289651554,0.4262631390982077,0.9619794549959254,-0.9435092220495213,0.47381039955166027,0.7294622542198722,0.8352239119729704,-0.5436105047083459,-0.556741196585467,-0.24349549613311533,0.03366830391732264,-0.2053227826955266,-0.19317168058351988,-0.5539764219403919,-0.7531048986099166,0.0864204420998854,-0.2749265781262294,0.19160526830124344,0.29027927697990336,0.5214381003921598,-0.28105063199293756,-0.7432640097977058,0.8660197065558383,0.4294529617095811,0.385504292013016,-0.9183299739869851,-0.2838470342787241,0.048426307760994075,0.7983665720362981,0.027001423311399254,-0.44418427553575873,-0.41670761877974866,-0.0027066390079067536,-0.3776478780747062,0.18384303779105138,0.6597449937898592,-0.12624131843206793,0.6023655114291264,0.2841797519564727,0.17397830246381257,0.36956352154746186,-0.7960614787553123,-0.741631923579874,0.5829785266165054,-0.03014045208934964,0.9723985678522606,-0.9977670348878612,0.8150465267558045,0.5279185631544446,0.5962128855027697,0.703770302539405,0.2906316072096561,0.2492286438899302,0.9232264664763223,0.5491018241574894,0.4346288958969645,0.9105276111074219,0.155302552691515,0.253352591878401,0.19317983518350113,-0.06699587168954436,0.20472867014836998,-0.7943596339769549,0.5707695437209398,-0.4062601926592772,-0.019909843785550545,-0.27125955092949683,-0.2939961194860662,0.18044241284086887,0.534748862155758,0.7367096061600801,0.3485120154389087,0.8137525411549096,0.7160709790004044,-0.4733501956693368,-0.5070316120781473,0.7381153192668922,-0.23925509666483785,0.40624497280449723,0.9440370381847204,0.357116193210172,-0.8170410514328902,-0.1825732864140107,-0.11731046260321717,-0.272112063073675,0.9859313683540607,-0.6472552449658054,-0.3415892794988878,0.04105519101346988,-0.16995944002434657,-0.22084107444645906,-0.557481231487886,0.37247662107918267,0.846627087924421,-0.6826579388044999,0.8352465864709605,-0.38718519540199925,0.8568222833696014,0.5770296267969833,-0.29469172976801866,-0.9456786125585038,0.7256561133575734,-0.771187812022912,0.495409524726555,-0.2495135477293397,0.30908151611,-0.8457838118116171,-0.07336120902177905,-0.26999106277654233,0.8670904081508114,0.07987151322388798,-0.5647947488341114,0.5280496661513849,0.5003908102192881,-0.847179849261306,0.19572004748523988,0.8873529730019996,0.4252666987746961,0.3725785092379027,0.8602980356161459,0.6070350275087051,0.1610806653194446,-0.11442643519941606,0.17733684020703672,0.4755335610213044,-0.3023216559900275,0.49342570590027846,-0.21748248608223372,0.49929334664822844,0.7973674560621663,-0.16502926841117244,-0.12029662836021542,0.9594637510356674,-0.7252172350743699,-0.8249904047130144,-0.5258389527774168,0.7899128639978841,0.048652154417542434,-0.5172265792000147,-0.59201190752511,-0.8256206841545279,0.6570136518264729,0.7749401825892982,-0.829177685609603,0.9290789336892075,0.670774573686345,0.34025533088577425,-0.9164197170941452,0.43634556454279777,-0.7051623906642263,-0.6501205429545409,-0.413117617839892,-0.17248662092519756,-0.7481390143815283,0.8044804401566392,-0.8880476758411013,0.8143016237558738,-0.3259589110300257,0.6490416670339852,-0.8865079947020981,0.38208039890944023,0.40343269345017996,0.5107928924714167,-0.15722347795897676,-0.8088225390884858,0.5018854588454131,-0.7654406007948416,0.6791558679042758,0.6501812977337228,-0.9285554949148526,-0.8931002647720995,-0.2679374004421221,0.7236629330372341,0.4336069504176849,0.33705090645700536,0.4633041958618863,0.7398361531188404,-0.6644024627190289,0.348962520294747,-0.4598451185704206,0.06672672509639745,-0.0696179771475823,0.1613666215728874,0.31632507742744853,-0.07194552994552628,0.4385456521820732,0.1431819793119141,0.9540194404080328,0.6923102337571719,-0.11037380606533487,0.5094064814652076,0.4306925434672903,-0.581415674927263,0.44010177286232915,-0.49565292193528626,0.8623025078360249,-0.4086651351162557,-0.4577605624596596,-0.23155055095535704,0.9059326779273402,-0.2426761595808378,0.7251659351419552,0.23604615052674394,0.21612329982559889,-0.7055425149271073,-0.6618376030804881,0.5273826024640275,-0.9898832386392522,0.054016964564874134,-0.5380930445840523,0.9555777476875652,0.7886339938492145,0.25731320165647564,0.7582344007671855,-0.08036654916497124,-0.003609902793160791,0.5163107176046474,0.38864176752813395,0.5011221626342418,0.7268885458066171,-0.33222550909026705,0.12770813126085415,0.6427174738615103,0.4552403433328852,-0.10905027247950425,-0.2682525757722515,-0.10099813850626604,0.5037383392836912,-0.09208437541228152,-0.06078130135742563,0.6773333784875814,-0.5852081466061355,-0.11669108496686281,-0.545267515118097,0.3558320061669505,-0.7591633702097382,0.37369544795610266,-0.8988314722925654,0.501023676156933,-0.3695475890591754,0.6413028655265817,0.5391979494460575,-0.3084982906333377,0.6695147479248796,-0.6254194752477111,0.9423429169966335,-0.7857014751321556,0.642831314577122,-0.3362474941344486,-0.01953360189327048,0.39533472397185515,-0.9285934292853314,0.15260635417437704,0.29289138106559875,-0.8691374447965801,-0.08760552983239533,0.756622842420675,-0.690880041400757,0.39654363349747507,0.1830290603282578,0.4789717239029628,-0.5632808202253142,0.24058817022297907,0.4910323497286795,0.48744149830703637,-0.8873654492952019,0.25447275905848216,0.3113289266267067,-0.9880262438345551,-0.13595951109550758,-0.6171442894655377,0.6766416113992849,-0.12414541514883794,-0.2711588274003793,0.2955761623916287,-0.6136757564901877,-0.14339092026230613,0.17218495127754696,-0.565673814561824,0.7348639470384364,-0.5774696479054984,-0.7940245427894711,-0.007655504682423617,0.04283784533566491,0.9008400475599969,-0.7258921558816052,-0.4353640971868699,0.8532236128741785,0.159081470965117,0.5171718182575793,0.2532790940203884,-0.6794358104637438,0.21576298958844636,-0.0062797817568486895,0.4335296699247093,-0.7866883597132467,0.38126852896478247,0.8742433141321733,-0.13007501335323857,0.7886694937817672,0.7378853749977404,0.2886254461929708,0.6670658425194259,0.1788199449275644,0.47774565429447186,-0.6435262803192909,0.3844709496465765,0.09262515588000286,-0.647489231077212,-0.7072577309599805,-0.14281271254708144,-0.08108799285170507,-0.49516414717766605,-0.1950756013120147,-0.12309777522495736,0.8048093078101504,-0.10672712330784179,0.8582623354908349,0.0825322579412373,-0.928674443241869,0.6038871983317359,-0.6242320226154963,-0.27175070810686774,0.7755719172318641,-0.9995167286012102,-0.15389780874982428,-0.7558780442099294,0.024044085760188714,0.32883966712906065,0.256476368293561,-0.3371127449000991,0.38015735451287924,0.80965589835645,0.14289134233397138,0.7041955499014515,0.6835281319649432,-0.9611847560938706,-0.5492746217237299,0.5582723706899729,0.33298361698412193,-0.38872058474468896,0.1945425672666471,-0.8155426977873196,-0.7549207669294485,-0.5618682176767162,0.5645491199007568,0.6932580125273411,0.6686310802592771,-0.9340831600048997,-0.8901753252552486,0.1823465375446659,0.3168221567076658,-0.4499819947278979,-0.33929348643232904,0.8557558639655661,0.049698708871995706,-0.1336972074371673,-0.4618277745677436,0.5837898546076198,-0.8100583954788124,-0.16379094987441667,0.6166005087987135,-0.11713288393523977,0.551860264645753,-0.22843502138403526,-0.40645165886377776,0.775835760632917,0.15478002472733,0.31107165469932296,0.41800693161772473,0.5372452928488683,-0.860003800394502,-0.14756012790590012,0.7775640174273618,-0.6936180816060497,-0.408094452183115,-0.9695442487305778,-0.7508517295542404,-0.19686562436870958,0.28361466153681036,-0.3037438744468347,-0.6101374522004134,0.3011608244188221,0.8510715313209857,0.3963823835132515,-0.35171287192126177,0.20336168286156642,-0.5571729667888351,0.41403134568546884,-0.15753575578401524,0.04647126189093301,-0.2198751452182962,-0.6689693824165633,0.8945245692340641,0.3826264510427563,-0.3754235989137843,-0.49255919588572883,0.2671044878706343],[0.555796484426532,-0.6066914048707202,0.711346565435508,-0.33611029670055037,0.5070950160848195,1.098945789970616,-0.39256817634282704,0.774248443980559,1.01971493482286,0.051426328075357186,0.6591526204263645,-0.3054633407597084,0.5822760158001263,1.1384037438499912,1.0390373013197627,-0.6540301596039461,-0.6632894079646151,1.0331705204054107,-0.7243601621726121,0.7568584663602094,0.2865664052031942,0.3252423165380579,-0.648594526408127,-0.337193233874334,0.2960658206758672,-0.36201216943097136,0.6430846222931303,0.5571421468079496,0.33659432862309613,0.8694816412245561,0.7979819668914123,0.7970242946881707,-0.00854927342534726,0.972219634417856,-0.5318827650728912,1.1648606246917215,-0.4434947388294225,0.0661150007459408,0.5003074581300743,-0.06189933097024179,0.5412650258780637,-0.782835614455958,-0.8205120584864083,-0.8902599928074284,-0.5170080368168188,0.8841261282228319,-0.6599767840448478,-0.18642997526505342,0.6964592659532394,0.7610277409213082,-0.7694439512502815,-0.7055304155390081,0.8511118738296322,-0.4503535999188941,-0.7694327187315757,0.12020554441760535,0.13945469651743045,0.9446309158613362,-0.5347347120780643,-0.4204847153125675,0.2892678626857989,-0.4293850832163577,0.07206213106202258,1.093927366747946,0.23590846293504533,-0.392867941756797,1.1902887145417163,0.4849355683591041,0.9107614427570871,0.47733255906635186,0.5984952193769979,-0.0034578290103415314,0.4368798262332205,1.1626676441776813,-0.3912440483956884,-0.16646755702383836,-0.3903092634894296,-0.44993555729191514,-0.5899639797250134,0.07675665403024917,0.5667400192201589,0.6218242034141055,-0.31679286685201064,-0.16193941240883655,0.7955796542759883,0.8413302316326846,0.9537545366198162,0.33080141694494625,0.026319027664582356,-0.4421195351531137,0.8795493206401931,1.3273479229198517,-0.42800917345541944,0.6290904838487268,-0.654456647461209,-0.5323271008300443,0.19526888533923067,0.5974813472725342,-0.6779118458627957,0.2307419718912333,-0.09863960369845563,-0.17318294705640677,-0.3147489239188256,-0.3473104806263131,-1.069503070159673,0.36909695392833364,1.4606460532299046,0.6897682497327052,-0.002897005641763673,-1.6698317252891235,-1.555088583518508,-0.5706774817526405,-1.4762202627496375,-0.06251733878746127,1.226188006748873,0.6297112429593161,0.36377339337754,0.7755161520373632,0.553530656643823,1.1266281444029054,0.08570827131666132,0.7371582736237805,0.09249062128442381,-0.642569707356639,-0.3295218383226385,-0.17327008711991243,-0.5145766042994315,0.49675464680764814,0.6532603640806045,0.7311623392708471,-0.19190975894652973,0.6038111783690073,0.5298603512984182,-1.0930626106680745,-1.274457479081957,-0.2799099612459327,0.7489538129344211,-1.034283038253917,-0.5263165836193238,0.9547038274667946,0.7236018662010273,-0.35373322594028733,0.992205681344837,-0.24777984718357146,-0.6058068309900162,-0.5734852989628141,-0.806881064500562,0.13979577142310168,0.1506319302821593,-0.9052915820889783,0.3224881900226344,-0.31387587084867574,0.5196411940744663,0.4355121575709737,-0.6835403517035964,-0.4634015537537135,-0.06834385274668457,-1.7693553693146762,-1.8350795948193195,1.1118962609868526,0.763124309881066,-0.1288826768594069,-0.09163264376622451,0.1455728284559317,0.33336252306127717,1.4821915952167177,-0.8137054816939563,0.56040924520062,-0.3767724332733259,-0.27049263661498985,0.5308956195853561,-1.1068794029839677,-0.7065376732808938,-1.3198891873872207,0.0699000048807005,1.0621730708434016,0.9051428222643458,0.03689062856772232,0.4500008446573186,0.12443091013767608,-0.3480956021873038,-1.6197600073029463,-0.6391456899688734,-0.8090915147660107,0.5160745189825361,-0.25473695105976524,0.9341363822271345,0.800236729398632,-0.13606894422576932,0.19886346794203036,0.975267627535693,1.120523649782136,-0.6532439097773,0.3681562296296148,-0.7806291223028665,-0.2518484764851275,-1.6979162718691438,0.03500761436932367,-0.6595310606857668,1.2185870441749795,0.5943320445061059,0.826952439834069,0.44658940311919243,0.02864742201148755,-0.3618082415406677,-0.7826303788015442,0.4759443344633711,-1.3483999985151625,0.15048463196324446,0.25840210601905755,0.44200631055810674,0.5308466972947384,-0.5645090527617014,0.6876790797177813,-0.8439285541365421,0.19112947316505477,0.4782052949180048,-0.7698743550764776,-0.2391582285238972,-0.24417636252138955,0.3615153245230952,-0.2838846864851784,1.0283462129926788,0.17916532854966505,-0.18494869769468303,1.3619314664688968,-1.0804832163312272,-0.5757078926903909,-1.169310319665784,-1.3557988496446984,-0.7071051683984004,0.6642576450885737,-0.8008861624352597,1.6769955951342548,1.3810943233795159,-0.5505391410783523,-0.4352365206561514,0.739749656498629,0.01563128960029985,-0.09769611764057587,0.18386478899455252,0.3050540125344623,-0.39072218274912807,-0.7644490288808565,-1.961848594584311,-1.6083960540937423,0.010476947619740848,1.098423993731806,1.1216933111370073,-0.3679412866647766,0.11934886956291796,-0.5975954739914573,1.2520441411841128,-0.5501985628651701,-1.2573871179709453,-0.8721924875658071,0.9815466325931234,0.03098620831480395,1.4334412240631893,-0.10220024130708398,-1.011421810236878,-0.03450235890666984,0.5120080347228467,1.100842305838886,0.8946981777966008,0.8478887270361648,-1.5718270635523204,-1.7647501045578384,0.05697503374886396,0.8492443636471597,0.40721874036294,0.6622527742097529,0.4243758038934843,-0.5653313752343379,0.4162220230368334,-0.6692774200656012,0.6095726651513774,-0.4990861495156412,-0.8452451253438812,0.38691743961197755,0.7221618398510126,0.5970684715234985,1.0143897366843009,0.656242542777723,0.6676687194841906,0.15324415526628463,0.5240473319503923,0.4883907502508753,-0.5988512970147182,0.27774478813274434,0.020239426283782915,-0.3652988107721028,-1.2533732522130703,-0.6020301199921164,0.5566997214761102,-0.4724404492358556,-0.29062149156396894,0.37498776140558365,0.35437124202826836,-0.38250047063667403,1.2530552045482666,0.18636054378518901,-1.0308716948837995,-0.5364694804929941,-0.1456481712312806,1.3160794407071503,0.385620924015173,0.6253157357728629,-0.10407088938475106,-0.22233047682573884,0.41189982232230193,0.6045924563018303,0.13953850961644462,-0.6905414284831352,-0.7966898294908284,0.6845722797742616,0.43417702219914717,-0.07703813693426874,-1.6063821943904857,-1.2684118619710103,-0.4451478835075319,-1.0634523755530059,-0.3113073680144622,-0.8584226651568302,0.8776723740866778,0.7003447214778188,-0.17351218588847847,-0.7912251907306341,1.0207640518587697,-0.22249910239113382,0.7235971402783612,-0.2174600125025952,0.5772442326612107,-0.26719293836985775,-0.6697567059162061,0.2032676634992405,0.27983201820019377,-0.7649352103740167,-0.4993366494216821,0.8913113778542101,-0.06483298489614603,0.9803609508454362,-1.4802850580408218,-0.6976116403102955,-1.0713909199823695,-0.3978250016314152,-1.1920737451833108,0.050018549425637514,0.9552294605733218,-0.5093820378290508,-1.023760110427228,-0.5550426881746671,0.5926893241290554,0.17053069099827392,0.4430192904120918,1.176296043631546,0.23539987075878802,0.7440208273880122,0.7745584382687718,0.5141428414229305,-0.17147508671234943,-0.835072013679005,0.9221587351031433,-0.13533951878165681,0.10815754754728746,0.5050468240570238,0.4364988023990011,-1.2835275311652052,-1.9784749318848724,-0.5868222213759301,0.07506679156830545,-0.8308454409934793,1.070356402083441,-0.37570399863673587,-0.1063626985371717,-1.5845132551496435,-0.9299062189227542,0.45560706003061924,1.2371904036699781,0.5997869979345767,-0.2554009588718754,0.755133155388558,0.05506215320267804,-0.06759405493452153,0.2509326236184282,1.0460772414585393,0.26825647537458724,1.1379812804741096,-0.07435459871496217,0.1082041717942189,-1.237906041072407,-0.6796053288439399,-0.9082588787317125,-0.40986153440407225,-0.34010047525538173,0.25949028802878515,-0.47612532150766335,0.7841780786414564,-1.6997958594650735,-1.1008217868065506,-1.0046074468130541,1.0553519928790034,1.785864159151657,0.8947378325158781,-0.16787999750591298,0.6331800851954753,-0.7209410337929999,-0.2933017904489401,0.6923050725794964,-0.4217698421860471,0.4200324170759058,0.8136602632370216,-0.30744232839272334,-0.5435389465876735,-1.8287096774575768,-1.6156796505465338,-0.19737990208748282,-0.7824499628475162,-1.4682586956630757,0.5137405456128888,0.0565713239718159,-0.8014218300695405,-1.2320981558419213,-1.0997527020111815,0.5085542373267984,0.566984184290538,0.6580284676606911,1.5306190640537136,1.2019871996321487,0.5282654633248248,-0.36359034725963363,-0.16108650390440651,1.0755533479419646,-0.3615587392424626,0.8022974955859407,1.0420606419216039,-0.37891776618963036,-0.6153930007513925,-1.4584325532631424,0.10284875564302624,-0.07675494020155357,-1.446056902635442,-0.07461738832483038,-0.5806588780751178,-0.7755944909345619,-1.0913400089723646,-1.4431973160572935,-1.7771196208554045,-1.127967410901397,-0.5841324918729909,0.621115511044709,1.3415568069270933,-0.023677737160874623,0.5906949832082617,0.31879470562727724,0.762946027789118,0.45574456019443954,1.2293003115459213,0.510973669726414,0.18870696001044945,0.6197968719467633,0.5945292127547603,-1.2087604447332783,-0.38698319312758883,0.06832706352543365,-1.2154958628629169,-0.8580356644805217,-1.1911824026703013,-0.9065224499890209,0.09175571455668984,-0.9577671795615491,-1.0563935984278148,-1.2762189342194754,0.26223878919054217,0.6389831139881228,0.9878719418167932,1.0019929899459565,-0.0020115118215797805,0.2238706867344827,-0.17426160917031033,-0.1459517769437451,1.009597910391333,-0.20283346659701523,-0.49490006540092335,0.8858687459639079,-0.9259555364199614,-0.10574167053234795,-1.3753846288419518,-0.4909448576285454,-0.31224148336113994,-1.124871469779022,-0.5424478424757383,-0.3833951581771447,0.1915404863269677,-0.03289373398277972,0.1225865674918188,-0.18978694795447665,0.12584026920784708,0.6964609167977518,-0.1543699819420048,0.5734086639813307,0.8214449939089281,1.0568718567235145,0.31960201867669824,-0.01127567821288382,0.4928784330920658,0.5477240424724461,0.040412710754501056,0.2966447420857176,0.5936386433248477,0.6491741281378578,-0.9424290855641637,0.9566882312036074,0.2921481970256717,-0.8586783548272443,0.2000063472594669,-1.0366446185291083,-0.2656147848501014,0.31093868718455053,-0.17584325734448775,-0.1858763890431999,-0.5056649612555004,1.1270962397837518,0.337478873509231,0.6359349539947567,-0.18293625203495276,-0.5313057644826791,0.29347925941545727,-0.7657084280231006,0.7745613257910007,0.2682553808687399,0.04304278499541622,0.7374876828168184,0.9851218829404167,-0.5670875670771109,-0.8285300433382372,0.6713290733124195,0.0313482324704037,0.5503269329859493,-0.0042831792677532204,0.4650151308531846,-0.2151191599693121,0.5397721793872399,-0.6809951579179625,0.16536929567782718,0.12988482097081624,-0.46377956733425707,-0.015058579499004727,0.09832056852528119,0.8600257115396572,0.250214452673432,0.6843018287934852,0.9648578207320964,0.9452340876371288,-0.06561547763463242,-0.265577764376009,-0.2309065484987566,-0.2370398944468418,-0.18375381091253093,0.9726138839767944,-0.6848027737420499,1.1570514147314697,-0.49201652776203597,-0.004579524514770034,0.36804298872914254,-0.22533057290202177,1.1663314118243422,-0.505843652958589,-0.5037416650337381,-0.06970984525551209,-0.6270898216547027,0.8977932890202815,0.39665953829511136,0.6615839797066076,-0.07824216016534068,1.1032908390536287],[-0.8668976378731866,0.03196163666350524,-0.9047883477715916,0.2549624559761038,-0.8145018291492035,-0.014141553721120243,0.545671675508049,0.4892522341525557,-0.3630961413022756,0.25888550657148995,0.30531225698350156,0.5673720413833557,-0.11856451405815026,-0.5501811300252833,-0.2279682388490535,0.34468811022038126,0.6572524966773465,-0.36187641537957554,0.9814940766466708,-0.7248476043763473,0.6501804009556101,0.8630235963378764,-0.18476043537047254,0.21013910396053948,0.8288069215421138,-0.878894231792149,-0.7634315669365789,-0.22133936881905714,0.8851608714973239,-0.6477530646221182,0.8801115172919806,-0.3293367201338378,0.46609907863851524,-0.5193653330404088,-0.23186279047300357,-0.9196284920236676,0.9615401690832436,0.3354296743692101,0.8184484171835145,0.6799887199319401,0.3749183244014901,-0.34200077589077527,-0.5333471414809156,0.55860666575666,-0.7726359430847551,-0.5905692876080486,0.5992856814905749,-0.44938303274148533,-0.8126830893763036,-0.7396184756911867,0.629471298652963,0.046938305308960294,0.9338245162911104,-0.12471478437403923,0.3666945374191061,-0.5612616488409531,0.5077894608051908,-0.43274312880282256,-0.37870575845491344,0.1261291774080414,-0.40129156424338136,-0.13463680739388947,0.8056835949408796,0.06728226922104985,0.7436175761214705,0.08965523522397294,0.4362648661599397,-0.5924949493081838,-0.29859361814177837,0.7951664584740772,-0.2168471251302377,-0.5083394466038589,0.5742578359533569,0.3996279848389063,0.5475866749887458,0.6692190166047268,-0.5227513644954614,-1.0313340403334719,0.14146847862762882,0.8378140912567464,-0.5714371260209528,-0.6346137018401377,0.24928537283770816,-0.1949077816889569,0.6318084829156823,-0.022238891961373512,0.10947012818845267,-0.33415511557557476,-0.6093018566807189,-0.09757584662406295,-0.34776496887181263,0.538926014204581,0.4499318519275104,0.7823178485194753,-0.5540522635158289,-0.7545139945488534,-0.701011830837894,-0.0019269930358155455,0.8104620455934761,0.6959641639397002,-0.8807591496025878,-0.7756318928847052,0.22572152192953815,-1.0149573884286758,0.5412599684745699,0.4398365338279713,1.1420116539659328,1.4198075457017727,0.27452976317968725,1.5305502037345657,1.2685424766981785,1.3529473005620922,1.3640595199895549,-0.27710938631038795,0.002624457612134859,0.21533558989853588,-0.5326827921110844,-0.9858052477052827,-0.715978709842598,-0.13017711490660727,-0.5508777064402516,0.9526808184809653,-0.7213988166948603,-0.8415632070758046,-0.38027763149591415,-0.5918657753196811,-0.27125851828694547,0.951060340248657,0.8957146164258435,1.2748462794289634,0.5845820172560781,0.9645715690299781,1.615330577253539,1.8783859737884734,1.9368336659482246,0.2855404683120837,-0.31569172980473825,0.18385822985250364,0.252995837633727,-0.8430240199287397,-1.0377024553033667,0.23166706992397162,-0.5852173941593344,0.0858429675138647,0.7687634381060952,-0.5260672371442526,0.6216741198681673,-1.3211394499774718,-1.0936630835727152,-0.22491386341921854,-0.31043204708323474,-0.4939985562929149,0.10893781178700666,-0.24041605667381366,1.312172198355426,-0.3531124387401446,0.678537245444149,1.5211088122685823,0.7000234147129961,1.5511267521238048,1.1384949630462673,-0.1309904197562946,-0.34922723748061674,-1.5987953407282502,-0.6629954035028017,-1.1538994788906787,-0.5867590573730912,-0.6744000177257857,-0.11298550534339406,-0.5923505729336072,-0.06406711956536369,0.3681983667028293,-0.7855520799439144,-0.03164322906055712,-0.09168666668470749,-0.007351444546866819,0.1635031664291828,0.45257403414373437,0.13900960309731258,0.6147568197164347,1.0634643820471414,1.6391149862010244,1.3883982876098477,1.5359769329520385,0.3299993586295039,-0.20334910908011025,-0.7244927690492433,-0.4876004803878402,-0.9369869594719533,-1.23519481796482,-0.905762839578784,0.8632111350020918,-0.7568674427748437,-0.19204267649279816,0.1953413845245611,-0.9606815277912671,-0.2942791892680384,-0.9418377333929451,0.22259434887275842,0.7777276416332981,1.0681194600371355,0.8917079163073911,-0.5931273615808645,-0.01246953128790503,1.2111136437985648,1.9560382548490391,1.6379461120243324,1.158705477587022,-0.1932834209918821,0.7287820071594818,-1.0476699055612533,0.1752827312985022,-0.2939838574918228,-0.18228149464907065,0.16921060461528634,0.7642363016369444,1.0244347160837841,-0.5568031816392102,-1.056433277085385,-1.07420261751758,-1.6724131363486494,-0.9194394663571026,0.585765822960882,-0.5122387279346051,1.1152033939130148,0.613167189958392,-0.6534144765558091,0.7149775987817671,-0.10355048313300275,0.45250273462718127,0.1866625649067583,0.42828296717391856,0.3315230570578589,-0.86068644413497,-0.6925086135952924,-0.5397876399803558,-0.5032486925081455,0.4063066750016131,-0.6130318150944696,0.11726203865211028,0.04416419680307534,0.49809812154476596,0.061343229332295406,-1.847125364379077,-1.4707228898425075,-0.10596339846845344,0.0031224280580338525,0.985002882372333,-0.2498558935379724,0.21844953595307406,0.30632639605809986,-0.7141021873915109,0.1784882910078908,0.25555476802469695,0.0736090585036441,0.5545206104604073,-1.4145356293476867,0.0008275133156766355,-0.7128779416214842,-0.020536604001342572,-0.03791162440559011,0.3795377996030387,0.18197278142085913,-0.9728802667665968,-0.680110838419342,-0.44705591290033275,0.4497913962788588,-1.4303393355827834,-0.6930461575302967,-0.3768490736912739,0.4429450072984392,0.24221875346998273,1.0104197758967879,0.7313425532638684,0.4379353734955167,-0.0813657298157301,-0.42864831710490303,0.7348364530041883,1.3097032645521458,0.6933977987716962,-0.48326770278310227,-0.9801676242708796,-0.3018150063772647,-0.44539442746567753,-0.04779785976883811,0.8642314089126701,-0.8269483349140231,0.306599909584186,0.9603231047234484,1.4833202563311536,-0.07563036434899645,0.39293429886894937,0.4532840294098265,-0.49764575690879304,0.4888131627060719,1.073289158090635,-0.457626910834742,0.935158242581151,-1.3976996913335866,-1.0315221081304062,0.3336181160364856,-0.6584816514098649,0.8045239897003041,0.2862921059907122,-0.19548926989539678,-1.062743450909163,-0.25888985370123263,0.5728973848631836,-0.23837614130936643,0.8731950004899002,0.9068179876843078,0.07885318262427014,-0.4327396329255349,0.8360685198163386,0.618591474693245,0.4200285101489649,-0.049667526243310806,0.677500488983055,-0.20254113768292206,0.3289203219184069,0.7521776072574631,0.5850496295689114,-1.3552066682926873,-0.8972111141779213,-0.28446914099763854,0.537391196129264,0.13649478256310016,-0.4526042441179197,-1.3097375331300178,-0.2986871087675149,-0.47087020280269226,0.6355526399205849,0.028218913726497204,-0.006595949551243804,-1.0050397403243012,-0.3369218869119411,-0.19254919110529856,1.2391354340505447,0.5000734872229963,0.5445687810047355,-0.7711033872586885,-0.2903216086263129,0.5009907762020821,0.7676722974174609,0.06936761119158472,0.6424642659021796,-0.6685104727127454,-0.6670554285044962,-1.3420082391895016,1.3098851913531344,1.4814670157868488,0.3259033076841408,1.2005152599384767,-0.32576328819814165,-0.991035520756381,-0.2809758782453994,0.7268486106593117,0.7026893920747671,0.5716299292198157,-0.1124094740166312,0.4951375042145792,0.5346010044714503,0.287627449789611,-0.43828891541810727,-0.3417747929011579,-0.34867400380213776,-0.5893687924283376,0.5503432592713616,0.3564933564054258,0.22953710165472516,-1.8396286254651084,-0.9973380495425811,-0.01659282777385108,0.7283446729292545,-0.21015931512127145,-0.4791103017277215,1.0725324578482995,-0.31678068397557113,-0.11285731647800815,0.8717014564479817,0.8607782828819489,-0.4891381724721871,-0.7739902643166544,-0.5657537983807039,-0.8783965603751734,-0.5424671708731993,0.05684498528825211,-0.16668737662505467,-0.7639204524087023,0.36837151531444995,0.017261372406503238,-0.25548635810928794,-0.6473696650373265,0.9872138107798725,-0.41836317907012954,-0.09991039554471284,0.5334558681772309,-0.8031481871726274,-0.5945325328821804,-0.4260154256776879,-0.7809686508412803,-0.7121911591123046,-0.043709156836161334,-1.2316240023162275,0.5275070004321409,-0.047783265243028374,0.3806916650741998,0.4671713234318411,0.998398780947179,0.5250918432474114,-1.0536658690211649,-0.7562565820051634,0.1941007231064359,-0.778190756125944,0.18342685744878212,-0.09595427524148527,0.45420431935738653,0.3237939645557921,0.4484164565233448,0.3580764970975282,-0.231201973480115,-0.009490317085332638,0.5017823439103498,0.6650173502793723,-0.268201383977703,-1.0487869170800261,-0.9214284894024601,-0.12916637833837524,-0.6917216204939127,-0.22624760754261983,-0.17000931819776727,0.4855882732963798,-0.9591362256316608,0.24935338985574182,-0.20970346415949484,-1.0694513619214345,-0.507946731268765,-0.9392730083699677,-0.7253398884598974,0.6294960715012334,1.223932474118058,0.0672981289803438,-0.07000570263036815,-0.7060380124699865,-0.551696986384887,0.42983772323888897,0.26037750850999813,-0.22915078946678816,0.11407970966954428,0.37993591867495125,-1.4001355221060399,0.26956365050251874,-0.47356473901731766,-0.5390625795952584,0.7014870520596057,-0.8617954016853276,-0.5467226297273117,-0.6241380976400575,-0.036986094911873685,-0.5521754781701838,-0.5228907924964905,0.2748780661211257,-0.3307730112832012,0.012125931247260077,0.5462141362047582,-0.07799578022857441,0.9891656519444167,-0.03914667392229253,0.5910733633285831,0.5569984929874369,0.6806534935435704,-0.17444644968198367,-0.6326284374545488,0.28462460678397594,-0.42878045058620273,0.5738515119351149,-1.033181807225447,-0.29685084305072523,0.07287986415330312,0.38779131316216037,0.7672555872883294,-0.6783274803991002,0.639188255127434,-0.44433563883080446,-0.4816637707230985,-0.11450320038871958,-0.7495770228224083,-0.24537555681943343,0.5878551865853467,-0.16037180473517226,-0.6366578599436077,0.00503278809602105,-0.6705614963587766,0.39784257429553865,-0.6126329351741882,0.35354327955592485,-0.7467814306173444,-0.4584008020749661,-0.5238976556780953,0.3248935303995156,-0.07263277292540116,0.3970079807068271,-0.046352040997705686,-0.8913464813268798,-0.035960857222190924,0.846616037116731,-0.814883138093044,-0.8196724246892594,-0.387189695088726,-0.3509640407801829,0.5326126925930595,-0.7914939426736903,-0.6827209282005012,0.4638161936859136,0.06266701716279933,-0.681918001104683,0.4550190994508999,0.9932123474831247,-0.3650115027233445,-0.7511585957570821,-0.3430537647151087,-0.40012163562777775,-0.4601310975356962,-0.004963997567631911,0.6723943186643415,0.015108642195185762,-0.36079624393622983,-0.7744316451526415,0.4924662115339461,1.06226622506242,-0.7781640350865816,-0.25261668001082066,-0.8996387979934283,0.8219396241826956,-0.18045338889624762,0.9181441155671067,-0.4239230969705398,-0.43415187930612104,0.4212378937373031,0.22707441964444264,0.3374928755692392,-0.008642341202523005,0.41313257554467214,0.5453528201802339,-0.1632584182888014,0.31283006515451667,-0.6462664638174572,-0.08572395950083896,-0.07163789795961176,-0.6790849887033646,-0.06637519852571258,-0.08229393614753318,-0.8883227997653266,-0.5104357064524636,0.3772651447790835,-0.4195895337655576,-0.5557687516541653,-0.25923053131563534,-0.2943698685806487,0.887714149565426,0.4787440623597538,-0.12796394593180213,-0.9023530609744733,1.0155982218136772,0.8560393350791554,0.33157034486440445,0.5884701318177034,0.09053969264309218,0.9644412544841993,-0.06521743975827571,-0.05641911822394905,0.4511498907924711,1.0175419666721606,-0.7953039494164683,-0.5242464807212027,0.34433158973027583],[0.11827144804540862,-0.9497552526959955,-0.576839524602026,-0.5529527750340671,-0.011723415269048873,0.7083810736907593,0.48266102242452785,-0.00953768292853538,-0.13236770655895905,0.16956152140074343,-0.849841148744123,0.6329668134447818,0.5611035774884686,-0.15805139920196945,0.47408793542723887,0.06496648022740543,-0.8264491570790446,-0.8794339757436861,0.49783052806040834,-0.10305719115445477,-0.3188492140111125,-0.4467648412576474,-0.5004822920739233,0.33181233830512463,-0.4967640421593118,0.5601409254730519,-0.3032036766689061,0.6284459337570615,0.7840588636509199,0.45998515579115434,-0.42339393907588135,-0.23124012585502554,-0.7354190438315352,-0.747210907604917,-0.8294041067416394,-0.5825958026972932,-0.35918154683468145,-0.9441692265411974,-0.7581808137950343,-0.08447234267742369,-0.6424448087005348,-0.6539589683488787,0.799197395356419,0.29987709057743994,0.8703214985345654,0.19655683827875253,-0.3746799303710493,0.14617259133904761,0.5251930791024966,0.9449254774752517,-0.06778803403921058,-0.30136967996340513,1.014189000059257,-0.15981604273117317,0.44008639442496206,-0.36524806970435447,0.6054411393982914,0.8973224953470494,1.0054106149516049,-0.057472862195564765,-0.57959205249522,-0.8036374066194042,-0.5838343951083913,0.5850262584311289,0.1051701288840313,-0.2331459430360154,0.10100490483485279,0.41539532985520206,0.446966626568818,0.49883387738895624,0.11454553334004156,-0.7495431615742182,-0.930580492478228,0.9453985366945691,1.0343578305219978,-0.2359339434100301,0.524291114999423,-0.5979948518182041,-0.2815897730584665,-0.5945314567395824,0.3599921638500637,-0.005609214861635471,-0.3384398895725477,-0.8384674732974672,0.3984048308837418,0.983799025446883,1.043482140020535,0.30884260955825915,-0.3366844862051329,-0.6423543393842185,0.8561064412192106,-0.1531816416505743,0.7836523995809808,1.0421699476501116,0.017217551586662213,-0.839939951251005,0.684733292399235,0.5804319513032351,-0.16274421534384323,-0.2829011317163402,0.5395558568845888,0.5416501594782572,-0.055817867924865025,0.7843854527113094,-0.24843419102970582,-0.7013315257928964,0.4936609172509526,-0.019805649059422278,-0.8884102477704616,-0.23344615702235413,0.033135823480413225,-0.6456693604359943,-0.9168529569170422,0.6301900811336062,-0.09280888748109914,0.3440673648859722,1.018479418885432,-0.7991828314636911,0.7893906822487234,0.643980252915504,0.6918815861685331,-0.7283261788402675,0.24756936534158155,0.15680288751416382,1.045233894393709,-0.7314671798313314,0.5347802214498122,-0.4351852858099021,-0.8776550758872876,0.09363331707766748,0.5692893249842065,0.6867834929259073,0.7742702734508901,0.9260198655789564,0.6857360954851829,0.8181607250028284,-0.7066034849568567,0.9765067500350662,0.2965916044766702,-0.9391829437964837,-0.015794772378973004,-0.9008997645588077,-0.5114165382801058,-0.6397015957176541,-0.4342397997483846,-0.8198678289981107,0.7419675493191716,0.6009928393043381,-0.06497128126446872,0.10314914706954703,0.7589051903644936,0.9715358007767189,0.28910793151551023,0.9985075174522087,-0.3795195099692027,0.5327687132807383,-0.8322531874329233,0.42966162862058743,-0.4175619837386054,0.14297572174589876,-0.2131655236637354,-0.39823531515885385,0.03667195829807268,-0.9204123648595393,-0.09168519227301487,-0.562311845052919,0.032353158440797156,-0.39251017982694764,0.4146050307745229,-0.5005561250113175,0.0031469627625479333,-0.01206573079496612,0.27639434422902254,-0.694272321767119,0.7077849624626709,-0.8328098879937079,-0.28480195671547626,0.03868249016442433,-0.05164006216596687,-0.22300530767851343,0.8601297683469625,-0.29286681720907776,-0.7948204573906804,-0.4520755417327868,0.6506664454889544,0.023929548306856386,-0.7421095330523929,0.3519118838100846,0.03138764574116276,0.05544367040782058,0.30630645593583977,0.7559275460445026,0.31194936371370835,-0.2767632879678082,-0.6140338407664754,0.8650175426255983,-0.8234647117736087,-0.7143644568961544,-0.14509230985667151,0.8287630715156817,-0.018824919370715232,0.1446900730757436,0.06827437044422954,-0.7433361542736995,-0.2661047887647077,-0.6984006649947276,-0.9025282724758665,-0.3954725044231309,-0.09739311492255642,0.357177419305725,-0.19124106399991245,-0.06033161732360429,-0.5055042774763878,0.2107275463900602,-0.02675086129682297,0.7512269408219663,-0.791402418906718,-0.03408260987089711,-0.1128352987161659,1.023394852128897,0.07577995733730966,0.425295324199654,-0.12732636819177529,0.8909119291730954,0.215659868382991,-0.5749989748273577,-0.5368462696894383,0.5704378948711261,-0.3293221415735597,-0.762924544972705,-0.6346335695659043,0.7981485618766838,0.6566507519850407,0.4738454959966483,-0.03299282754910118,0.44781009722354054,0.8510845501623948,-0.3803649354812729,0.20954323381549475,0.6570559441656986,0.5445201021570922,-0.463530942733056,0.07227005896285611,-0.7269436906971457,0.9777577832166485,-0.8799445010357164,-0.24255237796045911,-0.6074535089432185,-0.7790425853495756,0.382789573575651,0.629906801887116,1.0115825844945845,0.6307877769046972,0.16953222769139648,0.06456839881635655,-0.1400096655364045,0.20333325011120246,0.14566982486242447,-0.7588082347524697,0.35766840973595077,-0.17890015903313342,0.6803782509799043,-0.9168192110682057,0.4814184435547323,-0.10503845501437792,-0.04520945449718346,-0.6577691266729634,0.4141111680079674,-0.6541974694450199,0.29677780199356735,0.20581257548525816,-0.653752111135941,0.7254903092217315,0.9766626732788686,1.0242991558580823,0.07330549410907514,0.40319319883720367,-0.05533022624689498,-0.9003915695867176,0.0006280129244964961,0.12442119883898566,0.7587518343715567,-0.6000999335406686,-0.801665291478899,-0.8248469847918607,0.5773675878352311,-0.2684731089018554,-0.56613213157064,0.37783592102793845,-0.3923239076199345,0.5221527165095811,0.567779576829112,-0.3682735988827069,-0.5605687118334063,0.012509400779775595,-0.8560565374808415,-0.4983266508594407,0.45434298649405475,0.6509278684076992,-0.5687505659027969,0.8877722052421904,0.9412146541687205,0.058784056620144146,0.0854020282898022,0.9523922900025699,1.0669755390476348,-0.28637228204491294,-0.1807604837724678,0.6198157186218818,-0.11775304994207904,0.5612979403357525,0.24004505373037424,-0.39311666328022,-0.7908749836459744,-0.85883548535184,0.3487471448510488,0.1362261723468653,0.0610459950393514,0.22755109589403372,0.46656003412471897,0.8098584254762417,0.6014476825638561,-0.5991007991465555,-0.4251900149723949,0.7046155796013516,0.03115120593190397,0.02587825198102383,0.14825507313965633,1.0352947787911466,-0.6583328306172679,0.4693811956770447,-0.8216865749060207,-0.6316376749785676,-0.7903560515389113,-0.011535742148453107,0.46125937373784087,0.4138234802691231,-0.809781427965398,-0.7948699617496292,-0.7065147392417422,-0.2612104868437078,0.7239550503319573,0.9250363572070017,0.9230086773812505,-0.07854571961951869,0.974251774301057,0.22929214586540106,-0.494612897548523,-0.5570401232687321,0.19125740194486457,-0.5226129916943624,-0.2545636667847417,-0.25963509364868415,-0.8503761625766426,-0.04686073155818146,-0.7986562856736945,-0.038827087634800646,0.08769275784761801,0.5605966581294499,0.2199164370356883,0.06731528840181944,0.4341516579709825,-0.567931256104079,-0.5398918963949466,-0.9033624841642239,-0.8222670858399599,0.7808311293474242,-0.08785762911670496,-0.9218327873690482,-0.5037461580279058,-0.7818433090073488,-0.44902211959334837,0.1592598481291006,-0.18595834129615282,-0.1703895966450049,0.6517194171462977,1.0253741789610493,-0.2801022415622619,-0.3147174767156426,0.056960133656526156,0.7147048034851042,0.8989111507078342,-0.252686476207485,-0.05351344367680685,-0.6141530730275911,0.5205957781254794,-0.6401799564776304,0.19007759604108157,1.0373552802550072,0.7442575218730507,0.29810596269867395,-0.3550719371020186,0.6217742484686338,-0.4159919490811695,0.023135048252371754,-0.7216722735514258,0.13859997650924652,-0.1082997623342313,0.644064639275058,0.6641022930607371,0.8843785534054784,-0.019946717689923697,-0.44439893599410585,0.23879629791400556,0.31389122397584646,-0.7694851445792597,-0.3686282259111154,0.8891409136565253,-0.5178462174082085,0.19552516825020175,-0.33856556630363926,-0.0719945662515253,0.8915205274323389,-0.5319531567612884,-0.01655356275765995,-0.5040265146198295,0.4398383967620141,0.9389593631597912,-0.13935802702618882,-0.4709839990457826,0.07436134670228566,0.4787322881250746,0.18325566090672446,0.35203830084608134,-0.9338009331967223,1.0108505389567721,-0.1255165658688867,-0.28130757240536236,0.16026381826157923,0.9469997704087382,0.6994304115516788,-0.7621676517691905,0.20681536240445492,0.45879351763093607,-0.20519301530977707,-0.2912016998829062,-0.3124980816374559,0.6546084936084324,0.479551922483719,0.23230808487746815,0.49743980682755845,0.8627777154302796,0.7336003547342331,0.3178726381324265,0.639564147637758,0.386945969416435,0.3315549559861964,1.0240017301192554,0.46372657083601976,-0.8722118332067649,-0.01192134279440978,0.7039799739628224,-0.8810936541330002,0.2175035977955103,0.7251912076248046,0.06886141660377948,0.718897930240311,0.3609418139767516,-0.285104912403013,-0.41539022865587655,-0.6729731697625494,-0.7496044765999457,-0.564457374549565,0.999940502394317,0.5519364142313808,0.02081366163614066,0.6005628788346112,-0.2568206899062343,0.20516750052118282,0.4674094429302472,0.7875156758336699,-0.7572283448380941,-0.3383725944124805,-0.2875571099142685,0.6893908425688281,0.959259198126977,0.14943522605824816,0.14901604773404797,0.5519074686010413,-0.6076790494442986,-0.7703509496150406,0.7587639296400848,-0.7896356677233247,0.7792671145793465,-0.41788369633093136,-0.09937449661803921,-0.5243825007557876,0.3255824722966071,-0.44195287531754823,1.0464452399097244,0.2852394087154375,-0.06390805065940483,0.3623304465979819,-0.6238941788631492,0.9785713085039823,0.16058585103175016,0.5758505229769363,0.16298106319976477,-0.5263928966603801,0.40804423290126857,-0.47083499871978474,0.4112888912994172,0.13437510601850086,0.5112906855222752,0.33955157590079704,-0.7585868361968069,-0.700138639207345,0.07440181327111187,0.6827243135400541,0.9780484669148762,0.49644997821914216,0.656611921675513,-0.5121097422766862,-0.12418711541199663,-0.3929203621806179,-0.1960248385794123,-0.3782338309479328,0.06588714707067922,-0.6771037674935249,-0.21665885189906478,0.2664355822974006,0.037872478624367656,0.15996890358840116,-0.4794539009127702,-0.7998606170253181,0.6934976438243504,0.09202557046154855,-0.0006971059709680032,0.8004248313160475,0.24187683190374829,-0.0727081331877672,-0.9389903889144061,-0.4016105728282379,0.8994926489439931,0.9308839570333339,0.3761166719511398,0.7358537823262344,0.4002115302774923,0.9159759407909153,-0.47595871762825037,0.21011405653467882,-0.3727262418411907,0.16281754101527182,0.7593534153512501,-0.39989327849988804,-0.4730993329337003,0.6232143991211035,0.06270707948985471,0.953649926054183,-0.9234949564250591,0.3450105829641959,-0.768682564153215,-0.10904936422775226,-0.8585189778363597,-0.6775218936336428,0.5657520003187518,-0.528940012032905,0.392530034859961,-0.7216368960657037,-0.32288340797867837,-0.051347447899617926,0.06343211617887236,-0.08058605982102315,0.11946590986480149,0.4322210049804421,0.6478764796769901,-0.5475828092099922,-0.2490211517127516,0.14089890338551717,-0.2950893741101481,-0.07973631215254404,-0.5023589233518418,-0.018370131922241347,1.0158726324457243,0.7431681805822462,0.03549751233719203],[0.07625924576245104,-0.3569168697711043,-0.1282748310474622,-0.08266426515010049,-0.27556993920737477,0.614212162560607,0.31365008906146546,0.8282349556156681,0.353682888047589,0.7136006877209078,-0.7121765732648653,0.3962743111543234,-0.43345797939854985,-0.4617890505669358,0.9581440082020642,-0.3129410273942111,0.24791704454307345,0.20325899324590854,0.973618167782607,0.7403066943608492,-0.8031919416796747,-0.17708127265044873,-0.9353868730163133,0.040953998219503636,0.356592611463691,0.8370936849891901,-0.706498381232814,-0.90373220731977,-0.6881473821964659,-0.7672794248049946,-0.7575614998562639,-0.08329389344207137,-0.841549366685121,-0.5163741138175326,0.4501243242224195,-0.23489130460785687,0.4570486419647161,0.15816991815534026,-0.9383038408873539,0.3875697807145612,0.6406990667202179,-0.3696597949021057,0.1680852665213006,0.5951538814370543,-0.5031326757356624,0.4203485200718094,0.17661388318658447,0.313621792742708,0.7345100752266025,0.7530883012428449,-0.7862976462366248,-0.8937846843530693,-0.5066292974702845,-0.029970926491028147,-0.8172559841982268,0.8465872180332856,-0.7120772597098202,-0.13404553496682284,-0.8072359606361301,0.7305522594339995,0.1541278767972964,-0.46496194790417983,0.8028772821381608,-0.3468155482124708,-0.4370308757405044,0.15451196841467235,0.05558564629285805,0.4340631903930912,0.6093193928088133,0.3924908679904498,0.7974907960972906,0.8760286240481596,0.8050674363976302,-0.9599011740348966,-0.2227499358842395,0.7725664529500901,0.7539229401272466,0.26463184567256987,-0.17691151493735785,0.04244958013431996,-0.5037235402814787,0.05607003664244243,0.2254586766203928,-0.6954880303837527,-0.5554319561213861,1.0171171466333766,-0.07420549423382021,0.9047324690936204,-0.73394214820132,0.1592606991413932,-0.3427044402516821,0.9102828678946546,-0.2407984493783591,-0.02454695069071828,0.7363856287713957,-0.23365916926413768,-0.543545448381118,0.8156333870026309,0.6145629663901957,0.7269498353113851,0.5093430096133217,0.013984272218241764,-0.6931240684994581,-0.4378273798651847,-0.9662233927583557,-0.6476039769473831,-0.39386430251499743,0.10405355996231617,-0.32874666149293646,0.3716351450341968,0.9870139296571425,-0.2899796724002473,-0.1952899443398706,0.10531322077419314,0.09875714001552977,0.7700054302869843,0.8811111310281999,-0.38606154989508634,0.6636516219922388,-0.0812638845688035,0.1688205799454434,0.02073673780890381,-0.004692732862825542,-0.29257585250165524,-0.1812356609506894,0.6996413140088352,-0.9647897794339059,-0.3117729179726072,0.5991530345597591,-0.4353185731775735,-0.6588831837892608,0.3513460269981296,-0.6864341124990364,0.6290789997675194,-0.03827762409686042,-0.35570514889332144,-0.1864739729898084,0.04074735031673783,-0.1167923658350151,-0.8762393896766528,-0.6686755066079758,0.5629622041262061,0.5218382807392321,-0.4015061983883553,0.5052702049050579,0.23748770215872458,0.26277673059611184,0.1715807327591814,-0.38061173845240936,-0.07694918707694567,0.9887652146674762,-0.4295538949354027,0.11768889854949088,-0.16293483774257606,0.12291519562555162,0.3010924988876499,1.0040480099290303,0.7600263424566096,0.2715112742985132,0.014951240762755953,-0.7406608129261267,0.7794525067712238,0.20109150328361652,0.06867811859368354,0.688429561443646,0.9525042498011685,0.18986572265642407,-0.01294952606834077,0.2961087041959824,-0.3439785765963906,-0.4931099286637529,-0.8509788208616488,0.2692324315695763,0.3468207699799947,-0.26172985391585946,0.3564046248280574,-0.5949244434674236,0.08396951812144957,-0.8366682352059643,0.10837860485041181,0.8057908978526122,1.0098306176722591,0.11777644514315269,-0.8214706578758492,0.041829497406757746,-0.5938744500815528,0.5503511826398386,-0.9011546873676028,0.3304663404431327,-0.924785110082282,0.3301385482000065,1.0158076165564212,0.07936836481871924,-0.009336883068673075,0.6452569679547269,-0.00023385533363280402,-0.3027542379509282,-0.16820363936113997,0.18732119931255978,-0.6611476462835861,0.711026070783746,-0.012741977386925857,-0.4947003020061942,0.885185773249798,0.4817718360909064,0.8005815254435351,-0.7565938413007728,-0.5419266954492314,0.23410363239893583,-0.266768649939046,0.6283112986573609,0.8093596668230396,0.8231279088495083,-0.5027417577410851,-0.9357668965568696,0.5154804703093641,-0.07589425108750679,-0.2488494254511083,-0.8214208999206958,-0.22107831794146446,-0.9479631273615244,-0.1539737299264919,0.6562768016952188,0.1719941890162159,0.4458098858920118,-0.8496056289570654,0.6498553215655479,0.7079582369430893,0.5228328497874507,0.7749475713903266,-0.9705230761975063,-0.8516886873012695,-0.7469338203145552,-0.1956175163162311,-0.6436066999888267,-0.8321301360309633,-0.4271530260054,0.3639138995701471,0.9275108859273852,0.792870807316111,0.6984113186453129,0.7421806829880907,-0.4221298085117655,0.6889203831497679,-0.571395963980385,-0.08732042257334964,-0.5235417302844599,0.8325141304411554,0.584962064784875,0.4614126816163699,-0.29869441541520303,-0.41235925961872116,-0.3227526750287255,0.9467385772180527,-0.10292053715906654,-0.22883947706524105,0.09729364804166395,0.7422483855694518,-0.33240993465373686,-0.6760729018817829,-0.30402270198306186,1.0002025230238658,0.7214747403673718,0.08285950306819136,-0.6699414688318892,0.9467606420337746,-0.4017361979241329,-0.29299380457695934,-0.11845165486546587,0.5337443438116052,0.9482338572568368,0.48552962012473666,0.38976216629167276,-0.6178680147154344,0.34630313639096477,-0.6618184659631241,-0.5101057681794683,-0.819416765924506,-0.4688686721953072,-0.4702560798092188,0.5647154428230121,0.564345766376061,0.08819699096294575,0.014479858222733058,0.19554643331700539,0.5320195544635707,0.5501165136354407,0.11259023850749818,-0.24060692099675232,-0.9641079637390643,-0.17078622427632714,-0.6659930699104897,-0.12026298208175425,-0.5901861753710955,0.30143848115621763,-0.8047153956670781,-0.4593013123647609,0.29718687262033794,0.720364102606061,0.09357846755451528,-0.8433319020174961,-0.6972519083424865,0.8021367545941215,-0.3285171468160943,0.4525249872470927,-0.7872951841203348,0.7316134087465469,-0.6615761346791804,0.050270129498330936,-0.3658232517672953,0.24439594674025378,-0.16323001508068485,-0.5117452423076022,0.703334482789107,0.0508480884156861,-0.5739389557571568,0.5209657961661555,0.4636852476928102,0.3587465834143906,-0.40691005949368825,-0.09727784695562504,0.9077953553046355,0.4257252282781441,-0.8878327489175397,0.08471060726678507,0.16128697610021098,-0.5532482895515312,-0.39032764159966254,0.9106265189706301,1.0153790828839881,-0.5375979245305071,-0.10044577847731684,0.45940461882341393,-0.5781709026971897,0.9103797095745871,-0.5739240534009097,0.2926110021639936,0.1369304678951779,-0.6827151387280169,-0.12512022464792225,0.769349661907035,0.8426168896070296,0.6606801185338943,-0.6398162518708856,-0.3304851827124023,-0.36742745748279965,0.41343251150921684,-0.32030109430146164,-0.5339138421586807,0.4098078378324968,0.9682906074538703,-0.8466316658928787,-0.5553162376264926,0.6033203311770562,0.6627225603154301,-0.9600098944593535,-0.9177058934207927,0.8690979229850526,-0.3515349762849752,-0.7042596552756937,0.8895133132314599,0.6105959861970841,-0.06301099774975094,-0.36573258520852375,0.5031512149805373,0.7072381474528934,0.6284505340248887,-0.5000307702518254,1.0015141853968363,-0.7810357887357858,0.38387011923010933,0.0914936416148675,-0.13258022883695217,-0.7364373542537778,0.42536248477010064,0.115492826961237,0.46206146935037457,0.03633499226863857,0.7393307243241588,0.1551554022719508,0.11715700353395046,-0.1951165770707373,0.5600725545363695,0.7601925816823933,0.45809942619965777,0.4527971535351676,0.22665435451653432,-0.7405717391580391,0.5194293883689463,-0.6634266138451151,0.08493130527057291,0.4149770875078528,-0.0790390667177761,0.6506056366995964,0.6522914415229061,0.10270427336155141,-0.8481209913459388,0.24316446072580455,-0.2616843913293627,0.25552564697760755,-0.902527871070236,0.44471588156510244,-0.036034217375190254,-0.1133606292169648,0.20927391275666424,0.6441391383423061,0.2133821854428201,0.5530400755283963,-0.25287040826373036,-0.3399596363936629,-0.6726233555265977,-0.36898092985874925,0.13810750102655767,0.9232779893512318,-0.2827280944562114,-0.3014194874334834,-0.7633730001612195,0.035738238567860466,0.9671061188592955,-0.9275257681288825,0.10694046823976439,1.0037422137524725,0.18343481294515857,-0.27904791165290405,-0.9403375265239305,0.7536455816820984,0.6618890313112956,-0.9313371747208915,0.15122197547590685,0.9144798584798236,-0.3860215848577502,-0.7895676409671784,-0.1418068950002229,-0.07656788405446843,-0.7625898353385647,0.3958594814667053,0.9534021437691886,0.3184452785941762,-0.3757887401659163,-0.3033771597645413,0.18016359598358792,0.28010113031944667,0.2045013327305654,0.5741465560731466,0.6095017660424319,0.8201155603469105,-0.8276628791813264,0.1871652806068113,-0.42572113213455687,0.3061508815395143,-0.12564389540039575,-0.3331313870591575,-0.8585701754695049,0.7189912494893319,0.9167781928868702,0.4082387043941493,0.7478561991053256,0.9241576989978845,-0.21596872606480416,0.5278311236835858,-0.8844033662793579,-0.8022432255592171,-0.5927531248606923,0.5341788646863893,-0.5541447501410083,-0.1174648222725112,-0.6340111936264105,0.4867604517751305,0.8154725518570866,-0.18737772264887786,0.7190273336080798,-0.4260711815641533,0.9915710028263378,-0.045142465853628785,-0.30829590688832686,-0.7555803751969759,0.2970142768137368,-0.4456288399257952,0.2251899540586528,-0.226261763274505,-0.06925411401406754,0.45099529363172025,-0.9689493425743182,0.7860894008043772,0.5631290445486608,-0.742920434847587,-0.3092569006685898,0.03643025933946622,-0.06708974354992572,0.36058542594551074,-0.3956856088390188,-0.9684323586801361,0.10690324959639655,-0.00730144585111694,-0.602568249147935,0.43372813765711415,0.8648228592577021,0.419522798307597,-0.7402953177236805,-0.4239180295136362,-0.7797074898864157,-0.6118835458171996,0.6803120404223,0.7153672627650294,0.7577532426961442,-0.3309495193605463,-0.8888441891669384,0.3667997616543524,0.8823957256359126,-0.07199362551170783,0.18305372222813915,0.41457133854719547,-0.027616110664681136,0.46382774695744533,0.6247784284923149,0.707378251837362,-0.9820176035875631,0.5825013012285293,-0.21158358433789712,-0.6223514419147975,-0.014835399544431504,-0.7673101608031234,0.41392612757356356,0.6967105085780089,-0.25216641431517467,-0.890505995651028,0.8735900801525127,0.9114620006224281,-0.7863367417544844,-0.2753786260034519,0.2255848605778827,0.988034455606321,-0.2953956414954944,0.7980367865505213,0.64151956014382,0.6763771800351841,-0.8047159417406924,-0.7784668256926266,0.7821625630995483,0.5381383570406513,0.1924630038769863,-0.843036911692713,0.7354235602846741,0.2974233744611127,0.7624068950212153,-0.42387202506214045,-0.49923556233348737,0.5510297215423052,0.430786119670947,0.5665145754788918,-0.5682089544584277,0.4668848341916407,-0.13405048587208726,0.5206212330661208,-0.6225592749653268,0.45639919603469065,0.5847067845927563,-0.8573269815542419,-0.17068759780984213,-0.6485073665882477,-0.3253424826748648,-0.9520849909542162,-0.1737735621432193,0.8964183829348036,0.4426662363643811,-0.7295462999226379,0.5110489836905548,-0.8045479845844405,0.47081535134164837,-0.20187272565481254,0.5804991059614872,0.500490357022658,0.31034671366999217,0.1678197787384654,-0.43518469939697174,0.133429660132155],[-0.33070840796337847,-0.22664253281926422,0.4305940633600846,0.49920939022691774,0.33668170253500646,0.8324967973807277,0.8093083626702212,-0.19260094895493673,0.9736903010251875,-0.040574417920626986,1.040650644060453,-0.5048369337323119,-0.3732284982760235,-0.06079392431086157,-0.24840037712208615,1.1139268295546354,0.6450946200552227,-0.16677550588541507,0.23818444597162575,0.09177282954682642,1.0529273981396836,-0.2425988099475379,-0.7910448514814575,0.015622360305929069,-0.06873733979064622,0.6203502413637306,0.7169151687210223,0.4428800115689861,0.13289252843494959,1.0159674873880158,-0.8108539276161059,0.10365322652011527,0.6289608412603994,-0.3658874757872009,0.5726439788372534,-0.5184451386294436,0.39198275116429765,-0.09148194777840865,-0.16395722930770368,-0.7590870491490896,-0.0886780855018928,0.5215915874340645,-0.10605231884621907,0.756465886173359,0.9684914467587881,0.13608448484066865,0.7600495092532599,-0.4639397908505822,0.852741045756869,-0.3443199975539913,-0.8995375851279197,-0.6905540107005239,0.21932810855156473,0.10699397813878499,0.1490851174205028,0.24491531412256812,0.5833357687582067,-0.5289652152703289,0.5947472753027528,-0.6876240690451335,1.053208198175675,0.1913569223369632,1.171563425122538,-0.4585276511640436,0.3024108141299251,0.5151519737179897,0.0988440118398849,0.6388889692230785,1.226063948772233,1.2582091474265378,-0.061053066460229025,0.41152265595617415,-0.3781119592649465,0.756789424814838,0.8577951640244377,0.9956199230118448,0.9156457239323177,0.8280772889245679,0.019448394212337024,0.39235691233657394,-1.26611122134468,0.20857885162774023,0.8778793788833854,0.7376733789721724,0.5233604908080496,1.227296197207502,0.46131936599554946,1.2137862366927017,1.245545682479843,0.1985515022982524,1.0003397625159491,1.5093186897293123,-0.1870558110151223,0.562577933469882,-0.4773214426131816,-0.7845363208637449,0.8392028015207652,-0.10066025595394354,0.27364945308765987,0.32466635395009447,-0.3710797647801116,-0.4855437491861461,-1.2197455751367132,-1.5823018002785856,0.0008085749677417322,0.2771613046026013,0.11436059623612287,-0.09510433025355161,-0.8570338621838614,-1.0907146021096839,-0.46013527096532486,-1.1595804555017546,-1.095575407234927,-0.24533425699811556,0.9126798117931912,0.3823103224232335,0.8074816383323833,0.3771827500974117,-0.3269929146466161,-0.09284046400917706,0.6625174075743062,-0.2764693417042204,0.4754754616915977,-0.509370434981281,-0.4796997923041747,-0.8210535680491653,-1.2434310747014028,-0.2920128101836715,-0.20716794205102224,-0.6588824404714125,0.1546390707723018,0.72702167871126,0.37595053966696534,0.1778395867897817,-0.2942176686601971,0.41217111642239107,-0.7970762420954077,1.0420277022227669,0.8555094246782068,1.3900644194857894,0.5987314052349154,1.0241541756505776,0.2960981287746806,-0.29932150607829505,-0.1046452513121828,-0.45085474078319254,-0.7881706603237812,-0.21695468157546396,-0.3031893685046013,-1.0125702914452532,-1.5897273629726156,-1.127854925239161,-1.092155712084492,-0.8217202752808836,0.07483198793061009,1.0452410028064065,0.031156582962308468,0.5974109193835835,-1.0112138959526407,-0.46534781443799894,1.516746468252041,1.4801529995439673,1.4841453305125119,-0.07937770841128906,0.783832687616546,0.7367567472319425,0.7553610917501263,0.27709424824013934,-0.3472380274817149,0.2604626244228226,-0.1397437630983506,1.3151324560366802,0.19742995478885308,-0.8900900787543277,0.06288563795907434,-0.3391866810353763,-0.5782616271907287,-0.7302660781344429,-0.031888241113244745,0.5342396623648312,0.7263331945979445,0.5828748936852688,-0.36628335410941004,-0.1434503116707885,1.5036678688497709,0.8880481692081995,1.979833597885152,1.1115380772426497,0.30002036318733694,1.0572761061466132,-0.3934029968820208,0.9819979075505151,0.8229332938072013,0.8083407314612842,0.39392058239994837,0.7235707142376426,-0.5559704717314318,-0.5228364229411127,-1.1896232298079792,-0.37407378803305963,-0.3651385280032391,-0.6602230419024852,-1.284403269677874,0.572738376113564,-0.8840853832492505,0.720985733386352,0.5767980391350538,0.41926904806763604,0.6765195838952559,1.3131290003383604,1.1922489470144397,1.2905098827223807,0.1578461603203626,0.210698358379465,0.9175534727801385,-0.66980226697551,-0.5257435935797851,0.20096403092803053,-0.46549985267983646,0.980547591065748,0.6254327092333333,-0.7396571757289151,-1.2772537997321156,-1.5357701662125385,-1.1742930697007705,-0.6082521856970502,-2.119543100853635,-0.48146549719754744,-0.9573362962385265,-1.4652002421452561,-0.2999226185102553,-1.2401278015530022,0.11271056253815707,1.5993658575006817,1.90851173028697,1.2175419605490372,0.9427849572797916,0.1304947679521439,-0.006453962802432267,-0.9009888256382816,0.6231942854651759,-0.393798899187368,0.11685460982787466,0.7127554026884629,-0.184625341191859,0.8288586483481283,-0.06632838787478015,0.2243449585246607,0.44890048030251234,-0.7052710736151178,-0.30196150920464687,-0.4434706293850845,-0.9336103609325845,-1.0268842453620246,-1.9780821578192231,-1.4432628399625953,0.18116872532786407,0.11019269553221778,1.7036123195786743,0.9088818703441792,0.5230088464694409,0.2734201637652411,0.042096285564281674,0.3944932675268648,-0.8367161629486164,0.14211167287023005,-0.29480789669351587,-0.6755410343136516,0.7002362940188313,0.06733683073981378,-0.15264319295865242,-0.1699417511955665,-2.1484517757153245,-0.8005724341747402,0.6503575682613281,0.2906450641414108,-0.8665745324547742,-1.0190441212374803,0.07436967940442055,-0.7558328979239198,-1.1952090334118426,0.508610988320789,1.0633059541151426,0.2642625210971655,0.07981673482250672,0.05153001102269284,0.4340026310944397,-0.38592588736541755,-0.674414813421246,-0.9372606411930585,-1.6805377390130303,-0.21911489442382384,0.6808682140667758,-0.2422032326006746,-0.6410346592811139,-0.49034403084598055,0.04926110051891173,-1.3310033985434302,1.0039870449460693,-0.951712467923743,0.035055160747031085,-0.2493628378453926,-0.6096728405868379,-0.5411558657916312,0.020989924101867716,-0.7054717559690258,0.8251522883113916,0.08547400756477354,1.035899514709088,-0.7547028455282785,1.0037205766359407,-0.39828119078977187,-0.4664260122856689,-0.42183962310811834,-1.3720347741358556,-0.18856770460874464,0.9207270751889299,-0.8680783781813505,-0.2900952018312379,-1.484068463883667,-0.03839489294036655,-0.46066326804849556,0.247784500103024,0.6419533480272464,-0.912089784212495,-1.3402595016821834,1.146488923720639,0.23101728619413386,-0.6348472291456719,-0.0654384083618481,0.789360111265036,-1.018579201526995,-0.5505163093321508,0.37813823922721485,-0.009366032037534798,-0.1741028081587102,0.7289651430485777,0.47931561900135017,0.17647170365917486,0.207025448504618,-0.7813730629577587,-0.6241716095234096,0.1403369834751654,-1.8260649177898634,-2.376911260073642,-0.1570709876996415,-1.3366012418795552,-0.5737128408437587,-1.5250672550104696,-0.5168660598751743,1.0820744985130317,0.03304929753948817,0.6296499590147039,0.7171660328469392,-0.01853209880560165,-0.82941479760483,-0.7895518207902757,0.8152948638313774,-0.3714761559831063,-0.5996639557432887,-0.5643599402806626,0.42741833205724095,0.032463752549579,0.3005710188523696,1.4462638532539736,-0.6156248095252478,-0.749618639321891,-2.024656093827746,-1.2641771717251804,-1.3717024630341428,-0.08395051454789766,-0.524097610457051,0.33756307507307043,-0.7536268405422788,-0.4622823291953816,0.4051704437471065,0.7272877905186345,-0.7750790469746404,0.4215882567792829,-0.17077775688477476,-1.0051333921167653,0.2079247594227822,-0.6497224562479261,-0.14817586486102863,-0.06317924708043775,-0.7679830796009588,-0.6139922415543814,2.379074921142628,0.12022561554526102,-0.11426244743823862,-0.3590748132622262,-2.0010468514212514,-1.3125282860379586,-1.475577161328887,0.010238294118175185,0.13537997277540442,-0.391554396792385,-0.037640767271632077,1.6430192864206379,0.23023243741863766,0.6067812027251458,-0.08644092792350194,-0.5827169971486067,-0.3830609894167528,-1.4934230928303731,-0.6514269877593483,0.6117163563213249,-0.8058922542767964,-0.39641540255896485,-0.6639639946364542,0.6771391636741758,1.2888490796999417,0.596023844485833,-0.3253592082356622,-0.5462963697141363,-0.5488285534357533,-0.8342476428254954,-0.30234080871293334,-1.249148254154191,-0.22456454130396516,0.9054121469451257,-0.21391677647157695,1.2301835934183636,0.194061703366184,-0.20339537596307788,0.4746330190411778,-1.0672383471898417,-0.3354696817351746,-1.2509181314637352,0.4464337083726349,0.5592244383359232,-0.5071821213509619,-0.43968774269735356,0.4712866978232318,0.26253446213434817,-0.2474223435821578,-0.36809612431715083,-0.1533010594060808,-0.5316163507145225,-0.6336253578844391,-1.6608978772512362,-0.8444134125458281,0.6058513233861547,1.2236645737587253,-0.12206423123103553,0.9375079063446928,1.4176412659489483,1.3226847413705165,0.6340048294570578,0.42982566051364446,-0.9025431493791072,-0.02590632574714657,-1.5429507809767513,0.16309188901402477,0.692414417264532,0.8734069382218365,0.9329291464622443,-0.5989378977452029,-0.5213673565774755,0.22983017751778012,-0.1838739777136858,-0.17260384445335178,-1.390885920309634,-0.3671493222661015,0.16274306979986797,0.259501044414792,0.762058028982567,1.1802703320444494,0.8417898971868653,1.4266594273496611,0.38178336554745956,-0.32482735505995625,-0.66168032076043,-0.04055282984148581,-0.3540702742218852,0.25684500390242637,-0.47859497056834044,0.7881937873405502,-0.15024980373301633,-0.1981331034456048,0.7844923916130405,0.647966509525572,0.37209746389947085,-0.39534705157248523,0.6944883460428679,0.3481643109330824,-0.6895510916846355,-0.3112024950796797,0.7156183897937843,-0.4322074073678555,0.3558898395881878,-0.82763064494751,0.22635736503772425,1.052857597815423,0.3765663775291476,0.09328704167544041,1.1357176209060107,-0.8662793884260326,-0.40643269293283113,0.3044736775025172,-0.5823639972338648,0.4055911102403786,0.44751570838585336,-0.8301516193514477,-0.2937577643232692,-0.13973007837928894,0.2077810329312712,-0.16179090985869066,-0.4271825492609963,0.27049675256697187,0.4296372988549882,0.2840247324238682,-0.0406832036317912,0.7671089740858117,0.051824016360588254,0.6872313739288618,0.1396719465925212,0.8580687634269268,-0.68115265940676,0.08922110747687054,-0.5042590450269712,-0.46691006741128255,-0.7183486219342474,0.3185582376206195,-0.8228635893579357,0.16044495331508285,-0.13812836758810804,-0.632078057786101,0.8482070726262615,-0.8462139410680248,0.34412407372155823,-0.30329785683256044,-0.8402019527560863,-0.053630149155795274,1.0514598557331365,0.5370313754993933,-0.2598779778112797,0.2492854962052952,0.7749573676285665,0.6708951467199032,-0.22900939375957485,0.10990637606479861,-0.12631883203985522,1.0380329569552045,0.30263392566616804,-0.8291873697358912,0.4884709894208343,-0.1037292957844818,0.6749929763102235,-0.8443421416872895,-0.18532436412254955,-0.5960161259356757,0.016212875913688276,0.9505117701617675,0.6420156797219768,-0.2670342663990016,-0.7156991465513108,0.9742623385603381,0.3620774709644549,0.1818941915114834,-0.09952975819328538,0.9486812900847262,0.9770453316989532,-0.3103144153954334,0.2589659335800077,0.7480899673791389,0.57902579031604,-0.32847498961444926,0.4502899459429381,0.37355757592546784,-0.4272222886000325,0.8267767809113878,0.5693085341066425,-0.28656441175595165,0.5276629957677251,0.49447042009393327],[0.7905774939263278,-0.4476523938906464,0.6674120248142495,-0.6574704161899313,0.9437316715959901,-0.15218277332459246,0.9204501895409508,-0.699378444107769,0.36657594642410235,-0.1268140383538064,0.012968349226834814,0.813805923073209,-0.22676581197444506,0.5140424958109341,0.8738707832460526,0.6993229976262203,-0.5809004324690747,-0.43718281914098917,-0.8599489878847398,0.14197546033476088,0.7016014605812805,-0.46119557038973363,0.006434295200627635,0.07966737824805273,-0.14931415374840712,0.6880234973034455,0.3286494210709266,0.32160575791681995,-0.07500769622756406,0.3969051704788425,-0.47084830035644426,-0.22792025495271273,-0.8687411437580307,0.9948368400653722,-0.18837021636052792,0.630041074020356,-0.44696369441651823,-0.6643354082004267,0.8600387967677285,0.11856387901391702,-0.2825137053014189,0.3126878560999992,0.5346275701357489,0.32463039158278,-0.03522591939610975,0.3999703411697824,-0.6268697581719405,-0.8024928421510252,0.8306363454255977,0.0836398430471883,0.6071549731427225,0.7515240741685153,-0.8869261807579519,0.13928656701645703,-0.39059250768992987,-0.5937897136813478,-0.3614605239538839,0.15849242358400834,0.9956633137562283,0.7087998889189372,0.3679847603696904,0.7141558024062866,-0.27775967729624584,0.5932461277912316,-0.41498512462658116,0.5772104598662271,0.010431216992702236,-0.3769655740443256,0.0748313215518524,-0.1330441405483671,-0.5485209165642164,-0.8561249254015179,0.20619253025875856,0.14400281042528662,0.6405786749284453,0.03403058471021499,-0.6552012372110273,0.998891501865291,-0.26640957538556936,0.7835462906834008,-0.538384161839868,-0.8413690228839652,0.9452231198737557,1.0690019561812765,1.0959090406347032,-0.3190148758448429,0.34673005354648234,0.1628751554996145,-0.7288850918426379,-1.1053125782725095,-0.5599271902387274,0.03555057815733465,-0.513762318896995,0.9088173682629842,0.21890856225690686,-0.42416462022456786,-0.6936382135453093,-0.9644193965985756,1.0094679208468493,0.9048309462806906,0.08980891457960072,0.4561177802233935,0.2896310699954176,0.9656389080155894,0.9709431587559132,0.26381035038562645,-0.26713151144223857,0.2367709257461569,0.8419919643474116,-0.006836704263571098,-0.5476571590900489,-0.16175280354667998,-0.1652258600279387,-0.6360847525641828,0.6563943040367858,0.20358699337556146,-0.3993961740627056,-0.6269509540040755,0.40649451459382663,0.6792225345812956,0.5699866115075168,-0.24252579073555422,0.9837096899134145,0.5633912984190921,0.7236958614089422,-0.606637403161088,0.8188481445386767,0.993937160071038,0.6748369825413473,0.4390756736182669,-1.0035376523903323,-0.7066272951351021,-0.03562157740727516,0.9575713010016972,0.1865655144846665,-0.13062803809692414,-0.02152038321094582,-0.7653024717193299,-0.3017868629995462,-0.24056673248042243,0.7187460255184724,0.6218876168860806,-0.4598600626255544,-0.22746245783240027,-0.5800460219442644,0.9695235624221581,-0.716844472026186,-0.156871231244037,-0.9487568871145508,-0.5879213627785208,-0.2514802460539577,-0.16642721516089443,-0.5102078608218777,-0.32071922807942393,0.3139527183610123,-0.7525100086210988,1.075104174765578,1.3576258220184525,1.5331278733774236,-0.3762685974426261,-0.18979697954586483,0.3570192674198944,-0.7861060368268975,-0.9052182285498541,-0.37629562647731685,-0.31535370337808644,-0.9424027901043172,-0.7298154989184743,0.49367597816268166,0.3634386114728869,-0.21864716480701962,0.46607327593729025,0.7762712618622295,-0.9335106915483433,-1.0092105810027145,-0.7691703246300279,-0.35261327614036425,0.6160497968074614,-0.19029109061539132,-0.37883948241323656,-0.3880665069429991,0.1026783385080483,-0.020048494864861884,-0.001565153061644565,0.006248723352018097,0.22737661187843602,-0.14237553489624674,0.6774376512589122,-0.4011361236897551,-0.6479651373960866,-0.4117537318387275,-0.9697203832174445,-0.0641790096218175,-0.06845959151560094,0.006724503103564286,-1.000667389289628,0.6545376224937425,0.6037089355927933,-0.4059371229534025,-0.14314919115410063,-1.0611350798006434,0.02741614351634415,-0.6758105785146684,-0.6633518775520583,1.1004139375912614,0.01790213903067448,0.7844074182408712,-0.28709804221434093,-0.08884193502783172,-0.8915956188468145,0.31731440294530516,-0.37401927717773925,-0.48642367479753373,0.18471249505863402,-0.28192126078403,-0.8750928298986644,-0.03760489018713738,-0.5687942983227565,-0.20728557296941372,-1.0196240782816561,-0.12416648979726867,-0.29772966215768687,-0.015679948839738944,-0.09781542547476242,-0.6895926647417512,-0.6215488260911173,0.1073016083511828,-0.318210775425803,0.389901511415419,1.2616191667561356,1.2313208752539813,-0.7927206837269575,-0.14229645156986695,-0.02764358596619431,-0.757693893055337,-0.21897390244147885,-0.4019018495127937,-0.7598171271194447,0.027448945628821265,0.9585638542471031,0.9485437737662582,0.41290167084269835,-0.47118077122218727,0.2094746376354856,-0.5342044768581502,0.1222797027617436,-0.9654131965576571,-0.8697783496521526,-0.33959702266585073,-0.8951659470040878,0.5621384703257716,0.26307247607115575,-0.3196375641303577,0.7149971680459177,-0.7461282983220033,-0.7077162750181263,0.48819342336675425,0.8699916837735279,-0.3372109025841861,0.5883616324084446,-0.18493757929740848,0.6512284568698481,-0.32229115682214293,0.1249269006645942,0.3886166161546252,-0.3619909060986513,0.2910559403696091,-0.675292620564943,0.7875097092588684,-1.3948402963455522,-0.19593951297215031,-0.19468574606748038,-0.10150571224882511,-0.9282936219967376,-0.7543233938223931,-0.37789384966614525,-0.4574461145914091,-0.5380197828554841,0.8897730982825636,0.3247994750049481,-0.4216798163561245,0.2580104312768238,-0.08943827959680807,-0.7764583446609968,-0.27217235234721054,0.13794598865980795,0.2500038792961614,-0.14410944497633332,0.7422292129272681,0.6631767687002742,0.607902757820034,-1.0236305225323883,-0.47433365290591917,-0.4742272171308868,0.601247307802027,-0.5048421084072519,-0.5673589958563958,-0.6414152904709165,-0.479237247754077,-0.6370138599928007,0.03577655742722619,0.6116534561134994,-0.042882754623648066,0.5191654371819443,-0.12472027038389652,-0.7910971904320178,-0.45366861083558546,-0.1331708695812679,0.760928541630902,0.908255018040235,-0.6697661013967022,-0.7551127013478582,0.5281605481458249,1.0967736898454514,-0.15554493968107358,-0.5071378460481756,0.7460746948217079,-0.8795944728273798,-0.040741288496363416,0.5324754603754933,0.4433042026942646,1.1239018889021417,-0.24822039841118843,0.7005520807220714,-0.4493558870180122,0.8571036401266682,-0.07374386500319995,-0.44699290939734543,-0.8688259923041933,-0.6068161811737767,-0.1275882596347628,0.6149773744660885,-0.4918710271013272,0.9614422240734356,0.7889062181786968,0.1744666754938277,0.127801451944363,0.3743737545627348,0.763356461895852,-1.1321382730739538,-0.8347868234497646,0.4666028291201351,1.3876136691359788,1.2941836325983593,-0.6232600904840441,0.3798567395930028,0.4976781616000444,-0.14996359603305146,0.12033287474154959,0.2558836727883664,-0.5195328848945552,-0.3076996818847955,0.24646672762944558,-0.0036107889138779184,0.9908825015910304,0.3822094027058172,-0.8478624400925062,0.8286498861171662,0.36592268185678845,0.6263698594837559,-0.7469301340627815,0.16325664582611651,0.7878762326838554,0.4607419176058764,-1.2109289518180564,0.7362182062374765,-0.3755572330394651,0.9309105936475153,0.589763116998509,-0.08291741129175961,-0.24551087183404235,-0.4773652295577106,0.9107125215662357,0.40659901430131806,0.021009731283620058,-0.33870899855937325,-0.006302495254826605,0.15810397640673549,0.10464965077208847,-0.3278871504477344,0.49861520737071074,0.0629708609008741,-0.7103002992648391,0.40886851346388314,-0.08375955821631706,0.25413095590880397,-0.37576328156638195,-1.6162972153710327,-0.8701439536014307,-0.09135140349219412,0.11545145524473899,1.0929007976732537,1.0558384578124769,-0.0672719582556433,-0.4270394129648427,0.27618147341840005,0.5295768446504835,0.7615440335718463,0.11513989931839178,-0.2499146318251407,-0.284066053397264,0.37713589767446104,-0.7236282966400683,-0.23779511318274393,0.7286928744276637,0.7528626527697345,0.8111934851829059,-0.12493017431035092,0.38289990654363454,-0.10324071269313588,-1.1929275118374956,-1.475195828535124,-0.7970070635250345,-0.6551232319720158,0.2976942187501474,1.3478682190671676,0.7037989697828899,0.44645727792418605,0.17714738161553192,0.47719054786547555,1.035599161315936,-0.3108651195233228,0.8399474324143846,-0.8610097394171948,-0.10197519787313675,0.7897811295262076,0.49773939376305937,0.6978836903076205,0.7670657745677956,-0.530423462195746,0.9266783981251467,0.01844387069826817,0.5848212612104616,0.3304679079313735,-0.7508976817953241,-1.4549096541980306,0.009098474968651047,-0.5195777627334611,0.49884468913783536,1.0876659086443776,-0.20552613153826327,0.9374077186796979,-0.557415195144198,1.1416931853229042,0.5963333121524186,0.21349975618784792,-0.8216758874587177,-0.2402494557472561,0.5335268878520981,-0.5539630757462396,0.26288558639239284,