{"INPUT_NODES":576,"H1_NODES":16,"H2_NODES":16,"OUTPUT_NODES":10,"BIAS":1,"LEARNING_RATE":0.01,"weightsIH1":{"rows":16,"cols":576,"data":[[-0.9860608464041641,0.16774633027480984,-0.27459650533124014,0.6422817629752468,-0.8779431790108382,0.11341502512108782,-0.13508659932642184,-0.8648756159069041,0.21626032654180002,-1.0019568256638738,0.5789907454760775,-0.9513295807840522,0.0909426480950326,0.38240622485438935,0.6294921415129312,0.35619075108559584,0.7128202887176786,0.7721587453058457,-0.3611638174981695,-1.0278502641359217,-0.010005327681966457,0.09121033047084003,-0.00725880339104134,0.21102893021308775,-0.4149917994769936,0.5240826609431625,-0.02318933426793243,-0.24115492014652734,0.8691281902156508,-0.0003326247488036942,0.7871411745787295,0.41352096092420476,-0.06912685227263472,0.17116049423318097,-0.9613509873936493,0.5664663655280752,0.38277059189651297,0.6257186287052147,0.40225871116640965,-0.899158010336189,-0.01219805418080665,0.24851385818261476,0.8255490282198267,-0.9497647210338384,0.3394959249900089,0.6434658061904234,-0.20819238803326018,-0.14385471522378793,-0.14073033322719344,-0.5025324701713569,0.9439543650739647,-0.06253658265554325,0.4081411381889408,-0.37134877423765866,0.15367203581298255,0.42826014126845147,0.3708179818642594,-0.46661137688159515,0.4633369497738553,-0.23850256988074575,0.4053176874349204,-0.8721349301136229,0.8777872790686367,0.4813545850432678,-0.4850630080832681,0.8409269658809457,-1.0376083215169967,-0.8110652995163069,0.7710396610519636,0.5303938346486073,-0.07934710588194722,0.8455722437560694,-0.47980103868916046,0.5886354875441305,-0.10625585099237232,0.008979803001551266,-0.5022281329325412,0.635232148685086,0.9446184835844236,-0.18032578779443187,0.4738784456643928,-0.3859637011532523,0.5912452622489511,-0.3579801833338688,-0.11032506311189531,0.7596346922748449,0.9383380118287183,0.029182637262414192,0.43326992687351923,-0.7662846823989037,-0.40604149975788173,0.5122826332451044,-0.3375060609913593,-0.6454922126879532,-0.9805328359049831,0.8509971043957504,-0.9780121394747251,0.49703813235969707,-0.620653114960913,-0.6868339542766716,0.45151411826850435,-0.7670970742818016,-0.15824505579257528,-0.03476870251329463,0.9481523894401369,0.3615879608368944,-0.7230144076373599,0.6789612652392735,-0.14566956285443045,0.2348019196859823,-0.26454363470014947,-0.14932900560318182,-0.4330272819800882,0.6343310080670507,-0.4646234766241852,0.5229586964885438,0.5328532095760466,-0.25864592400125974,-0.3546879864232251,-0.6544969577212244,-0.5585415037646019,0.22387541771960806,-0.14752138536088077,0.08583117715479957,0.09419242672606698,0.6260512058802911,0.061850840476163446,0.5881372049809455,-0.1869952103601537,-0.6812445543121229,-0.3440852361185678,-0.9433368827705592,-0.9099991785472742,0.4568368179364859,0.05763588277457762,0.36484992078194933,0.05167056253947662,-0.31742400004814686,-0.8286448685676625,-0.5769314817419582,-0.4093074700555488,-0.10912453314895149,0.808304923335062,-0.9347693030254541,0.008497520640555655,-0.9843684299034761,-0.8039566297586137,0.0542182667006634,-0.18257056134841748,0.326796653323677,-0.9351889839880696,0.022847500885355893,0.8415235080626031,-0.28252222873526905,-0.9789245924408997,0.07800149752411485,-0.8600464644897969,-0.13191788443203772,-0.0717592536806592,0.796985106350393,-0.8422205652852481,-0.2762560820340237,-0.8061369474583464,-0.4333885759059956,0.4904261111038979,0.6064840531977066,-0.6171173140679036,0.6682877600413725,0.06920222446165415,-0.4504022597150719,0.8209147933997852,-0.20240441550570512,-0.3592206356778163,-0.16796282576618995,-0.2938005619185138,-0.1945247631475119,0.24467997797984878,-0.2651143074824152,0.7139339275250903,-0.3095282052522145,-1.0054495908238716,-0.39658943560918264,-0.17004710649730675,-0.8019225087532067,-0.9924944332848018,-1.0218595666147519,-0.8106272197477467,-0.09477582524828428,0.4617882782721478,-0.35870720318257054,0.06256732022367335,-0.129452356503117,0.7161115979856311,-0.7789259988086881,-0.5800128860679507,0.7929023828338412,-0.6238047791803885,0.45528579247034673,-0.2669818732289682,-0.5499563483317599,0.4611297784376607,-0.848535599337456,-0.5713740356042915,0.7521662133522615,-0.4636667564746824,-0.1209059713864909,0.5589689118003088,0.2486007371902798,-0.2754499080208953,-0.23574812846528112,0.8214724847352192,-0.18595092688447362,-0.8229923509790534,0.8961383028093804,0.8257559057325197,0.5635580153541256,-0.8853550032906855,0.7781845867508683,0.12589881901088568,-0.6701757033123303,0.8881999822717621,-0.021197533876156815,0.2178532561207304,0.8504741103659067,0.7726828155114305,-0.2251217393574389,-0.933303177339131,0.10738654802759354,-0.27248935423784354,-0.22936591624844133,-0.6464613911346492,0.11105050063504324,0.6470660388034701,0.21804026335280768,-0.23435495716316132,-0.3773249162328782,-0.3510967237477244,0.34619593079921185,-0.6013787255911592,0.4110515043802625,-0.8292786156100774,0.32633526049921396,0.4342884639590792,-0.01087928863949671,-0.150685343173915,0.4325346428163801,-0.743559238234431,-0.6761215738176505,-0.8222621612860926,0.656160916444554,0.8574117865501735,0.0660555858942271,0.5906555114525683,-1.036608307366994,0.06525205210571584,0.9345351562534345,-0.4129716042752553,0.29154470460019466,-0.10467403661867057,0.09312751274785386,0.28429394391409074,-0.5075076668630295,-0.25796375760889373,-0.8246741275903252,0.10204366255418691,0.09841858626481165,0.16407270608004587,0.23803743200992672,-0.044142882166435464,-0.9238866200874253,0.9385893575983816,0.254992758905939,-0.567562416539191,-0.8691640685430888,-0.5783559759036154,0.7844805019882062,0.8478992786674768,0.46963518171871943,-0.5697694024685548,-0.6387709942576365,-0.735426077305747,-0.36635169389948247,-0.9811154859234406,0.7050927667501286,-0.12907203815653653,-0.09334223886907163,0.21864372102733756,0.48035666492048334,-1.0265749459069107,0.4202067057824986,-0.7132435416540556,0.8922126742779021,-0.09540238185446097,0.7098500654083338,0.18873352807209118,0.6076282710727686,-0.2636394979479987,0.16232357851052376,0.641762325852491,-0.5573674408895452,0.663428715476743,0.6905434626602177,-0.42827788946038614,-0.003639185170113877,-0.24142181324556067,0.5573342539245143,-0.5151327197286438,0.9144500975942895,-0.15296194188348364,-0.3453499770215481,-1.0290420701030014,-0.42866113948616524,-0.8621251275554574,0.002633084710277615,-0.6147902256725976,-0.5944666774425217,-0.9961803818806946,-0.21581175633095148,0.34031161592040365,0.25038804658425146,0.1758851346583988,0.8207367002518544,0.46200138329487694,-0.3947220577125614,-0.893531551115272,-0.693931297214211,-0.8809251055244233,-0.2613712681316192,-0.46473863171725666,-0.9918674677285402,-0.28929217482410385,0.8395498687590489,0.45390204453899824,-0.7023413376311858,-0.8714853804731553,-0.37500505459419364,0.04435695926215682,0.7609393180918619,-0.23304580533345307,0.659629711194074,0.4934277180942027,0.7516430589555251,0.7180773907375209,0.5068429998140308,-0.6633979185774599,0.7591194336898933,-0.5711872895446591,0.5103142893709127,-0.6777305889633932,0.6455055452671458,0.08429568719908277,0.8107604429773287,-0.5755720137840287,0.4559461649644481,0.6031062679288647,-0.6844214692391202,0.27029136652002006,-0.9908152679843614,0.8575896592629872,-0.03932169954884728,0.4776254826532088,0.8872297161884649,0.04932244095794568,-0.646465869288665,0.5955566909968039,0.7434225858629938,-0.9580355942346167,-0.8603677173060923,-0.5048693606995325,0.717323458369402,0.06816680645682775,-0.3676634471431246,-0.02213727707794608,-0.3975637842196777,-0.7963327366710555,-0.8476293340692386,-0.12319442755371877,0.4115691590037319,-0.76530650399113,-0.9055182695804217,-0.14324581596111519,-0.8289823465105409,0.22612623682745264,0.478129592107296,0.4197899680612096,0.2533963122924232,0.8543183211334842,-0.2235163376123204,-0.10605201658369791,0.7927948967132905,0.805421778414188,0.6718762112186419,-0.6040031106305666,-0.8893559108326793,-0.43419280367826985,0.055218088407038235,-0.6898240660647477,0.2614314586874938,-0.7753971763550984,-0.7214267861776011,0.7879942608454764,-0.45462774404171696,0.3097606069858658,0.1456267322381668,0.15021792183802296,-0.9454300862146261,0.7865192592038537,0.24464336365295739,0.4151863426047724,0.4381356919615886,0.6916384114265757,-0.48665322485283213,-0.6161968950131486,-0.6396294428840155,-0.32829159868012314,0.7229720701394381,0.03884167540964014,-0.4835543542254558,-0.4379216787507022,-0.0029130519252466673,-0.8333767297620481,-0.9245711197137474,-0.16567394210742103,0.2591115999305129,0.7052964043204966,0.08987412379699079,-0.06718551745530686,-0.48755820091546337,-0.6862103387964886,0.1310857199713617,-0.8607124175039255,0.7462206309495768,0.2660148412200716,0.6155279575371463,-0.6035513534756077,0.6970359310112205,0.6756041993719172,-0.16834471711150198,0.9007715048871766,0.6431010085863382,-0.9269981458947434,-0.493467981284019,0.28986715156093357,0.16860187787503667,0.6606511157784463,-0.025188416577941488,0.731261203640495,-0.15548151732938828,-0.13192552751105377,0.5361944120001159,-0.09891442816975875,0.584280076228888,-0.15576377166586056,0.30933219351791175,0.14690734184413307,-0.24023888026850276,0.1475677921269573,-0.26345672667544995,-0.5895235006851934,-0.4219349963957925,0.17416749510763838,0.8154330624080223,0.24327092656907756,0.5129225647136245,-0.9930232102247275,0.4638519027723686,-0.778903814754032,-0.8999092824770544,-0.9163879663571322,-0.12225166490786687,-1.0005588229833071,0.7226244700154486,-0.34388480942836486,-0.5535121198911604,0.3581185090166851,-0.03462056388954049,0.5259982824928301,0.3317525643397209,-0.741724482517954,0.13283202763233687,-0.8535984909367927,0.5228977368665239,0.5765437713896661,0.04479107166093134,-0.009978616209255877,0.6498340931357541,0.6050408697610502,-0.9217001838734176,-0.6273819671512626,-0.18361380468558347,0.07538843223909875,0.25152491089347084,-0.717205664392838,0.4786448571863955,-0.41242373862445325,-0.14403314131201353,0.8963234462709955,0.03224386194047003,0.5929112254102878,-0.04297412567134537,-0.004936469429324539,-0.8684361677990301,0.4058701875717201,-0.15451225065100532,0.695199219767301,0.7025204228685845,0.008392884603868422,0.8357673745842794,0.8252869551095797,-0.08354206733507903,-0.6410979187513791,-0.0410847680547863,-0.41158616501432865,0.5369222283330137,-0.8166514070356705,0.4168021348827868,0.3336474150932847,-0.2936153883901067,0.021343421798104695,-0.16512039369369536,0.5749959955863769,0.17353103822684085,-0.8959748604862748,-0.41756569026731016,-0.8577050994152272,0.2890140362258493,0.22069213171867233,-0.03966967458270911,-0.35260051384162816,0.007637059221993335,-0.975865693439549,0.49194576050992134,0.901692625726244,-0.13901469872486577,0.6167145145476322,-1.0223792968723335,0.5708744228709272,0.3894484665933926,-0.13141206926509202,0.8481094786586715,0.7538659944710445,-0.3971826900398918,0.5001669474528142,-0.6596466454054538,0.3525526669535308,0.09713860888310343,-0.40492576878682707,-0.0145492447274906,-0.994963497157303,-0.8503405091025201,-0.4539448930942007,-0.26764822622990014,-0.4801570866297986,0.6893820167767705,-0.25642638775608273,0.35219736698122706,0.004945780933457923,0.14465103301647136,-0.7872915324330813,-0.09238705920605979,-0.9228915889756218,0.4755960667986533,-0.9986525622641728,0.8619573086566851,-0.4487608624771431,-0.43754202373555895,-0.6335992862740273,-0.5121510004922741,0.05916971258075551,-0.29672900566036065,-0.9475587309603183,0.5004361508260998,0.4570208125491515,-0.17273023931353,0.2941704412307433,0.15545732643717194],[0.4363480416771814,0.23412505050557228,-0.7663303198682881,0.9957010635091442,0.2864755893639938,0.8524449230723082,-0.2146311684226019,0.7417201469215883,0.8768279034085943,-0.808119151456581,0.9037235970728933,-0.9434405932816045,0.21593353523917133,-0.22886527799549453,0.3434222143326361,-0.5426137910848244,-0.121281422849312,-0.7810040090701061,-0.2528160514553131,-0.9134810516830661,-0.4540797402308519,-0.22544416505928758,-0.4894299830466831,0.506771885141181,0.09994542688513902,-0.3802067087520627,0.5290962429151153,-0.5421642857830132,-0.1254489331179465,-0.1233392515900183,0.9740174869838928,-0.6848382563664365,-0.80256695087875,-0.5892959812859483,-0.6843756419968007,-0.629274204206545,-0.6488207331263028,0.22764741774253522,-0.5682226708248937,0.5805261713564894,-0.058089878942165475,-0.7720190311242797,0.7878673126845525,-0.25866291310632766,-0.5237605612788564,0.3244214656087551,-0.9218451798749928,0.34708774051078656,0.2441708318335238,-0.29329302731444923,-0.34989832790766867,0.8231254450593314,0.8205687482240941,0.9002142924127133,-0.3849378105303534,0.30927957477963947,-0.2854170433534056,-0.5911228015371116,-0.5338116207170914,-0.4099925230082438,0.3448321361141516,0.9344200048702882,0.2936345667813765,-0.3945289472182639,-0.6451984274194048,0.8418038375990755,-0.7732817533466596,-0.6618650302652538,-0.4133805182756219,0.23797928104595242,0.8171030633339275,-0.35873731912034584,-0.3088161138420969,0.3691416070709023,-0.9212304591292496,-0.27571737997902407,0.5109262601604786,0.7870121068639152,-0.15467070115661924,-0.9698962768771554,0.6550855855215452,0.8042450554307302,0.7157080866939134,-0.9659466129579856,0.7689178249751538,-0.21791410956689206,0.1210054620245004,0.902058505671412,0.6987620253117467,0.05734405238219175,0.8183450979091259,0.5661072070053715,-0.4595154620277616,-0.5638166283833671,0.9406681010991079,0.9737548085187587,0.6816097047568374,0.26158190012226207,0.19338575545239725,0.7608543282279561,-0.06446321061072682,-0.0020872738693517258,0.7305583277652069,0.027655433084529592,0.3325665793039773,0.5345746662083899,-0.55752199679691,0.5069172316561735,-0.16237411468836335,-0.07028167739954547,-0.7252954283246754,0.8544349025985457,0.3209010509356946,0.16345893177522078,-0.4533192645773719,-0.2942749197304299,-0.25089243588522403,0.7816841254174774,-0.038731996377588146,0.13093961443683277,-0.4356584174151901,0.5274032783390709,0.7085107124997894,-0.6054545977611206,0.8525498674068231,0.9728106795048815,-0.3609860706096375,-0.9359070467061142,0.7726608806836422,-0.14987872978349667,-0.01747008744236838,-0.37752502009045674,-0.7996978331786063,0.5321103209820379,-0.1726545367945919,-0.06707090124747496,-0.20709957296390366,-0.6441248372248447,-0.0020145295191336715,-0.4219594759091055,0.7817499666088756,0.6319803536301903,0.691720807954587,0.46325545321292555,-0.062277659365541096,-0.49927474149928847,0.04030607213650755,0.8545965338381765,0.8754813910267417,0.7871874453065726,0.7167220566656696,0.1966774809397183,-0.9919078126573049,-0.14071071527740867,0.31953981129471687,0.9743936361862311,-0.3366002180671928,0.9179079439422959,-0.6019734303539773,-0.6724735899882898,-0.33980174414786474,-0.44493082652635035,-0.3395316511960137,-0.02461730287790927,-0.13407396106634709,-0.1702075411139853,-0.8850959545835501,0.3966050845732458,0.8330685603451583,-0.7581457713512002,0.10876109788260156,0.20034024663403935,0.4979740535639092,-0.5390217897193723,-0.5184503279509365,-0.7293117206091699,0.07879823988716023,-0.5859133500263616,0.6800923866133424,0.4840854961056504,-0.014273823236135802,-0.512032019763153,-0.07535176146130336,-0.8504964003423228,-0.8700209288075812,-0.9453552187847111,0.745710450351299,0.30809643169914125,0.46040580196097863,0.42735652436123955,0.47191075429275525,0.09602593878026583,-0.7499502537396462,0.26301673066379666,-0.473041744105176,-0.8975755806391514,0.5289898774564106,0.7764403169984171,-0.9397403286386484,0.7583148945800442,0.9506371247248072,-0.41376576312329505,0.1528657420382151,-0.11415492139953706,0.6499430169967247,-0.5074105907128206,0.012627009831265062,-0.5843865275022829,0.05773345391126243,-0.8342267642966038,0.23080093918431707,-0.4793000719893987,0.5022146630558376,-0.023176323534655038,0.8827766564647385,0.5966569754067451,0.8668187365253855,-0.7824416974641062,0.992818032303323,-0.8208894958342782,0.14877985015235717,0.17716484783254333,-0.43689986672598496,-0.08929280037574808,0.6980754916358786,0.5995965985551535,0.45050245237397374,0.9995978103136449,-0.7028393467240294,-0.6513728161261682,0.4195250709766616,-0.8927733002234848,0.05968264897204186,-0.9576115322416521,-0.11570036588093649,-0.16352345466672977,-0.8620296060282783,-0.33892798220465653,0.09019503864690581,0.2485915991174514,0.578364687880662,-0.3471494244383264,0.2971030464287046,0.45118194251075455,-0.621783598056787,-0.39259699917925994,0.3740649425579432,0.592354998496162,-0.19366220231949802,0.34400399278645055,0.9328478849384954,0.1997021440550108,-0.6599879299880355,0.9713932550901327,-0.5082708237047775,-0.9636915824056713,0.24640865962160943,0.8124733205209524,0.005266270770455285,-0.048952047324103104,0.6233722190431865,-0.7501928616759489,-0.4108433004902433,0.28404245871064043,-0.7233561244632372,0.9065006347745899,0.37707883627691546,-0.6304584325549992,0.9284506816545938,0.18619932241585696,-0.5983313269673872,0.003484848750071148,-0.2730279415257466,0.6318677741357369,-0.3363012143602447,0.5025102710776748,0.7317513672888334,-0.08548445355467577,0.5076984062421502,-0.8611190173490352,0.4418794717355079,-0.34282864408580327,0.3906167799046424,0.7953458681387324,-0.5295478833955994,-0.6591764068324338,0.3254815143032761,0.0376206556231599,0.5030723332004415,0.5021929722185933,-0.6689100700255879,-0.7581287854076879,0.28067190904426464,0.4961116078361461,-0.3118804343838602,0.5676957582751498,-0.370569018983928,0.7875451052547806,-0.6837465292051552,0.8314989637916215,0.5970861948440817,-0.9461462387347439,-0.44406110580361474,0.35573194625917093,-0.46863792587070313,-0.7144593977338426,0.36373878723758063,0.16749774870362785,0.27705525444978096,0.314172276499181,-0.14590284664173198,-0.42060709747016795,-0.2907574303836192,0.7411795038970481,-0.9618858847769103,-0.6392490236027862,0.8552326678284036,-0.0875246927485683,-0.4491284549417694,-0.15200265655446998,-0.18010079708109947,-0.9644288545552864,0.943143991278253,0.7880226191649583,-0.9561121972791887,0.7116661882804716,-0.25525819508335446,-0.8365894618973099,0.08796056514484976,-0.8398676071359366,0.6332745356480309,0.29849518423019117,-0.4314130834924321,-0.08574537186064729,0.2608497074995069,0.6040962856498205,-0.7375527007369284,0.18666152511299938,-0.8460047277728374,-0.9275774843227814,0.774441609841972,0.5483261888448875,-0.33090672239070495,0.460926939755079,-0.3882328736106779,0.012689218096205346,0.1472984052804893,0.12107883068438693,0.3127141282362747,0.1305735265774058,-0.27810681704552837,0.9311129706929301,0.3561305001976731,0.4879409022851781,0.3289315960013924,-0.8372399973907119,0.06184060332744718,-0.9811292766536072,0.5584210384641325,0.4741611087552907,-0.13449084194983654,-0.9102191015543144,0.7304171807727706,-0.6131354112125532,0.8352123796738512,0.12265396854350284,0.10315491414027313,0.8101977762129116,0.9447317895389674,-0.40366721613227735,0.7817378834940101,-0.9396797827744194,0.33382110165065415,0.6115557914023608,0.9674786001743285,0.23054235675918516,0.5394902498753544,0.9033969889969673,-0.9139596356968827,-0.17469953999320142,-0.2346431178102645,-0.4051369787750079,0.6005993474480756,0.17817364217026713,0.5754920218542267,-0.1028576317584509,0.9007833017729691,0.5536581639903773,-0.5485734167510785,0.6437695357727165,-0.5397171472093535,0.9816939801628222,-0.5916621949161315,0.8863719761859045,0.4466505908030256,0.4551750992551493,-0.1639696024252089,-0.19593430385963906,0.38782286840731484,-0.05960336279678782,-0.07795162582888059,0.721110250159869,0.9983702376689024,0.7766780396720904,-0.36886992470666574,0.1813906773912521,0.608296018596629,-0.7808094988810893,-0.1732968796976975,0.2525540315079213,-0.947259366336788,0.8353077337385426,-0.6092056244345075,0.5810609956257449,0.40997186148936127,0.8358327361909542,0.18432953588087103,-0.5881961425707233,-0.7136701473190618,-0.030679699401291727,-0.7655631895027112,0.7226111443486062,0.8071460230026817,-0.49174682341022385,-0.6188002985260525,0.44109658582527267,-0.4589150635754545,-0.9496458463036027,0.6094521212919704,-0.8176118280884855,0.5634290143627446,0.22676486018906725,-0.14152916158471565,0.8295029531673556,-0.6398801417165957,0.2035557241700933,-0.40150525606343657,0.7968546198142076,0.547431777824266,0.6431571155380843,-0.7011264210856393,0.9293419724797618,0.802849598228524,0.4835738469710241,0.6863467480894366,-0.7387445924375821,-0.554229422133884,-0.5744995018802738,-0.5991924227073746,-0.12224332782754455,-0.8082549993533709,-0.05404211105377797,0.13374017364736643,-0.4055878434058943,0.9859348792964725,-0.9721524320729945,0.7448581672480646,0.3692848460545987,-0.02513649430107157,-0.9494847315649516,-0.39961533808662225,0.2511463698535271,0.755947137774329,0.578471583209944,-0.9079273848090408,0.10353378009787198,0.9976608711519266,0.1114651711476713,-0.6379774180332617,0.8838324672289415,-0.3378706259920282,0.7970152011178318,-0.3611892888093151,0.3085412141330183,0.6247577223969587,0.8424514761370989,0.38862975680030826,0.7668000173755446,-0.33014595991927514,0.3989514085292311,-0.8412784532148007,0.7957083524792657,0.4774584171746232,0.6403019469627861,0.19764982737638495,0.6461794615662542,-0.7366566965710452,0.1017373103502983,0.9398697960126383,0.3214654340943016,-0.6295265656411007,0.966517907147035,0.8899348157768842,-0.47281615914166175,-0.2911777685090502,0.762303279406401,-0.9102174645694657,-0.7201319939872384,0.6537102581830484,0.4543389937122962,-0.024983042910105925,-0.36196231104444637,-0.9595075501627405,0.176551154604585,-0.508039439819547,0.4551438168079968,-0.09891237810004644,0.9466165683967117,0.4129587893311472,0.7373416492254049,0.8156149420283164,-0.6740447204568726,-0.39760782675278344,0.21444316507423,-0.4554800297908186,0.5729640800579809,0.0752612658930829,0.2866263704225123,0.2772606425541662,-0.625960612216429,0.7395793851456084,-0.5874525991466116,0.3205334502736887,-0.7128781846730322,0.6707789490695407,0.23706624013006025,0.6990516245137638,0.09987384424202689,0.2727836135382988,-0.0010252479486823076,-0.7063630976066929,0.4879451651692896,-0.872620333136754,0.35166229704921864,-0.4492608639606624,-0.14512968565815235,0.9450224104141688,0.8619649256296823,0.818498231530418,0.30917433059905924,-0.5145995750736899,0.7249333164773898,0.009181227948179957,0.2192695644913378,-0.7447296434775555,0.6638144910866332,-0.8493632533131724,-0.20941875160741666,-0.8754871053263121,-0.432657806167089,0.36609133736077965,0.3401686483753727,0.6629350839254294,-0.5543599761885089,-0.04579829146336353,-0.5750367842010736,-0.7904277343823599,-0.37149695173446823,0.39663657272167535,-0.20561479019739173,0.32422302954064713,0.09863441923556132,-0.2027230897564332,-0.37006757526284245,-0.806384635567653,-0.058421458038311974,-0.11440479161213729,-0.3290372419573116,-0.11083774734820889,0.9868481885958361,0.18643845622142893,0.3098767420085195,-0.4593417839693928,-0.3734726576726933,-0.7225726552386987,0.3761582407807437],[0.08938169221851473,0.3582208990344039,0.8758620460083203,-0.22143530048499754,-0.6199575631626867,-0.8667337576571837,0.04782021392968601,0.18140363185852754,0.49341167180077183,-0.8959636657806788,0.5079245357819403,0.30502079554726114,0.2795793077890879,0.31845581918027477,-0.7821696172679916,1.0013852088025796,-0.07664053006229701,-0.4596038634711094,-0.4125727766078292,0.6467611146833855,0.17863629494413652,-0.13733147051510225,-0.25804292813698526,-0.2857751100180118,-0.10480205247751208,-0.6441722171336931,-0.31464673681842037,0.4376038727026387,0.18838008308284399,0.4970837809265557,0.15991988327609424,0.10981286065056646,-0.41084976306466425,-0.41439761622800575,-0.31759567089381424,-0.8190562941231844,-0.23075032148424546,0.16671815546470503,0.5006308644234333,0.9182409257085616,0.8202808816316848,-0.2770705133981116,0.8828983778873488,-0.4901186423942694,-0.3958836838456393,-0.6464964752490135,-0.5079574015241325,-0.979033001640784,0.0806714556970037,-0.388204175194241,-0.5849299735497883,-0.8972932505724548,0.3993292834991048,-0.21775132767751887,-0.8182807803506781,-0.8030971843168052,-0.4623787097870139,0.6052504782605478,0.4236746087839499,-0.7385262768847559,-0.7696700916779194,-0.32888463185527195,0.9085718716598692,0.6350671295864956,0.3244186366094542,0.8723406069530619,0.41791523664209046,0.24893278916697392,0.36892367822730926,-0.05112978074610422,-0.05904947182670791,0.042909235339034346,0.4278190464722774,0.3253930668225492,0.10324394175898262,-0.9797204173494434,0.428479407774226,-0.27086612636744495,0.9812734119459658,0.5014301612350203,-0.2828352171386706,0.24586722502084973,0.5588116641864932,-0.3250035532817594,0.47150565211659273,0.4250725363917519,-0.2950805519583236,0.9994996528401554,0.2215670609152522,-0.9440749127007723,0.6375419386691156,-0.09977654744724494,0.9485716049253281,0.6828527145674234,-0.9077248461922879,0.5806784584119419,-0.07236752345771628,0.11536935012769896,-0.6599859409758027,0.5546971372920366,0.6647894902752168,0.09264390797255488,0.06556096409920184,-0.7935854455342128,0.4026405235307396,-0.4154458577648356,0.18654873746374395,0.18304520177858705,0.42966010494943335,-0.8201439320737385,-0.8592566694976697,-0.8298956527509761,-0.39463401553119265,0.3517350461287694,-0.23190943952327425,0.563848380583419,0.29003695478674324,-0.6115947858195969,-0.38667353750554556,0.0022892944677308565,0.9983092967051873,-0.6004664110982832,0.2238724144161057,0.36934182952159506,-0.663583301389838,-0.5202673698129011,0.6367710505123667,-0.2628736004502736,0.4669648146478537,0.8609722541220393,0.9348801199053741,0.6426596362493902,-0.7770600022521952,0.7880860029673916,-0.880915305536245,-0.31069442389922286,0.5496070458534618,-0.22289026144516377,-0.281392679130707,0.8436304029076832,0.7712157664972034,-0.13852886724893376,-0.6086548517678115,-0.30908395153255797,-0.357209185009956,0.7954720007848709,-0.4013167320886129,0.7055147852816819,-0.3598528812976653,-0.023941960778575008,-0.12345630764816908,0.775902611288469,-0.38878438516119146,0.3185057804183813,-0.46424083326484317,0.39306833256478896,0.17665487026981558,0.26916217250432817,0.0826309667071245,-0.1630841199279502,0.23463267913264022,-0.822435350694354,-0.08872058736145967,-0.7708503211436053,-0.6586875297741941,-0.4345641685036698,0.7163911288797622,-0.001688060978800151,0.16772820804299454,-0.7619334372914819,0.11338430354422653,1.005332748339672,-0.8480090424660749,-0.7905910791123177,0.5088249480989709,0.24852553747073353,-0.5842087821898493,0.8561455634629328,-0.11629270213257056,0.041960588077469996,-0.4269519764547156,0.07041485968658366,0.20723734108615746,-0.3577334087620714,0.37363512238802765,-0.3034502110428923,-0.036416556961981504,-0.5866622201054835,-0.04495367746584849,0.2897103066401231,0.3270437593848739,0.04204020569503969,-0.1739202155168919,-0.02078138219315193,0.8575455294169744,-0.22225347724210168,-0.07484906463474887,0.9716835553836062,0.6350051669501408,0.11015326111921377,0.7623484092060949,0.8343055268518026,0.45837184075098303,0.3022373869145191,0.883151235838645,0.14714708275235167,-0.06769390009115459,0.14137460600407079,0.011712231819952816,0.5256884838001051,0.06184973680562206,-0.4703449137668546,-0.8981145272879485,0.527637092191071,-0.8747934722784181,-0.8194051446954617,-0.46413630647782045,0.27412924467093963,0.43254590988611064,0.3710981403089121,0.17653292300100942,-0.7266723226764665,0.6350410559996403,-0.6427960379944313,-0.03650482109023127,0.12402642039950706,0.09075839042267823,0.2795249328066774,0.25461151357452416,0.4865586023912696,0.2626686437175308,0.2384824520198975,0.6259830872455356,-0.27097954243629335,-0.15852560460309464,0.7390395615974917,0.14479856781935527,0.7650161129819368,-0.830917951600986,0.33286387242082405,-0.9309862572839208,-0.6404675002490193,-0.7458315567877618,0.7528075785927799,0.17507107659656349,-0.22882029482608912,0.6162613598212717,0.8838487820689792,-0.6182721902018787,-0.5375193357137069,-0.3559889691888581,-0.41386299253392667,0.2079807985622944,0.7741715139108762,-0.8796483556848013,-0.46165671825734866,0.7622574676742637,0.5362325047573476,0.477015019417189,-0.021700718919952167,0.38374951809685426,-0.9341085357806329,-0.9181837675098485,0.31071031570734886,-0.1586690169207816,0.2955886238887927,0.25445354300283973,-0.7384739370280962,0.99783639057383,-0.8726529022354644,-0.9249466348978155,0.43830147467406416,-0.5939135320632292,-0.025516571815360236,-0.5984973938844321,-0.3697680709561014,-0.892068788012051,-0.3024268652937676,-0.43108073076394887,-0.5435346287725065,-0.0568189974817692,-0.3624513023194723,0.853929760830784,0.11657436652615817,-0.036307550828692685,-0.29837442603618547,0.5537895633909596,0.9228032245862313,0.4148813803244121,-0.027894961584695344,0.799399114437922,-0.37495857733665494,-0.290267359288791,-0.8039329446408962,-0.8631891341156886,0.3340691517352082,0.37449740695585215,-0.16024727520996718,0.5981981725943607,-0.33509015873840675,-0.32660795250938185,0.3894172674869932,0.43836323405731403,0.7248547172524036,-0.12622685451805374,-0.39092645498025197,0.9464874419723105,0.5853914035318077,0.5555927799800351,0.9026806296278052,0.4959262420156641,-0.14980553805197933,0.962389721180421,0.26649937636547993,-0.9311424191570402,-0.8783917717060701,-0.8911469853756158,-0.31777954846588236,-0.28716863670429577,0.9045513454381102,0.3617215439908064,1.0127258569815272,-0.20081723941101004,0.4539784459250028,-0.05354474234232977,0.21511418625507248,-0.16840417317762846,-0.3323078299111974,-0.5574006391411528,-0.25603231084562256,-0.6374955998742327,-0.020440020097276905,-0.8389554875371807,-0.4026669912999966,0.7020721801420143,-0.1576785996467718,0.6883526557737033,0.24956619059108373,-0.5263304332451242,-0.11621585224469771,0.2948273929540902,0.3188816835276883,-0.37558495738002967,-0.6556998868515888,-0.5337497621735234,0.404920171572589,-0.8951295725813894,1.0066596785953077,-0.14771202071050862,0.8293557214497178,0.18000754633700683,0.8232382940147258,0.3295436028661741,-0.8025772920238775,0.4104288394621944,-0.44372588930731804,-0.22808361514211306,0.6025093018766311,0.18906934155068475,0.6084457960772021,-0.13915584450698865,0.6550906262537958,-0.17396559438162532,0.2529484652651441,0.9343044467976144,0.083229988166941,0.8899217328744036,-0.9643147750005667,0.08962219053039074,0.8909127095052916,-0.7421902472306188,-0.5609339336593456,-0.8317279195783215,-0.8725494326902559,-0.958732011120799,0.44362857986502285,-0.3189471274221128,0.11486675513988902,-0.3760176213512186,0.02561456610994844,0.42298493299845524,-0.934124023604565,-0.8216908732250232,-0.06251586530946611,0.4421872116648945,0.07344269607149814,-0.43867247848470603,-0.25671845050149933,-0.1242121155280726,0.3157734182526494,-0.023759336824662067,-0.7144727357303222,0.4371937371254906,0.4394124418636555,0.8363984939119615,0.6066649256007087,-0.9281446555839871,0.5025089899949291,0.6320969354278391,-0.5149360703277274,0.626099708357824,0.20356794780377688,0.530371421757296,0.7857537315959783,-0.3310730343811611,-0.6409583662111682,0.27627608740090404,0.8035660949797983,0.03539816213923071,0.4115265905429016,0.9055767553744829,0.8891412681507173,-0.2538637600669022,-0.39386092430619174,0.18988747018120125,0.930761035688908,-0.9456169729498531,-0.5217371768663069,0.738860175423884,0.9609130427120535,0.2625237012976258,0.22048039043473802,0.7587373400850076,-0.8083769949920808,0.9527860257892721,0.2637224104805876,0.581375662117501,-0.36774573963219254,-0.138939380637084,-0.6131340640554518,0.3764190230207797,0.5362565829304659,0.7834516604179939,0.046498418889107884,0.4228240764722113,0.35192776980328966,-0.3116352054532121,0.8262029740749199,1.004258628077368,0.405621257708399,-0.4391330521918346,0.7114710779038192,-0.4084463704223898,0.48220419377229207,0.2744964942639095,-0.8943443247834382,-0.07800011344645269,-0.020823403260419697,-0.5247092920025137,-0.20695327232760893,0.12454239386860473,-0.7802795548740811,-0.28275666791999793,0.7384390917501391,-0.10487011955891047,-0.13325557014127493,0.3120738507464512,0.6599612195231342,0.05006591842688066,0.4740957506559847,0.5876271495703873,-0.036985750496201494,0.4521902284831747,-0.6691932886429727,-0.09747287686051734,-0.14449233486904275,-0.6593581710077956,-0.8229693013306432,0.028379020540660896,0.6927370321144681,0.22798088999781124,-0.3662003717612927,-0.24351346373048827,0.24517588180561434,0.648993190042574,-0.16945661848256627,-0.1466713898921203,0.09914015512142545,-0.14545573751368063,0.20402988014679418,0.15171797418199456,0.2421582904282092,-0.3030237598835358,-0.49236664692152915,0.9892180289483347,-0.6121708196172863,0.7388303127354389,-0.2573330883331259,-0.09360138997851346,0.24768192850931067,0.7525841717662739,-0.23708626586203915,-0.08015444581345758,0.4010596357804869,0.7430023053149372,1.0014957056002596,-0.7294643912610796,-0.8061386613190756,0.33263680002851637,0.3493755631702037,0.07637748663255876,0.09404767040080116,0.09319648920723751,-0.7802085933109836,0.017417147478042027,0.3955055986372392,-0.32696163946140333,-0.8276882611921109,-0.834972333883676,-0.44074651153176136,-0.8321516166356618,-0.82653113617656,0.1348940967872836,-0.31220974624724257,0.9684029211585645,0.3611506030998003,0.1504801395380875,0.7223746282609181,0.9083042488090507,0.20213791116687463,-0.7118169913165088,-0.195619894113727,-0.8835143642615316,-0.3373508202443022,0.48549837445231236,-0.4278310390132486,0.5243416115785132,0.884876557888349,-0.7242336428343791,-0.2331692108218491,0.5707670697990762,0.8793049676845935,0.8385805199258493,-0.3859552932569975,0.41594099125674144,0.5989954671073819,0.6616596089622181,-0.7541506535688544,0.8965840638368675,0.4286702217067483,0.3190142541032447,-0.6077038957053503,0.6749997688850721,-0.6471605979654177,-0.14924229329453248,0.6946629204452676,-0.49907818221661127,0.34413269432052995,0.35597565746735593,0.8748394992576672,0.7070034734836396,0.7677351933587307,-0.7829868800977923,0.37865931655293783,-0.5443562556446212,-0.7375287044741811,0.6184870646302713,-0.7337907136908256,0.8048172222993605,-0.24991285128155405,-0.6592542075056721,-0.6377457977539122,-0.12425248321826347,0.4418634929958366,0.47735291878240627,0.027136667004565376,-0.05080147341980849,0.6920509344777063,0.3152031652321162,-0.7770075104069539,-0.15332538752970332,0.03325315082250016,-0.7392781158898779,0.9137445222319432,-0.755656763091099,-0.22206103832277718],[0.1970938675939746,0.1605125994894879,0.060005114725590315,-0.4811369733417919,0.8399876166629167,-0.8988275673312945,0.5708098912078851,0.1485186482029013,-0.48314082103905387,0.30563834622492375,-0.018069274671421397,-0.8052151522405125,-0.8856586318477587,-0.3845438007767538,-0.26130299774792115,0.5267356321605932,-0.8493550768636753,-0.9286966858659328,0.270001327535023,-0.48539526233708435,0.8712926789255021,-0.8215282317007498,0.07641710520433212,0.20094468071805413,-0.600849314833645,0.5720881344025807,-0.38488394560212597,1.0161501255267742,0.2689703069312408,-0.18962381298143874,0.6792543554173759,-0.17873504409289345,1.0071228412386226,-0.2621007384301765,0.5935798815611683,0.36115486271790315,0.8434692877845992,-0.3222794962127938,-0.8374911748736642,-0.1635358507124132,0.9772134564523312,-0.6410736028666564,-0.7113297403347437,0.28346317705520196,0.20489744082575043,0.21058742875545453,-0.5320171616031976,0.2775121479534136,-0.3140418408223821,-0.47353362611435307,0.06244611742742919,-0.30876660306808484,0.23397430299613117,-0.6139500250776869,0.7375291569813128,-0.9312472314075081,0.38753093263553035,0.3521569032848751,0.7719049245864463,-0.8294447684306453,0.09835225791767993,-0.41209276357466706,0.8069557555985712,0.22746028145037286,0.32345266887599755,0.22381033307661635,0.5797038702510589,0.21449074396158757,0.06204041851760042,0.2956327893363631,-0.5122377446633694,-0.9469445527325017,-0.6699614074831598,0.9170894299093996,-0.35956368392134824,0.5486649354175307,-0.021558166493253355,-0.23737374867412286,0.8581356728455831,0.310820867272469,0.20486640676326393,-0.8925806271494272,-0.7689931223478739,0.01933720763700355,0.462749093040194,-0.21781670570058578,-0.8527032927174807,0.7023908819071049,-0.8959095818224745,0.38250171160046037,0.258856912564995,-0.749278524384065,0.49568630550974857,-0.7355388887220449,-0.684641933031758,0.936611145286015,-0.5405941077941482,0.8651488435236209,-0.669525469524052,-0.5045312049888361,0.6723758474956028,0.3695889682613205,-0.07829123782005598,-0.41843616197965916,0.7875497867883424,0.8127342461498919,-0.0839485296594027,-0.7933337844185486,0.004592898084154084,0.0007625796571897193,0.7290838288923385,-0.8755332668880395,0.4826407031708045,-0.6486234014059017,0.8792185293143602,-0.2792792780113134,-0.6122651320252477,-0.23753242603851443,-0.786479360745579,0.5358579248716843,-0.7100217862012109,0.744764106724275,-0.4682011323489542,0.094073526556508,0.430611396539821,0.7545955738250996,0.2244736355992014,0.11812363330427977,0.7421985160480685,-0.4409574518800908,-0.4075633019246203,0.8778354589031705,-0.21486248445179562,0.3870373044588603,0.36309216624272594,-0.6098628298737767,0.9526640881524172,-0.5619460107620106,0.15195311092525182,-0.2896086420351159,-0.8846428343317916,0.24350840075896055,0.3191261918748108,0.9297966617991859,-0.04574627310580665,-0.4163340267260375,-0.033175673355818905,-0.2531945897837233,-0.7942215551975188,-0.19756898659025807,0.4555424073249995,-0.3666599641783555,-0.1434539052279581,0.5569047978711882,-0.2554451966545605,0.6305772693327568,0.15376777666257818,0.6086543515560767,-0.40396577212492485,0.6577473928940464,1.01114143961182,0.15964666216456616,0.6753698360993848,0.6259417670507607,0.9317366913120668,0.45733481485478955,-0.022182664373798157,-0.21098454266094344,-0.25030815123288813,-0.10952768407197548,0.4472963164732263,-0.566932756630732,0.607055548830423,0.4744743122243042,0.40602362091936434,-0.2890249997935215,0.0397859744422563,0.3407247141042729,-0.5849613538358858,0.2051386425654408,0.8792187726184952,-0.6819565273881482,-0.7591479619822527,-0.5981100905570044,0.3736305140987325,0.04196821065005906,1.0349036433075018,0.9045186003078911,0.1524382304008262,-0.29780444486038726,-0.0773452241221986,0.15543430928511265,0.9294550553388158,-0.4147911866599194,-0.2260184160714057,-0.558717458665014,0.11122916034905846,-0.01716621268641249,0.9193326628931315,0.9467278587136232,-0.010830613694111067,0.11469073388568547,0.4694762994412483,-0.9089575390155599,-0.33221194564370915,-0.6012538317305464,0.5496825616881688,0.0687943607175333,0.13798754305618388,-0.9442217251622432,-0.61312501889883,0.06853420898886875,0.06247824803636271,-0.933140348406322,0.44172219168554444,-0.4373853161441012,0.7045033499695849,0.6077586368772512,-0.7200617577898208,-0.09543007447061683,-0.12917605946435962,0.8576803634229386,-0.001461313780762526,-0.8184503844523384,0.055851694897257664,-0.1951864697361434,-0.37689345668904006,0.11480779009606042,-0.7182632126946211,0.38001913373609053,-0.06310152561512716,0.14030954371898144,0.5539817214732117,-0.8585876303307336,0.5218487002424442,-0.12554859553784695,-0.4829831790853274,-0.12001824199724323,-0.4567023991572633,-0.012771510863408268,0.13003582367799787,0.4017111016629054,0.5131694683722124,0.23978938773944836,-0.36630162339561556,-0.2214094862899593,-0.8622373704296096,-0.12789090903377098,-0.7363043559939958,0.6645277785151957,0.515659366037169,0.632254907186596,0.3009440529996487,0.0759389322103747,-0.20371650201070723,-0.6137186404743221,0.6943738930682569,0.5229881399051691,0.9761854122826644,0.8788035165573568,-0.6034284844394128,0.013352630322375034,-0.38419765863797894,-0.7064361225558539,-0.168711563331874,-0.3488333250514462,-0.3294072339848092,-0.058127083809515784,-0.5833957771526349,0.7114281529254238,0.38407679884444496,-0.6047735534013582,0.07642702731070103,-0.30865040183971204,0.7617983016468156,-0.9192404796208408,0.2126665490312446,-0.4415272454303945,0.7153117238233231,-0.01967133825996424,-0.45536689976714195,0.19497563290334202,-0.34051275196044,0.6464097546666443,-0.3525806453863936,0.1664401549537197,0.2063821689925636,0.6529016262483661,0.14409451626280959,-0.12002544892575533,-0.21801461219697363,-0.6976784316703808,0.9825027023345968,-0.05478237339643143,0.6723244433888285,0.6666691833902282,0.7297278852281472,-0.9504639305571897,-0.8964515473697385,0.005832554041537175,-0.09411396734218483,0.4187224973301262,0.012500980257452929,0.7873542215989686,0.6683578172678856,-0.37143020455438003,0.3136671321335905,0.0904432470564094,-0.5280902790307943,0.13475325923442158,0.5832197002464871,-0.6565483855173796,-0.28164225053882336,-0.42591036230066726,0.4252208100746753,-0.3427005207131469,0.7348961758545294,0.5322760255749904,-0.368147070297804,-0.4371957010642253,-0.3628715619162797,0.14408224854318272,0.6185451081143173,0.5243828006484245,-0.27226212627803403,-0.1887796359868628,0.5430168535589424,0.5348188175396712,-0.6351346826639459,0.6607229042583186,-0.6677195460741762,-0.10409933511755441,0.6868453527578223,-0.7299459542027453,0.09168613651844267,0.597567352109469,0.14884611979504078,-0.5925104131593011,-0.5670587083540786,-0.20604466540977506,1.0431461275846214,0.6621594944844701,0.29717391658456044,-0.250044640537853,-0.28394357386741836,0.03237257791747707,-0.4728221657293043,0.17937374148342544,-0.7182494431535638,0.7529293156766241,-0.9015924356352475,-0.45652785218540204,0.9525009839613161,-0.637360989634581,-0.11870045898805436,-0.0406151888121976,-0.08347103400376372,-0.5765581289163261,-0.11951757948391296,0.12425174328075801,0.4607022768604028,-0.08755771593492848,0.4292511343930282,0.29306732551137477,-0.31731610187461706,-0.36486004631175156,0.00014498195199057245,0.9787777536706876,0.57752983867756,-0.1326006680387909,-0.6103002965147453,0.34182131886105527,0.8156878990570372,-0.27398748367489495,-0.09955286142276426,0.2887712317412446,0.6509345053216938,0.1654422250345869,0.036831632098458654,-0.45275111102758775,0.8007151907647022,-0.3757402301896497,0.1555063455833166,-0.7461248306854426,-0.2433060630645506,0.771006864164401,-0.10605225543097774,-0.23108621428599238,0.8227238091872426,-0.8123147113723796,0.5555884460003088,-0.1448850603795909,-0.8118347333957201,0.7482369771852458,1.0319324514928339,-0.8666091110104,-0.8363646740704611,-0.09642215547202082,0.5671501943132334,-0.18222888731702286,-0.8174827435725741,0.99953136867694,-0.029906185125315454,0.0613097989235139,-0.0035913286205318143,-0.888820829002457,0.6493386060615883,0.11496735574905521,0.13777514843715347,-0.0823219013419476,0.34777002185382405,0.5186625205454937,0.35607774648329615,0.4304810547873245,-0.22704997532191493,0.21447973970825168,0.4750558294626618,-0.3387965508555255,0.8437827742543621,-0.0821818902976135,-0.1726759672807357,0.15552044593803843,0.5046801952279046,-0.5162653931794368,-0.8216394223720068,-0.7770655185246607,0.35973645810082255,-0.7198567958365448,-0.051385840244528885,0.19734143348916142,-0.6102452559780075,0.32900862241741785,0.5476072683728629,0.9317888401232831,-0.8669346341953943,0.7114699198060369,0.4466649748649713,-0.8161827058195654,-0.31962878461544403,0.6312612561814351,-0.48453598909220447,0.11702339082380525,0.10895297590705964,0.09301297670552137,0.0034874125805756232,0.09610860755207848,0.7507527531840638,-0.48476363982969206,0.891302259961659,0.26002585814574586,-0.5416470863011678,0.9420159038417488,-0.9296131526778955,0.7139946291870362,-0.8589704204245047,0.9689045573209253,-0.8204691426580698,0.09639774635260333,-0.6122888490606686,0.9137376567748821,-0.7220641971952116,-0.620899573669867,0.7507597128720858,-0.45344941469566025,-0.14138543587855557,-0.7562163757904942,0.19910797648205672,-0.5868939117568895,-0.37889201694250135,-0.8821597037262748,-0.4185551418409809,-0.15337505278704536,-0.12398408462544903,0.1659745639166176,-0.004226415097395749,-0.9522527160421596,0.8953713284855845,0.31866852934832246,0.31020188386825814,0.29433553299247467,0.33294575847151214,0.679582334497055,-0.7204395553533763,-0.08804818577689856,0.33096789885364186,0.010614832395118368,-0.905652779710567,0.4406712470905115,-0.28427069101236074,0.14444869360558857,-0.0414103089806299,0.08306820099177441,0.04643469352704101,-0.5668421530557581,0.2851955199399991,-0.7262806685881131,-0.7994201852423174,0.5383847381824384,-0.16157115883748938,0.24155543243106417,0.8220928180053774,-0.1363684774074563,-0.18242597912541483,1.0303056305972351,0.9135636138354385,0.6010269906500129,0.02431593132148158,-0.8746681779753799,-0.40634482679272715,1.0420791569475072,-0.9191310847709974,-0.8733308274884405,1.036665058475747,-0.5096168524482261,0.6298221146819962,0.49226834632978983,-0.7267485912707646,0.37810538485477935,-0.7559632554815922,-0.6091883212881481,0.07220477698761704,0.302919656856701,-0.27581965125506097,0.7905636398214068,-0.40378883372405755,0.1992142500549323,0.3001443194896088,-0.19002403907684154,0.828516536517233,0.9558998395902357,0.05694428488932032,0.3874747565675139,0.6166977802996249,0.9527761078370501,0.8255305103611167,-0.15950166328898255,-0.9343660886556323,-0.1764483210290724,-0.11056658609512478,-0.6332745015643363,0.07120105005742881,-0.2747795429349564,-0.5601577824119238,-0.9511116816377959,-0.5049769591619503,0.02770170009043162,0.7103458991654216,-0.29185484241158094,0.18572739222398169,0.3216763656991997,0.5571246175148273,0.7532684312838752,0.7502963138155773,-0.6906878451843478,0.7730429700594034,0.30270753894857255,-0.07548949145211968,-0.5692520262018713,0.05439491835414773,0.08529407579699996,0.758425699898004,-0.9406880291670053,0.366623285943011,0.6312626479704441,0.4806003393428549,0.4474806370170173,-0.17697298997671232,0.9049177925381168,-0.3115599286042669,0.8793464701015089,0.619638326782095,0.5970456516687471,-0.23304929736415417,0.9289454203349187,0.8273373511662238,-0.1945880306231592],[-0.6529527913260487,-0.27523396224461383,-0.6465183614555614,-0.5617169449083659,0.053435967633670256,0.039413042059929446,-0.7683662872840458,-0.8791149448985753,-0.1572915104871588,-0.2304565643319487,0.40471692342044596,0.6568415384719075,-0.22191236051259652,0.36924510148832335,-0.3964636682087496,-0.24960611938597654,-0.4625776646743904,0.19547239051183343,-0.15071276732068492,-0.2458544434413348,0.8099427008456979,-0.9455047040372122,-0.5552005924797503,0.1425041496452291,-0.6208356320684656,0.3034606446050043,-0.21598982773253292,0.1442779138188575,0.6013367923129835,-0.5878826383349085,0.675664487887758,-0.5193338495707343,0.36209114896357475,-0.2577028542629538,0.43642100401014483,0.571057861312243,0.04740858888460036,-0.20950806688527018,-0.7129542635204444,-0.3775428848246058,-0.49431857118711026,0.5759387079234708,-0.007256122832695377,0.3883595880532935,-0.7018508772143477,-0.11964226091339923,-0.39289901355262513,-0.17080846008573866,-0.7035984771710493,-0.2944068504692061,0.0076666143483482985,-0.8222739008095572,-0.22403523053535654,0.3900940285305179,-0.48500250961770963,-0.7344623437565128,0.7743255725715494,0.7991276255632878,0.22823732125249777,-0.7180148468997745,-0.48992370413524644,0.12407004600980905,0.5807663025677933,-0.194510959282152,-0.27224517112611524,-0.6622380636431485,0.13082869714611803,-0.4113531188614029,0.09416970148431626,0.6368177303244282,0.08479068223954447,-0.09866564127804875,-0.5079531997110704,-0.41601607529437246,-0.10936255464379167,-0.6317155647423572,-0.5870197850769825,-0.8346847251840485,0.30621869739062263,-0.6357663221026665,0.4767662533521078,0.20129278578695006,0.7226401678444591,0.7487578180466447,0.5494633819484459,0.5864734087133159,0.7487090693309842,0.3150406432011896,-0.5260391180680212,0.4478492576593912,0.3027475351016125,0.12933081550017145,-0.43380129486051644,0.3500457848380201,-0.12358794154850163,-0.3579998797031019,0.8106751322110273,-0.536749210190627,-0.32225716702501167,0.25899803925683007,-0.4396486879970132,-0.9160412022647607,-0.42387357256532576,-0.297062539914121,0.16553353585951544,0.36902081419227456,0.14404172577275504,0.934232640822677,-0.9264909586115795,-0.03222875462220854,0.029463864243674875,-0.5036939069392719,0.6836856482626326,0.48164494167886623,-0.35988278462101586,-0.2978183086906288,0.6013814955741662,0.8810113855347427,0.11464899808379073,0.7907709112171051,-0.7102653041900404,0.7957773176391177,0.5649422831972671,0.30558917859994916,0.076346584431105,0.6688565757396808,0.533156510617715,0.13554899206260035,0.5128761907764262,-0.3410489952292616,-0.17139619679873877,-0.8719694856180713,0.462992286501128,0.435300224290783,0.9327328794759276,0.034329639162727944,-0.4610384443169381,0.11970243670289653,0.5469524939306185,-0.8671157420970129,0.1270622119217825,0.006629243064110923,0.5494342559232228,-0.4285752575646522,-0.8303886278141532,-0.8526988030410912,-0.526836885055684,-0.2201367910972013,-0.6097607585144298,0.17310743189851643,-0.7306180474399845,-0.7698266352175706,-0.6288645487203591,-0.11783349729579962,0.2610775368934183,0.5258038060872183,0.1271482541732233,0.8730829623934372,-0.011197303628596632,-0.377578884832834,0.6049136036138484,0.7545267621385512,-0.45354647578783036,-0.2881322032790624,0.8925220379623222,-0.9690043515708611,-0.8156827972057521,-0.08780587029620465,0.5889305527672244,0.5784772415416018,0.2230899010009098,0.08219754589629057,0.07190175602974198,-0.17506932278225032,-0.5131223175168708,-0.5878154401571943,-0.06861347178216849,0.748053207834192,-0.826159165972227,0.12593538030840465,0.5857142332151685,0.8438889117016758,-0.19342791345441035,-0.5648749743377042,0.6750041834930554,-0.7377348930746944,-0.4782166488200548,0.5445568787235329,0.5389946469103357,-0.32668232281582693,0.6502439206413693,0.3423963228664526,-0.4396883933143583,0.2876674685657099,0.2196902326899881,0.30381098999660894,0.33654962564102087,0.4252490460757367,0.8849441563054193,-0.5415746253115983,0.26096075369745786,0.3639996045350247,0.9115121487976896,-0.5926483619191565,-0.8509762345096686,-0.09115525506988945,0.5491516588460367,0.7844504395180708,-0.3648132574302566,-0.06820887445990473,-0.46271316249599515,-0.8179670874318075,0.5048891886208892,-0.05831854902648092,0.40353891564925637,-0.2237940451879041,0.6388340506004098,0.3985675806733856,-0.16650273942217067,0.2567243387639017,-0.14336820033697462,-0.518870662828402,0.8712208371831696,0.005301361516015494,0.35704475928290624,0.5067702192350696,-0.4159606397560664,-0.36669496213198893,0.22242658978935348,0.680424011761508,0.40787720267592376,-0.3504902189303481,0.5320572857667891,0.9538190664912009,0.5916102557764715,0.08672239933092908,-0.5558031623991747,0.13936386829165429,0.82556545294401,0.31520602619765103,-0.3577336879180968,-0.5727764931448349,-0.24279334509688139,0.391243416557041,-0.4738994133600709,-0.6930331781468827,0.5326897004396413,0.942636917540749,0.6999861526430348,-0.8398457732684781,-0.1799912956308393,0.15908013032100815,-0.4756897107857966,0.7147375536075498,0.320979569301741,-0.052243158915780796,-0.3009916511932902,0.49465440121979826,0.10304643571704962,0.4810401405157549,0.7367755442859025,0.3091262601526631,-0.8669991642924217,0.1567838963372659,0.3513827836554715,0.6083648958928868,-0.6453863256978887,0.7018785549733043,0.6603657173574967,0.18159159461721788,-0.5153510225679369,-0.2262957210313149,0.12423868275237625,0.4807848582324627,-0.6730492410835478,0.042881501698962175,-0.5686930293919154,-0.5759812805270407,0.4203949005485921,0.223740063160067,-0.5881051646177536,0.65473372875216,0.036347817144074,0.8376601295501084,0.1610480764192325,-0.14972096586743255,0.6347685795205946,-0.9608133448970619,-0.5067048187366474,0.5965159911808858,0.20550227554610562,-0.16313248130830119,0.12729261027729263,0.6154869929113459,0.9841190229538719,0.6784535089218563,-0.3263326297423844,-0.8698542016913102,-0.6241588924964452,0.5439070941380069,-0.30331047893842494,0.20671446384536768,0.08141478051781824,0.8578335988948264,-0.4443393723634385,0.36671016955571195,-0.735511287765831,-0.8280141263712348,-0.5169876600949248,0.8678878784614543,-0.7707152414846872,0.9124298357695046,0.5012603840557743,0.7928146453738724,-0.6184109161377661,-0.5852823371589008,-0.26524046098603743,1.008519115203668,0.8242639052343624,0.492464282011109,0.23084997001730975,0.7547082273421458,0.45089228409464577,-0.8719057029408509,-0.2935148488916597,-0.5894577537996665,-0.29812954325783514,-0.5144249240824512,-0.8903836638403109,0.33277674319596845,0.41215879876081996,0.266557285406444,-0.5082831412139537,-0.44641891940830203,0.43106405398804504,0.7668270141193982,0.02010367525796625,0.8686634010727503,-0.3395268456523858,-0.08083069771538456,0.03350667188684907,0.7581877316788025,0.7910179533215905,-0.09276860783325838,-0.48424167026224507,-0.5652739350271215,-0.5637137133333748,-0.806901152779675,0.43752657863581124,0.7900719024021164,-0.9519366030820512,-0.48783165028428577,0.5191414380096364,0.42284769997087335,0.8437512123012635,-0.18486145103456003,0.7716604586885223,0.3775587303158179,-0.5033812536090294,-0.6854733822473857,-0.19087992084404012,-0.44603365721832366,0.1374989695635168,0.5536254674171595,-0.6834216244886212,0.8129053849974299,-0.0406875253654016,0.13119628988529036,-0.15882585112455708,0.06398959491096921,0.6574360455351334,-0.891686562294697,0.8905897421300294,-0.9130867412136163,0.0004620832639008201,-0.830785478276179,0.7615367841415023,0.14489261774956957,0.2499443721595552,0.5286794945996703,-0.21129058101944184,-0.4974119752395351,0.7878828729174003,0.9750584822179396,0.8424706573966523,-0.04133536597768868,0.8766450181601015,0.18876811081029804,0.7722601410726848,-0.3716710624259888,-0.10533005468951895,-0.5169813660483619,-0.107095432592572,0.5536683982177135,-0.02041002671034149,0.4127781441258189,-0.7233190685117562,0.6503258541506303,0.8683825160305833,-0.8942490872552552,0.5970153945319258,-0.47911300736449797,0.5335659173215516,0.3399440483950545,0.23927975069448443,-0.71786688502196,0.41374936165610926,0.34271497076539165,-0.8516587880974522,-0.03334438866996269,0.829797774461349,0.3443805574607372,0.756882656703168,-0.9667858653833412,-0.5320649574127644,0.5019377438126504,0.2247000352817089,0.7526799614953031,0.6752310711392702,0.5819770426855018,0.882847363501821,0.18661371684525122,0.196408483269257,1.0072311694001577,-0.9597255612571727,-0.6435038948147636,0.8339178395066206,-0.6706951717013362,0.8486717074465505,0.097475902759506,0.12734771364152978,-0.5935360667216352,-0.3737556847853649,-0.13883324412949413,-0.26574592634543365,-0.6837729748753623,-0.9038552255182081,0.9449634177763824,0.24136061832249098,-0.4313025674716811,0.9349218316254158,-0.6543274144545334,0.8375323032646919,-0.8073174498172071,0.013665814403364078,0.1328010785066113,0.2690090606076367,0.8998734982066229,0.8899169060561944,0.3449904352678281,0.649455088898588,0.7740336860378842,-0.28349055693331277,-0.42569183462104626,0.39868420893268297,0.5463720073284768,-0.5851318020130627,-0.5224588184798296,-0.2889426619429873,0.47404958879235365,-0.12467904351758004,-0.6822820017957866,0.9661692239720615,0.3084524230518238,-0.2835497594841933,0.10719886612112606,-0.7570250971206453,0.7155644491077406,0.2584598892349576,0.9734739197917145,-0.0012944037538518745,-0.5821907590165647,0.48091063605817924,0.37668470471908544,-0.20192758490173407,0.03791653329212259,-0.7508968266288792,0.7337768819841292,-0.6008736953697729,-0.9444405979991428,-0.09608927754817417,0.1312606499023014,0.22479331211988798,-0.171800951492576,-0.09542598963240906,0.41892850098875595,-0.7345411877671495,-0.5880134983211596,-0.9746712475029762,-0.6654416674690158,0.2907703318029855,-0.3660964266688428,0.5169286967835831,-0.5134209676762623,-0.9694977584880721,0.6526641060814715,-0.06434183413583452,0.78980494467843,0.8480594144818816,0.059381498420978965,0.4069819351822277,-0.5850476958035467,0.13198498566605443,-0.7770667679763963,0.13114743075523774,0.023610155694470943,0.1422647738048444,-0.45120706008701195,0.3115683881664322,-0.7466912053725339,-0.5110221809382121,-0.7248418084304107,0.9819740786139106,0.0024685348190593716,0.025726802211186672,-0.6139386994471184,0.6824154205005812,0.9911657319472749,0.31847147329439157,0.34200691311397136,0.06821361287652,-0.8192528919691382,0.031163016098738183,0.34281476271700884,-0.28387724496130584,0.9332244661396465,0.27218655079076326,-0.43012615038685276,0.5197940449025764,0.321148687175119,-0.8926619251398842,-0.6877680712224072,-0.901913348910798,0.5470767057782164,-0.10645799220376059,-0.7241373862301339,0.8127498142075456,0.32975876731728837,0.460333359136766,-0.09209168489156458,0.20451865561286,0.7562824005311533,0.16584036962192064,-0.7737411421261315,0.21425179403385666,0.8069974167285752,-0.4626862199369284,0.6887008035574058,0.4169085616564989,-0.15655085072480743,-0.7611246422352775,0.9215742628512866,0.3604741945314802,0.18528077183754046,0.7984802621878022,0.02989626625888955,-0.9378870800621599,-0.2653827750851865,-0.320255962914477,-0.43292584935895295,0.8583648361136134,0.9069374685501601,0.5218393672332842,-0.32974994701281934,0.26517346903969885,0.1623390822743234,0.5474872347444495,-0.9166091817404807,-0.45247730608410786,0.3606147756204492,0.14859976476538098,-0.516925544744189,-0.17640855584828394,0.8104559935217384,-0.4988813805796759,-0.9119664690364966],[0.4264953442840126,0.2832322327070914,0.13493266250314512,0.21981613406315903,0.08183421096737499,-0.10507168290617964,-0.7458331733360879,-0.6336592841365674,-0.12503043629472455,-0.8330804537044032,0.619781897898251,0.9767940330453397,0.5474443248322278,0.8767888125290595,0.8662578053551526,-0.38756630123432906,0.09851788744758791,-0.7772503287453398,0.45373013755535674,-0.7630992682239648,0.5581551592664917,-0.7335181806081144,-0.41122875569558637,-0.41439506944001836,-0.9644086399556397,0.8494614758108985,-0.2110089022927868,-0.36124426163302104,0.22197310607234444,0.14827545524976854,0.7952771046583296,-0.3351687865703482,0.06735758750509527,0.18003469904043712,0.36495774317484175,-0.24773088047314165,-0.9161083884952617,0.6964529436234776,-0.8970003932178205,1.0254955162297963,-0.6750675116940685,1.0244543447824137,0.37815486024715084,0.7974013508444315,-0.743778870274185,-0.7657568745002958,0.20349897147694085,0.5694583102902278,0.9667162001461356,0.9855164923364508,-0.12873783573070696,0.36347394318237536,0.5692954058176491,-0.3664695934775545,-0.8918343804388242,0.027818489778795086,1.0061553755693051,0.86523279883051,-0.6108698348070916,0.915906236417416,0.22372840005200714,0.6173621190280087,-0.8541928344236764,-0.442848578327186,-0.1587833531503826,0.6841979847234179,0.6911161751735664,0.6438450333185897,0.7811473141147374,0.25674573990267063,-0.2565710231566526,0.3402985008987166,0.011404868578926535,-0.057998498906016806,0.9405677256472202,0.02934086027848963,-0.40186811999140426,-0.8053662115068333,0.48210730365767485,0.3777499381925563,0.6917242883663919,0.48288389112568525,0.1468608112592459,-0.5701679827931678,-0.6435855262168874,-0.4978839172335736,-0.14160180073387435,0.8505997295696306,0.466433531918865,0.1205605637920132,-0.5700022986462656,-0.6431889346113122,-0.7036155184348938,0.8028038131030317,0.12605721757292235,0.5196063029150515,-0.35904110223628727,0.08853779995203993,0.6247874409729726,0.3091025850088859,-0.1914551132653817,-0.508608934404584,-0.21126752648586614,-0.08482969188942904,0.5802653613803652,-0.8162866191470497,0.5186943118018397,-0.11533603315111034,-0.555132517373991,-0.21075404884362664,0.06645521233789248,-0.5321410619990148,0.5357913379505369,0.6641051688364593,-0.43860735991655686,0.0718413476773574,-0.5254562340440059,0.2076019332133243,-0.8414622007451134,0.682567195231202,-0.6919987536490861,-0.29678746927652233,-0.0006501851402186193,0.5693247977721759,0.21228105852923218,-0.5126425536576633,0.2871252888999163,-0.8905221896012354,0.16982205018201535,0.8273197965106988,0.9505533755433924,0.9203154130778433,-0.4562270200007859,0.7240765047200135,-0.8191713893538968,0.33282453021057884,-0.8869691460535138,-0.23607740120302928,-0.41952989705417354,-0.3566515519742223,-0.18268027806192494,-0.1876976256541722,0.4203242490931852,-0.5830049847634751,-0.9305144531103355,0.8865108496248071,-0.06491019718747913,-0.8742023817765142,1.0007180564785845,-0.28230891727633306,-0.22561257132574597,-0.6106242613363445,0.32315795035255584,0.10911091308389524,-0.7968188472465233,0.1989804990161347,0.5137037936961092,-0.4350174414649342,-0.7953341822365554,0.9005610151986873,0.5251207759427676,-0.14793182046030337,0.47169998796646573,0.24810839291008885,0.44075745057467,-0.6423489673770798,0.7621620216991567,-0.1812773826864551,-0.2000978386896981,0.7505079785149087,0.9289231697449715,0.21310841534559655,0.04934384145504796,0.599914566315388,-0.7744698919568814,-0.23784072717705618,0.4078512466188094,-0.1988705649616619,-0.0982125166677496,0.904190657832418,0.38865945924532325,0.7412738095022093,-0.3769368823657509,-0.9010842058970652,0.35048607405331794,0.9200598468348249,0.17485320149109101,0.32444496824786623,-0.10718046951907442,0.4817745033770606,-0.6729586389932165,-0.8557239655088238,-0.6140078769979334,0.33975135524555633,-0.8247439057714175,0.09127970900932654,0.1566891102667954,0.21608582374275484,1.0354339450751666,0.9071920222665117,-0.3812510196572475,-0.20285238790113458,-0.1252571604655613,0.1612483970117222,0.27909166078454506,-0.7698067415787357,-0.913158638752413,-0.2775245475315574,0.3004774755820253,-0.566546761086743,-0.27887479980452645,-0.9044606102614265,0.8582209009745835,-0.5609466979882262,0.821663179667139,0.14271816106936314,-0.8688046024547429,-0.3676586807872365,-0.5094273112071351,-0.023855072417425696,0.5554729197416747,0.23543642834778744,-0.7830003253220815,-0.02652245116889997,0.2194516155415713,0.3865336492664078,0.7882735292266451,0.6187496833826857,-0.7840974250898615,-0.49672070645433763,0.703312171368227,0.0835612596623765,0.7749301367793738,-0.45835710776485256,0.8245952140235793,-0.8283011158415036,0.10716483526812785,0.73260533514176,-0.847662298842876,0.0118042591650525,0.7108968799717714,-0.0776846185910041,-0.10045020096439407,-0.25810915902513254,0.2742681055708824,-0.46813622984524594,-0.4892804087616038,0.6430875263428478,-0.5455517816670834,0.22854137119354304,-0.18058877356022215,0.18073738594264022,-0.12452004750921465,-0.15410114095433194,-0.36335488406994937,0.13710692288389478,-0.6333941239266946,0.2066783245394676,-0.681013182623108,-0.7319944892906485,-0.5133021686484803,0.9939901393040178,0.6676639918858152,0.6814529792470778,0.5138879841775151,0.7554547523559829,0.6972892702411899,-0.3032270546622934,0.4335261355423698,0.08552872235381495,0.590851716449625,0.8619117539023984,0.8345255438493349,0.8750847111745033,-0.6500451356977683,0.007318199983860902,0.735759293642107,0.06496190579007695,0.3266365004591077,-0.8843115245142488,1.0406236643650937,0.2491347609776028,0.34488987268558635,0.6366972213611898,0.6881098655496464,-0.7331806982922574,-0.9583498163972448,-0.3134912812946483,-0.5908710753431576,0.6258694728685813,-0.10552727884536527,0.6341638835640371,0.04045541853289483,0.4834543424779496,-0.4471527247302461,-0.6556482097905414,-0.30043376256520493,-0.46276866013873824,0.7218193837542601,-0.7293320195560381,0.8017888095700968,0.8784038287892749,-0.37874516025532234,-0.12843128045601176,-0.7145244407466383,0.10905277614929472,0.9169255632204916,-0.6542067552741271,-0.8117540071042282,1.0144525960300907,-0.16059368709693375,0.43013743020820894,-0.8154986476482686,0.35493380959968934,-0.3415118810073599,0.4061619454042595,-0.21698614118158846,0.3181714933534765,0.0728169309733262,1.0191744463225993,0.7016088826357779,0.9361632661865751,0.030065349460276045,-0.2027574786304358,0.7185803392675407,-0.36018904302472665,-0.33576808283405757,-0.8640425082869261,-0.5060997061837894,-0.4795324727046227,0.9903337916655753,0.9138321233191056,0.023767961697933975,0.411573021611854,-0.09068291793205999,-0.2759528254795555,0.2587844588951626,-0.5766142594363148,-0.5334034514876699,-0.8599427469369609,-0.37895551296700736,-0.40233342911441794,-0.9004043393350409,0.9969471028364651,-0.7977366985936406,-0.9248468552681856,0.75717722666432,-0.5965306830182532,0.6604777822185819,-0.04450087729103169,-0.07827423475202995,0.3792109819692836,0.3416496516952383,-0.6490752068449853,-0.8697660253558324,0.4098796539516455,1.0116755504632025,0.10974358498127669,0.6205675802150545,-0.9058619375119172,0.06721312090137445,-0.39912116952732696,0.40530842542010914,0.09420263474185385,0.4352094465042685,-0.04458868546807909,-0.778594563348562,0.545182077437719,0.36218828191382213,-0.04280562317897383,-0.5914004443779016,0.5266073891745524,-0.7800652857892795,-0.6711174618614828,1.0080463557180288,0.010709656251595985,0.6850648080376347,0.35312520874044234,0.34931394460277543,-0.29774177490086845,-0.3272211834350809,-0.12714318778160805,-0.948155280050448,-0.9599149772590168,0.7624446952425488,0.7556612036778027,-0.08561070697227195,0.9104797363781354,0.0011345586586777726,0.7990088969131568,0.7643784345479707,-0.8879750975948723,-0.021205193193086287,0.46458227357978177,-0.8777808976299414,0.2919863160684747,0.8319438098103796,0.5179951702697675,-0.8918476452816018,-0.9184882567582605,0.7104218242252271,-0.24113517373361154,0.3790871289668842,-0.16412395671350222,0.5461244438243104,0.4210313386703277,-0.49058781572585214,0.029419020428115467,-0.2061688615907058,-0.15221075414526292,-0.749369114613197,0.27647205925624524,-0.4234483055929506,-0.6646453383919617,-0.11130706823920522,-0.47764888884711615,1.0385415401594327,-0.6849774210929216,-0.9385366847021589,0.014960101161412767,0.4896266703864617,0.9953921096752335,1.0275757902151321,0.7357956430422108,0.7521930512051437,0.9956637432448822,-0.3200984664941273,-0.4776602531253522,0.9391357914623322,0.550323082129757,-0.050599752757395436,0.4878950212782366,0.32571682924872614,-0.8313317206594943,-0.739826090776323,0.30242543762062224,0.31590276913902243,-0.4582979368628924,0.11635852475177429,0.8689455831001022,-0.28456862057130655,-0.09060788730205854,-0.6176479625459528,-0.18819525677979002,-0.6812531196917081,0.2308205081256575,-0.7099481114596226,0.8647321535282522,0.4786450967982505,0.5393982702614123,0.054027399480552595,-0.20371149800605617,-0.6414067622870692,-0.4616035178581995,-0.4822656348133202,-0.4667760786667631,-0.7976683643987523,-0.5148588646453516,0.02263024651517906,0.31800673088640696,1.0059731478974,0.8581630605667986,0.5576279096497568,-0.08990724512804361,0.009004832761613102,-0.04211817573949297,-0.4917668587120756,0.6243396138135731,0.1808240406209133,-0.7718689004855132,0.3436358425071005,0.68634193342032,0.9364076518445954,-0.9423976415948967,-0.16026102991199828,-0.3050613966181615,0.14312974012772423,0.4001275937069801,0.24237601795480002,0.4592155203717124,-0.3850921666866606,-0.7497420649205604,0.027840171714280326,0.2379351009605141,-0.6914088092520652,-0.7706706247517567,-0.05770461786898471,-0.5627481842812065,-0.911418173420938,0.3207989649700947,-0.43855416476515025,-0.8872448371793307,-0.7411324180605193,-0.3605908507071386,-0.80594604499224,-0.5348856445911052,0.28629614100692186,0.23298138447162348,0.07991726644767533,-0.8346403533911393,-0.4571378660591149,0.6565779412552559,0.04322911386888302,0.6344584452800524,0.10525912091136129,-0.3896436599198342,0.9326906612241932,0.4563899140242188,0.9995707761833499,0.49503992169351163,0.8717538489051391,0.8769027511911713,0.028380242712339347,0.4218228296131125,0.5497152210990353,-0.32984897669243013,-0.5868247365662786,0.5736713385526022,-0.4268728696681707,0.98273972673658,0.4848127376262995,-0.23427793958192134,0.9202375578307405,0.8459885717189222,-0.48918196329840746,0.46369823617536243,0.0593805361651783,-0.7171792839398217,-0.5471435627479164,-0.29193681853154974,0.42871208422636153,-0.6416478648871773,-0.7011137690264033,-0.22068969631702018,-0.208682753739311,0.5506694243888681,0.24699287512016888,-0.5041939335226955,-0.6173375764481213,0.729135940248177,0.45827966717030233,0.09386107575005169,0.31213631322715385,0.5567338268990407,0.46387429178674344,0.5183200294238351,0.45322387904015893,-0.36285465882486256,-0.20641956706222775,-0.36866250972552483,-0.16592758371885674,0.6279287066100769,-0.6482530844190135,-0.8747287045588448,0.5038172203574169,1.0094733917743512,-0.15290900612933545,0.053212897965669935,-0.7528004834420035,-0.8268862906195955,0.2304893838029587,-0.47606284923511777,0.3109450324585171,-0.51349315367561,-0.6526723632606979,-0.49746819426805805,-0.6526090578215249,-0.8214442705961793,0.3294629093308311,0.7470148596828912,0.3745240689825132,0.21736071567437731,0.4881924483470771,0.04104390659630342,0.5584986096559401,-0.0914912943560765],[-0.3120026205297018,-0.5143016316605027,0.20398521785703572,-0.663980351322484,-0.7612307834346206,0.49575341748501417,0.6730483692520304,-0.799059505996762,1.0227699847944665,0.7849858355963186,0.9536387587640074,-0.32042515257526,0.7281020893702599,-0.4353814576024087,-0.8919000948875978,0.43910811557481944,0.6599339316361329,-0.3173032968334966,-0.49711976739190017,-0.1765379738106,-0.043016866620154796,1.0101926197372346,-0.44751076651611604,0.7108272135048019,0.9710896981641821,-0.9337541698939464,0.05762016313180537,0.5760954117816262,0.8120042464649813,0.35545815790269114,0.9843475139502549,-0.9183625331187195,-0.40386802001937633,0.664605519574176,0.47654966023793416,0.9908610907146,0.8602854421910955,0.38750270739551973,-0.5192375821117236,-0.29223603295584233,-0.5392971610961143,-0.045250413720436373,-0.358948095768789,-0.9040439676934233,-0.0065042481064280545,0.5201997209742542,-0.44389473440183097,-0.2056373024997279,-0.7211346022411398,0.1657912609295934,-0.6694722915543667,0.8724335176036275,0.02526729415606763,0.6753307084086329,-0.8989721113615614,-0.4461372830016888,0.13056369336087198,0.9774845159332766,-0.06857418435650657,0.5926912591050755,0.11815717339313836,-1.163404020976644,-0.01994248244665298,-0.047104087180190816,0.41722203440851696,0.8269945985114778,0.7179788760061687,0.5570233490528775,0.4714622998655385,0.7885789580955245,-0.584922745515049,-0.43707306528972883,0.7906733973621893,-0.9264987296043716,0.5618834898269367,0.08149125817976115,-0.9434475010001137,0.05373910916495246,0.23505127229003886,-0.03201977317369071,2.195826711419734,1.094052448416828,-0.23545196715005892,1.0030866893045165,0.23348096460831733,-1.2320307737534915,-0.7311180388679189,-1.612814857955128,-1.6195351892236511,-0.42546362986180325,-1.1208869947967905,0.169754570767173,0.8495250494104465,-0.29689515788101034,-0.06239204654992213,0.9538304607594386,-0.0593264164921656,-0.22774222476096223,-1.052880302731315,-1.3107539229329168,0.03870316827953857,0.2989370003458031,0.6640411328328669,0.5025361208268159,1.0877055014907537,-0.7075223783623953,0.7027242545676623,1.677440528092062,-0.6670353922077594,-0.9397125108203175,-1.2646078390676676,-0.9811381231134392,-1.3897749214980486,-0.19026794705855238,-0.2638073166341842,-0.0446964152525666,0.5014597188412786,-0.042400453961834374,-0.42342416157083945,-0.6193943265017539,-0.6251096033747814,-0.4389988249991072,-1.083926734232344,0.15144010345287762,-0.4524617077167125,1.522539871721633,2.211900980584055,2.164352770425817,0.4845740146023609,0.9618116977818508,0.6629594317809588,-0.058609443377143085,-0.921053353479894,-0.18140758352874467,-0.42578486835060525,-1.0427312864079608,0.2047398695321569,-0.12879502986527677,0.9783945809343986,-0.656444243162517,0.1880268439241458,-0.08914473036615853,-0.7334977078903702,-0.7446359960698503,-0.7776679782650304,-0.8783697213744867,-0.42771919863016544,-1.1010047325605794,-1.2763460476610966,-0.24013180576938534,-0.043279929369072385,0.44473244102514853,0.22743100551249731,1.4005318256067454,-0.17563312382791263,-0.12892470987216784,-1.9025483290607736,-0.9756599553862275,-0.7514513693790403,-2.5098015530033897,-1.5123186963822959,-1.2913866867298172,0.1002745131637134,0.9694797872751983,1.1521532247245918,-0.7355223621183701,0.5635416359679027,0.9504390522115389,0.4301691046547044,-1.477177546432948,-0.664988394127228,-1.2095829416321118,-0.6379596652245488,0.18513970721728507,-0.1911107671846832,-0.09861974786615535,-0.14533483299169989,0.016992745320440393,-0.352788220228638,-0.9436384990709565,-0.2922623508031202,-1.6805169179567498,-1.1887391814846,-1.478578081306662,-0.3152442699812139,-0.8255739815167629,0.47568805331090586,0.07739185051522285,0.17347071189558394,-0.2517066446964025,0.7630990913437553,-0.5321509816793277,-0.14118381465551455,0.017220012513145425,-0.4909757292364305,-1.6066417855793882,-1.891362077669113,-0.6080364105957633,-0.004500531664276642,-0.09887640933458437,0.1527925966996969,0.7599822343292149,0.293936735957902,-1.5724988840125527,-0.8558502116187295,-0.6270879200099273,-0.09117572487380617,0.059662217069912246,0.45538836094300694,-1.5662428906361276,-0.3193444158064095,-0.8170688310367235,0.33094114043508166,0.07546892233478243,-0.35147170776118786,0.6087149881944325,0.9707082479508884,0.7804654045636629,0.017966128477406952,-2.155680841064861,-1.588914078655455,-0.5535430703316229,-1.1772621770481593,0.43590955237587065,-0.8308527524655342,-1.0058453191701335,0.6441428607707155,0.16689776151614213,-0.8303088133376364,-0.9264329250258304,0.2760024781541038,0.9814053783428882,-0.852599538940199,-0.6009710717633437,1.0968847011355107,0.3619516874663352,-0.2601561577551893,1.3165534095942577,-0.300054639128929,-0.3900386623942896,-0.7857265884627309,-0.13525862750626347,-0.7493380675129858,0.4578034266445007,-0.9625690080669875,0.07776306818630678,-1.128979535156168,-1.0789562023507595,1.784429366916104,0.07414035591803733,-1.1654984686323788,0.19181614453260856,0.7918583342634568,0.5538451854378003,0.5791585180061516,0.2342471101943727,0.889138897132552,0.21729371161800323,-1.0160555826090678,-1.6578964824222426,-0.7043557025345651,-0.19883716310501862,-0.2625814094349996,-0.4320379085167059,0.6794680021865211,-0.2059311846330555,-0.15334135002065916,-0.1748025714095206,0.6587010272911946,0.1984040009803892,1.366034795039597,0.2885082896357107,0.4167512642732331,-0.7914964901791622,-1.9081354351478113,0.6713996554509843,-1.1829099520691873,-0.03893898824124149,0.8833189036515832,1.7115486593963565,0.9813401047915437,-0.24304000440982523,-0.24713147751520884,-0.15142175895153892,-0.3539677545975816,0.4457126515389061,-0.46931064666878575,0.8130271157756237,0.8371123557908653,-0.1011915011834852,0.18673802350639762,1.31087135081955,-0.6558562860541719,-0.9224726043511831,-0.8864564859159166,0.6159545906105534,1.7723349856286776,-0.4403228263721151,1.6777031652851757,0.4882767155924223,-0.07255774905894878,-1.1207740987910928,-0.6980534611897045,-0.27053307150723466,0.3371227527632338,0.7740911772160324,0.6372370861474024,-0.19004149241228974,-0.750306812381383,0.752586500638809,0.41228951576540507,0.1328988229865266,0.19624851324770887,1.099978209617456,-1.2528884268644565,0.19599827843939183,0.5234389513626713,-0.9654919169600618,-0.22900181134851647,1.855584496097136,0.20092098635846467,1.0970235222950642,0.029278046441898048,0.5034962446435807,0.5569441046831588,-0.2927571066200528,-0.153181542713926,1.55099597261414,0.21255975575006125,0.4491857484251866,1.7934318690829516,-0.8388043539000863,1.582833078589288,0.4361065096753907,0.575033702698809,-0.3439053196341484,-0.2124958442201485,-0.15295523775894299,-0.38836756313077686,-0.4166091719853251,-0.7270831465690264,-1.3428152558032471,0.4186651651417338,0.695058549305053,1.1142641006020122,-0.1477473611126992,-0.5313232158170259,0.1564097614112476,0.5045405783631586,-0.3703469091295782,-1.140637341421209,0.9922178439943328,1.2229172195548867,0.09732220317231373,1.01840129950289,1.0564679118284601,0.4905161831929224,1.2076171692140774,-0.3687610487270998,0.1565011539395818,0.8955880827689287,0.8560723338887001,0.36479552330108395,-0.7407473258093292,-2.1771575234286624,-0.6365546062795949,0.7271436528544376,0.02881810298373988,-0.302993967085303,0.1630679148168232,0.5967351773791891,-0.11132017237670956,0.5584317924087779,1.1252959614338611,-0.054942725002487064,0.43622582773211094,0.8664840453505641,2.530535494571979,0.37348166441571856,1.251308962994825,0.1027621811194877,0.12258534025719425,-0.11937767857930252,0.8975799838487933,-0.5758293008920994,0.7005529055007744,0.13759261261295475,-1.1354577069800655,-1.0005765218426843,-0.21363137442153707,1.1229534765805842,-0.3018252598383508,0.046257156517338166,1.1213396645110612,0.3243488165483339,1.3855313800926699,0.32227855594707644,0.8152836257647549,0.5793812466757391,-0.18824269513780845,-0.3587896304266165,0.6415992131389571,0.5506185631703511,0.8007004400409782,0.9419994151886281,0.35864393958295204,-0.536862723788807,-0.4082111570370275,-0.9209320031257029,1.0337639894776873,-1.3504455922912038,-0.6070933099999537,-1.2112934419470665,-1.0833817038800952,-1.2445392256660497,-0.6866725558004461,1.3629118333821155,-1.0260149151745956,-1.1432539099931283,0.10442538110546495,0.49558960993562173,0.8357768486624225,-0.6196699390041622,-0.27576115621828096,-0.08844177723921258,-0.044003397440293114,0.13557724080276687,-0.02600095129017911,1.5199427417580897,0.7198374883652083,-0.9376265696294652,-0.039860744659231374,0.43835491772461416,0.7889631073047085,-0.2416242902415953,-1.1129781155099583,-1.1849786436673087,-0.9834318409077514,0.9257808534418789,1.0904567174317747,-0.6286883467694114,-0.1597848139127688,1.299546346018079,-1.145259099440104,-0.1422710488794523,-0.7466457076052769,-0.379136050045217,0.5992272426535856,0.8671172647167738,-0.5205352213489729,1.2318707426312647,1.0964038809952867,1.3676450888183347,-0.022470339539883043,-0.8431745238292128,0.6181999683006114,-0.9505391632695517,-0.18844469056791058,-0.7722483528972365,-0.4942057210776658,0.01336749242279959,0.6993134249274799,1.0240586915937107,-0.3871106046023125,-0.028984951963750054,1.0503879043234297,0.48657045750904104,0.8206375644565603,0.02495496889414848,-1.3317853041177585,0.549039182145072,0.022445573997252524,0.2378001445577464,0.07847150464055355,0.9517100072344077,0.046028409541359755,0.5085627987711666,0.3042250132672536,0.3345216176386218,0.24603302138594513,0.6865479816396585,-0.05818814054026555,-0.626276120314476,-0.5185310500099952,0.2830452107331776,-0.8867176229220347,0.4756350822629842,0.742146230946156,0.8858276376385636,-0.26390348910105926,-0.5739940049122855,0.2953544907078251,0.5790237966229375,0.3889336722739321,0.007622043389271908,0.04062392326163723,-0.38503979853651255,0.019581949867073876,-0.6420220552096333,0.5535841083184453,-0.043920068942562916,-0.27216562905329883,-0.4831886095174344,0.9238587847966264,-0.604847455065971,0.7961729178250243,-0.6557336011276851,0.4143897263267193,1.0182763179245866,0.8549012335358355,-0.23033707123623848,0.5022521196360088,-0.8850511731439381,-0.030747275766286473,0.9401393972169547,0.6534727300583671,0.0765829118797553,0.8005187531219922,0.23846843002149665,0.07957802565165238,0.808526728045674,0.5676735572101612,-0.8720163859157632,0.8632824777055133,0.7227848116399969,-0.5623700454413596,0.12095581425830228,-0.5291667986888,-0.5909770514961541,1.032403212164984,-0.19427425505834794,0.3966885110426787,-0.4710188007724168,0.33444028674661,0.08784631084758261,0.19127600378400034,-0.32139008376328065,0.022806588513797726,-0.7910537140622838,-0.41096587226749853,0.9302667738450796,0.4831376236603468,-0.21863434377377938,-0.8419966868144457,0.5825454228955049,0.6528265559356936,0.9036211765916282,0.4811102425156723,-0.48842991976972266,0.774376481384448,0.7262580936901162,0.8573465105010385,0.13901894565703676,-0.15304159394526062,0.20834315072635856,-0.8010931207196119,-0.5187082904939286,0.7872872277508782,0.6132905958439223,-0.4570955378679196,-0.5594494947904742,0.40267703156061935,0.10451629216045542,-0.6158714148689701,-0.943987210259821,-0.0982615304482717,0.7509872280212915,-0.665225128342045,0.1471880597155606,-0.35597564824683287,-0.8625762901933793,0.21811195809448714,-0.03126360356415898,0.5033164919559752,0.058331091579559395,-0.8478147697267099],[-0.613776980672474,-0.35756915480302154,0.4675712637955338,0.19295480696943998,0.17419336195671312,0.49076388698509776,-0.40285771720133823,-0.32751726759444943,0.2721938189693629,-0.5312035826679733,-0.8323874535392899,-0.42430965391535813,0.6115266606234333,-0.00993888617626135,-0.2795101803270133,0.11321534967656814,0.3134381213260405,-1.0515262614700196,0.041412887890288776,-0.6952381711946671,-0.6970229855994048,-0.6325770935511148,-1.1244922659295413,0.1124570366663812,0.03124363785875987,0.4463639499243376,0.7915994587397459,-1.0814298830201288,-0.02140580397010258,-0.6018894022638237,-1.1369967695823588,-0.7996612730167034,-0.5033162576041461,0.7992540927222178,0.5378939155964528,-0.895442652617009,-0.8147637851220177,-0.3169658947351132,-0.4228083070066611,-0.1496665405161229,-0.11579759647593342,-0.9635530833465007,0.1966536797344157,-0.9146192558402704,-0.216807159596781,0.6879867593357663,0.33840113738048216,-0.09376146109394769,0.34071341358415164,-0.056231782130963436,-0.4850953839799821,-0.5729447132528398,0.442156541012069,-0.279363862083967,0.2842278927065165,0.7793117266643632,-0.8325542178586511,-0.2954311724929285,-0.36960333127690426,-0.414632216632169,-0.40678404786660843,0.23046431619865962,0.63404338426133,1.0455272196756629,0.9413611531856336,-0.6228268414353914,-0.4348092957929551,-0.7162791190726284,0.18710256815345028,-0.058298594691595367,0.1658222801704212,-0.3000606616062781,0.1494463782191944,0.022457474227826544,0.19262521751385428,0.16341878668722484,0.08742141943625653,0.5319335853895678,0.6708852873866189,1.7811126581012617,1.056420691248693,0.9744219227358326,-0.17761669299864902,-0.061519559939030334,1.0534674739773744,0.4747461687052521,-0.2493071330977908,-0.07644173848677478,0.48979409150240166,0.3052847385330881,-0.7136465733002298,-0.9571555358673105,0.6941649106293385,-1.1882880080618425,-0.3294556760148737,0.43673507394740896,0.7124231869829378,0.15593305054684556,-0.3799329530126082,0.3069527699156229,0.8164562031884929,0.6889047739807437,-0.39387976968445054,0.5001250419227911,-0.21877332417148,0.329293258953926,-0.9353767249454453,-0.17942251008073762,0.9614943453364381,0.5072364493432345,1.2464785461814285,0.1291089032626218,1.8955603059398978,-0.7043481709135642,-0.7198500365119087,0.7407682622751058,-0.7420316182488894,0.07490092858902933,0.23261887791375477,-0.3821262801726577,-0.21689539818134726,0.9735093842747944,-0.894504215138911,1.6003557607311198,1.293492745968205,-0.013331582285714322,2.326602723419227,0.42346565041304696,0.38939363832465734,-0.6147692067067034,-0.44098742424652104,-1.5505608702631364,-0.34853520705471097,2.3791624642552263,2.6142930637963517,1.0305202633434911,0.7391039965581222,0.5361917657838606,-1.6196706745477536,-1.6478886198249358,-0.3568147672709821,-0.32734718253361617,-1.0998974585878856,-0.03320007018019267,0.06962947294664602,-0.5021158900598801,0.1692297874875828,-1.2390882706935404,1.649472680319156,2.2730009098823007,1.7572658942657184,-0.01146971505605659,0.617797006737519,-1.1627547800620095,-1.1003698479494963,-1.20069920387329,0.4600788647563679,1.1984593811230229,2.9451224599838897,1.9604639832005042,1.6619168365729933,-0.08091500100595057,-0.9285363530574188,-0.7430058031331762,-2.23403084231351,-0.2597893467605286,-0.5169037156748748,0.49817725864073903,-0.8073420939993996,-1.6911539324149294,0.8322385261373092,1.182410611335838,0.7500632844142836,1.14848132626553,-0.4592192728537349,-1.0749832414642486,0.80559232628212,0.35933547938056665,1.511207444006609,0.3579152050063392,0.9628706750996903,0.62676846303484,2.220475562017844,1.1844858162281497,-0.9811545487795675,-0.9868537962269474,-1.7955832914161363,-0.2482465160746212,-1.6923818179391839,0.5090845745209002,0.8091940527976469,0.5358420889877578,-0.37529909584983945,-1.1304519043310155,-0.3281083282804503,-0.04271785431509558,-0.7384338199587251,-0.6571963894389873,0.3305204808521432,-0.028250100154015575,0.41822835337535313,0.9186940593116452,1.4384644302244165,-0.07455041056085583,1.3792124929839675,1.2274117320539166,2.0592618622856103,0.1793464270206926,-0.009828913678339157,-0.8378730066173196,-0.6179566233327763,0.5037276409245174,-0.18277376664072725,0.48867932145641085,0.21762315070521548,-0.08880450257424229,-0.09956937174697818,0.0668368518585115,-0.20632641809797195,0.7468184346246591,0.057174408140486396,-0.8702051717466996,-0.013104806646720753,-0.07694740964018709,-0.1462857885357505,0.46597695331985683,1.5926427802777952,0.5935784225055372,1.191649259510053,1.2387284085709696,0.6156910902089232,0.8730390107591496,-0.00903071957540929,-1.6510454788727955,0.03572796725012491,0.8352514752383466,-0.016757965090581466,0.3149089944957224,0.23080301638024275,-0.7506229435080556,-1.0061145669473353,-0.15944897026470287,-0.12070214304818898,0.7104842976491361,0.04407828357305455,0.9054264135793606,0.13944169049481855,-0.08783613859540301,1.14645291302317,1.0377934996317564,0.9479460603391495,0.8380387782634605,-0.4057526584630154,0.10341732507312053,-0.041494148204423466,0.4237362987453453,1.1739191282993606,-1.3623401937080881,0.16631910872389744,-0.38695031693071563,0.3680237622230477,-0.5230316427164005,-0.7147517181903975,-1.0106652974057024,-0.7177495351269514,1.500321609489459,2.1895438887732754,1.1916784772450066,-0.7503500876582797,0.07742729609793889,-0.3071231878318914,0.14330218200802017,0.2802693506191873,0.6537879611533571,-1.122700359372402,-1.575693243812921,-0.4067696219352895,-0.41498779371902156,0.024383592074591474,-0.13569203257891238,0.9583730685363598,0.5396883539597144,-0.42529957139824026,-0.10138169720561613,0.8949685557532919,0.5718671824589718,0.5633580116994701,-0.6905285692789507,-0.2219732507344588,0.48016186564645963,1.0011418298960926,0.4834678453510999,0.8490311333157408,-1.1245184937450117,-1.1048872913779486,-1.4282329483900789,-1.1946121258956026,-1.908790804961057,-1.5306366488401904,-0.6106008193119548,0.2501174302046003,-0.15048829348526196,0.7336184880768337,-0.9681238037942352,-1.009334233843241,-0.4610313223161873,-1.7116142321891072,0.2702661595136564,0.1445130770509197,0.2785914973754879,-0.8664934014516212,-1.0440211652554703,-1.0603117471935246,0.9276280799991232,1.2395024181607337,1.2014676696821502,-0.3772341040321238,-0.11316609936690823,-0.17809818320487675,-1.198788993806305,-0.062086264441587206,0.6208475201508727,-0.1483174888552651,-0.4259666379142094,0.48184153301167354,-0.35180784641351404,0.3081473783989257,0.1470803618831519,0.20674018109067632,-1.1478592723549557,-0.9381708294218023,-0.3437410342104378,0.23044614567820879,0.33467837081789675,0.08752824420438275,0.8292924473014384,-0.8321130687498881,-0.4093766823883301,-0.5354230304839257,-0.21404033017462257,-1.3752292021472214,-1.2117781631590512,0.02360284823538471,0.20903009978040987,0.4715621643423362,0.6151585744221126,0.9101102433497777,-0.07789189072911444,0.003177923896393745,0.838361246263139,0.5863271497975716,0.7873115319302069,-0.42244518226673905,-1.028369470480927,-0.8472304487127674,-1.4883018864517616,0.029263451627940924,-0.5273199068131156,0.6462374578701252,0.13913762083449652,-0.5683180937489865,0.14767908279896602,-0.6006724740818804,-0.6346350778357636,-1.311271250301321,-0.11822651945841586,0.04835248697873033,0.07728463218772966,-0.2294293796684625,-0.04482997430138045,-0.9036984891241183,1.2759896468455743,-0.7270574731616933,0.3794916134157725,0.058003028673448906,0.3574123773985991,0.31851927401027685,-0.5877266075551315,-1.0915539172586,-1.2676683807560845,-0.40659963341390926,-0.46502647146822074,0.4221374691963495,0.874096783778176,-0.7033502665042719,-0.8704276800294467,-1.488730809541093,-1.074961944991081,-0.14042942087049282,0.2534510973649161,1.8611209955657202,2.280137459640713,1.4408916306374393,1.5273464449441678,1.5006585942003268,-0.4899339264133832,0.7113849026015476,0.43862749835482684,1.4298525888351967,1.2721423677044223,0.47878332133611395,-0.4533277327336026,-1.8298754212771073,-0.9957563250560048,-2.004191876843435,0.26875856166996803,0.020960842960809647,0.8621623272920004,0.0834801554014241,0.45506729565572435,-1.7267124780482812,-1.0584396783616896,-1.0309686150538613,0.9689240455745965,0.06165398139769717,0.8987939003993334,0.5717846239088977,0.9874472499738411,0.011208854251309406,0.33649941818715223,-0.8873708450666054,0.3670584027916762,-0.6700109048068438,0.7151614846095571,0.1433005500890179,0.08387116665130669,0.4605958676156445,-0.485180869314514,-1.1017740576425818,-0.7391406622618195,0.6617806610792996,0.4283946900148704,-0.44657836509494797,0.07333592361178827,1.017068826754606,0.19638627126830605,0.41507892333913904,0.585008934507081,-0.39816508820700386,0.9933210002313589,1.0291490121857063,-0.24413271553362909,-0.6644281010905235,-1.0660944522695184,-1.5510998978637207,-1.2363847143821352,0.3099399684036917,-0.3881257113312108,0.4813781272159654,-0.497530208028152,-2.216318187986716,-0.8712878789535987,-0.9999027589706571,-1.1866336852765453,-0.8824081980384437,0.7049174418565958,0.3611052427772693,-1.1140860799876815,-0.40922594784849337,0.09983316314937168,0.0028386976421828406,0.8506944809237618,0.8312929830917729,-0.24794328124383572,0.49972991080247703,0.7830051545520109,-0.14679299946334554,0.5519410708247767,0.5086433103194575,0.2411075578951307,0.3141173607244665,0.0805469899547585,-0.07090442699949202,0.31384276796526195,-0.5534550442222148,0.04566162957663879,0.31143627141043706,-1.2343267779414897,-0.6905923218645165,-0.6256805653334967,-0.5368606276284027,0.7425353777825192,0.2658102855158184,-0.5880071232123025,0.4539715441647025,-0.5941159430624647,0.07937586615627727,0.10758500305930307,0.9000040667142362,0.5736485865046671,0.2912817531897313,0.6225639263157196,-0.847819805898809,-0.7004803406819177,-0.045221831061119454,0.6209739356087238,0.007850667874084697,-0.07512418653738612,-1.0783459907124027,0.2785022132126078,0.3282792933215408,-0.28719793989898457,0.7212677855010088,0.2622955627556689,-1.0570689603355896,-0.2836146526404437,0.7201050893961138,0.30617721907116713,-0.3206259357136009,-0.11093677478704385,-0.5499432703805889,-0.1980350484853233,-0.02925159940258507,0.804341919714654,-0.20745652510089727,-0.29075289496250983,0.6145315457385377,-0.2991391527474341,-0.746121210211691,0.9676549017906948,-0.48814157170884775,-0.7438209771321991,-0.3015865910375467,-0.5118152754259562,-0.17235245943164548,-0.9273199253986619,-0.8200112773267829,0.3593838357553101,0.34674774519732166,-0.28055997500509444,-0.474591342318085,-0.4694148209750424,-1.0727390876567917,0.6215128544757036,-1.086390487115356,-0.08410465776137967,-0.2978637134195402,0.6770618255387348,0.2267614069658002,0.17452550978963086,-0.3767532090840654,-0.9730830233315224,0.5850979751481624,0.5841510762014241,0.5533554458066199,0.5331601940906503,0.14943212919793322,-0.6806880487318905,0.6828490678679304,-0.31250290058626295,-0.5326185427515571,0.19837395514437942,-0.25954873747131113,-0.7246589550077123,-1.0955452031991417,0.527816774405633,-0.9259715300546332,-0.6836089904847751,0.05943366100694942,-0.08915727914201295,0.14898916067928317,0.03172154777612247,-0.744417402248243,-0.995973628131007,-0.14627039901146252,-0.4000515206219315,-0.33884849730252176,0.8275425142972748,0.37065707809044346,0.48840738276752604,-1.0020188989945888,-0.8667061348966465,0.2696456032264922,0.299531292378018,-1.136373719443206,0.8501930504047075],[0.6935086580987462,-0.13691208200429728,0.9041734946301281,-0.2623021537507245,0.970025668204229,0.5184191422770446,-0.41762147163130514,-0.07646962885372775,-0.7052118197475634,0.14570877561615872,-0.40560147135083824,-0.1235423592093322,-0.07579293313228162,0.14233868904060146,-0.9681209440102422,-0.30318943927445563,0.5635423924189792,-0.5212252608567067,-0.11656698044595935,-0.8005801512328512,0.5378722703052303,-0.678466058521527,0.7912228527019702,0.47657408258119016,0.10768078996757548,0.07604595626486689,0.5630974608535695,-0.5585649958947361,-0.11448535125394442,-0.44392892412133556,0.7650072518018938,0.591873295932754,0.359073552435635,0.40561055498750687,-0.07091199950317001,-0.48034580531617976,0.9183599774081306,0.7479960547056034,0.8608185041964954,0.44694023776158476,-0.12189920547690533,-0.4787089654935479,-0.17862951916971878,-0.913584645966742,0.05241395517785197,-0.9239199893328753,-0.9519739984438589,0.1284610631365907,0.0914962834205867,-0.31695785367903007,0.762445055549517,-0.9844580037381192,-0.5310015690044918,-0.539537634369454,-0.00201019407513044,-1.0064988439444036,0.5579179318904188,0.8218219920760728,0.5462930258512513,0.27427283961374194,0.5045485047300404,-0.632276334921823,-0.30381947241231816,-0.7913852579521382,0.8211691124243314,0.1697647011377066,-0.8903404593053901,0.910331800908134,-0.20905572064434783,0.4494422204007664,0.536123809792536,0.8526217242475949,0.8170039396654944,0.20548456378333038,0.5552484692392832,0.06945555420988822,-0.49688293805931594,-0.7782435797519569,0.7338808669131089,0.20303164212221678,-0.6699574460275675,-0.37054306089725675,-0.8382072303184798,0.22235939806655863,0.4746031099624372,0.39191891900601494,-0.43000543027052485,0.7425076080695352,0.048995496559614486,-0.1722147749494411,0.12071286781209298,-0.8024731592712349,-0.23520376261907922,0.5634121477594318,-0.853012114314216,0.8697391282029625,0.31926308634933953,0.6153601823604351,0.15812609537445532,-0.12807953820900264,-0.9293386943241055,-0.8544908528980514,0.5519956382130927,-0.9720056512870424,-0.366703752527839,-0.848633781902528,0.9036438345094016,0.4056020274908774,-0.6392349836714765,-0.5444103757812173,-0.8863347694253297,0.9259862151398695,0.7354261226248637,-0.029050979557324295,0.3435900171800068,0.9295465555846637,0.6732627594719507,-0.8604380843607099,0.6008980688112504,-0.3439589346620453,-0.4401276222820898,0.9200090969550146,-0.9150463692010181,-0.03949025410714902,-0.188667941993741,-0.3276341565840871,0.049014795422867755,-0.36163260784034407,-0.29092991178287664,-0.36197480530291276,0.7535454044310793,0.9520045832735669,0.4449667483077478,-0.800095624112886,-0.6526998991099753,-0.4617642643768157,-0.6157505831572786,0.948870560338234,-0.016805999489336813,-0.5379030422300937,0.41775437647981595,-0.03565714687244859,0.8906124488362255,0.8754223889787629,0.715552092399149,0.42723083291277475,0.4353433891104413,-0.3515891199920615,-0.23694185502183818,-0.5798488904963941,-0.0758628075548732,0.7243046602034494,-0.609441948136036,0.4501721145964421,0.28403361409139966,0.22222548229433128,-0.3270139731455742,-0.6521634261715874,0.4928059821995713,0.516105244942041,0.3356990843024156,-0.1806964208145831,0.6384450456025101,-0.16920516022247312,-0.46364663781457416,-0.8019108505353488,0.35307275587213227,0.36464957062668457,0.6855649731063651,0.599300340229028,-0.8971464991845662,-0.6180814568759551,-0.39442844126732773,-0.32105789987876143,-0.9460579997890385,0.6852022224889761,0.5631395558564595,-0.568514891919291,-0.9459084493484655,0.34191131729690316,0.24513642621963497,0.06763247634539295,-0.7631730766550089,-0.4347998961339799,0.14298985428815972,-0.1947314126204084,-0.833168351047014,-0.6683593136626136,0.6233441591048546,-0.6820681062813707,0.35602065358221036,0.47507437809901853,-0.447351557366789,0.6783934697126527,0.21691333881370997,-0.5660998806005703,0.25245623892665153,0.513580936858895,-0.5902138505838807,-0.31125371878535024,-0.16909909927496344,0.9034275435949338,0.8774931527406848,-0.2761684250235709,0.16619812377249638,-0.888053064310608,-0.3538437451758084,0.8051783553398881,0.9237119771675119,0.2443680610406713,0.015289477717447689,0.062060132301755055,-0.5578225417372235,0.4368579275342018,-0.5492586512729372,-0.37520838802011935,-0.28325907058424127,-0.44494968100287663,0.5312269666474708,-0.8030720090340221,0.9619737710886155,0.35650034333486436,-0.5888489839958077,0.11452251199740614,-0.3665742336665322,-0.9049902996685039,-0.3485477860459068,-0.9975026948328971,-0.7423409137444328,-0.46367363717720456,-0.23459322781290587,-0.6258901004173839,0.7813386391685059,-0.41096316771006425,0.7227776748541658,-0.12160916259333308,-0.51038966640541,-0.486178195709182,0.031532119840651116,-0.1227896605573867,0.903905187065071,0.6246001972529979,-0.3264447501859818,-0.9865332098761883,-0.017355092454478062,-0.3730798753103654,-0.21581429413183126,-0.8060349202330552,-0.5070425083947795,-0.44313802059375595,0.8376801338919929,0.24282549315108798,0.6369364618163552,-0.21668425052568646,0.4398140851707586,0.2902159013155504,-0.44516109125185654,-0.18083856299826614,0.6788108886221182,0.34405380506234273,-0.04515717699110461,-0.2774290738327567,0.018724819925590466,-0.4005926347625848,0.9136460273013322,-0.18367609997537332,0.7318226260506187,0.3720738720797641,-0.18899272414844406,-0.6264174514666181,0.32898243529955506,-0.9069206007630362,0.39222496189136613,0.31378621264247386,0.00782713639403611,-0.9725855139830097,0.09588275340872285,0.7020093943493393,-0.5092076712184048,0.5768805776408754,-0.38119847372067944,-0.7923052156581706,-0.9958035376766099,-0.2925614387184775,-0.8635684237648169,0.642845073630273,0.24574970011620853,0.8911255975157268,-0.7164844499480735,0.917632167315119,-0.8767595353575443,-0.5718534201188044,-0.5195108191921235,-0.1070859853806245,0.6196879093761167,0.03985932006186125,-0.5510592925416236,-0.6339950768390923,0.5321251140973214,-0.9729371339084607,-0.6846994406559366,-0.6625815400226215,0.5003130358876972,0.4728095769483068,0.5412638738704192,-0.42981928663119323,-0.2687185238673371,0.545538332626284,-0.03896457096287994,-0.5521464302000296,0.6762297551789042,-0.9423193823549494,0.6955998365972982,-0.30654855491529265,0.7266435413075966,0.4417416342366022,-0.5386848661795697,-0.3282379636999584,0.5133341785394745,0.9569053443068162,0.40758600920435434,0.9171386094441468,-0.48953194699867764,0.9722320033133954,0.008535552340525087,-0.9062311015245635,0.7113022825577215,0.8226968356276554,0.20122040648877212,0.8812673122837518,-0.8361840308877059,-0.4641328842076317,-0.7269013903748466,-0.27554006269647136,0.3161788078670144,-0.8131929033293044,0.1877756825971061,0.8863182466943262,-0.603533763165824,-0.8756681420046847,0.06461178285158552,0.5201091983941205,0.46762736341713024,-0.5128923011313627,-0.1132226188333453,-0.9253342731993726,0.8233011711161213,0.2877236061799151,-0.17309037773913843,-0.8856014639832924,-0.6385520760634273,-0.7040876963818201,0.4632795179478832,-0.6781354314293764,0.11436240226868034,0.2361466212726376,0.8753316166746721,0.8417892552479024,0.5401009731321083,-0.17784664968742037,0.04295833123136146,-0.570589016050606,-0.6687796397062894,-0.23325185587370956,-0.8628707731456764,-0.21694434976176408,-0.35679764366389893,0.50428343890687,0.7441095460938745,-0.7340042016321531,0.2119832195699708,-0.07553816376203928,0.1927215392931737,0.3876210836902492,-0.06548807334616466,0.04088730164288742,0.8316889118424492,0.15287613471062902,-0.5050691415734812,-0.7900772535495021,0.965147179153149,0.25831446531091334,-0.833199472979776,0.9507108065758743,0.7206491117583727,-0.6871964144769107,-0.8206618808887427,-0.4828287078447821,0.3904534080588756,0.501589023232003,-0.4968372632687389,0.34717014867336854,0.1150309487494961,0.8146194724256269,-0.017476935116952783,-0.9318273071794946,-0.05334570111406107,-0.8045043512372017,0.1885689984496996,0.7856871378132855,-0.2614918483069741,-0.5580391619210218,0.21085884960329282,-0.12150221631244443,0.8723817476012072,0.5098820020717455,0.6067997987182656,-0.11083070653024313,0.8344164958985454,0.09082923423671362,0.38536437448104266,0.35981421667284547,0.21242254702776547,0.3117771171144117,-0.2459086513505847,0.2778268245656401,0.6938976056988445,-0.509500469910666,-0.8008565852962898,-0.39928879976435955,0.23559024100458079,-0.6492435615419775,-0.42887045417816794,0.8022525309070754,0.06126415793918944,0.10295394607776485,-0.1332370051342135,0.2917325590066247,-0.14776774184356845,0.37094856550700556,-0.5931849367555975,-0.1170944945401967,-0.3192753181467305,0.14037510303918657,-0.45342355427443204,-0.9265996950511817,0.15577850102804308,-0.44709007195479267,-0.5855953022108801,0.7476102161573608,-0.2962940115750802,-0.4010691589355246,-0.7048101534032388,0.08014096187028409,-0.8401659624446609,-0.15545058652653543,